svm_type c_svc
kernel_type linear
nr_class 4
total_sv 1756
rho -0.999862 0.0946681 -1.00006 0.999873 1.00034 -0.999776
label 3 1 2 0
nr_sv 456 232 829 239
SV
0.006615051511544558 0 0.0316853473694663 97:1 267:1 268:1 332:1 379:1 404:1 407:1 408:1 410:1 722:1 723:1 749:1 758:1 759:1 784:1 787:1 788:1 789:1 1149:1 1462:1 1515:1 1699:1 1732:1 1733:1 1734:1 1854:1 1859:1 2350:1 2515:1 2516:1 2550:1 2731:1 2732:1 2774:1 2915:1 3064:1 3430:1 3569:1 3571:1 3575:1 3606:1 4011:1 4012:1 4030:1 4184:1 4238:1 4294:1 4778:1 5200:1 5263:1 5272:1 5311:1 5335:1 5535:1 5574:1 
0 0.3712755020932584 0.02240524919802318 255:1 410:1 465:1 722:1 784:1 793:1 1149:1 1151:1 1164:1 1169:1 1462:1 1463:1 1543:1 1568:1 2403:1 2731:1 2807:1 2827:1 2828:1 3237:1 3402:1 3430:1 3480:1 4011:1 4238:1 4618:1 4665:1 4668:1 4778:1 
0.06143817984125096 0 0 65:1 71:1 267:1 722:1 723:1 726:1 727:1 780:1 810:1 826:1 930:1 1149:1 1226:1 1297:1 1462:1 1515:1 1524:1 1543:1 1551:1 1594:1 1699:1 1758:1 1760:1 1892:1 1902:1 2126:1 2127:1 2177:1 2224:1 2254:1 2269:1 2337:1 2513:1 2515:1 2520:1 2544:1 2731:1 2915:1 3039:1 3237:1 3271:1 3381:1 3430:1 3480:1 3569:1 3571:1 3587:1 3711:1 4011:1 4238:1 4240:1 4279:1 4323:1 4362:1 4363:1 4415:1 4456:1 4457:1 4458:1 4618:1 4642:1 4665:1 4778:1 4818:1 4858:1 4932:1 5104:1 5357:1 5430:1 5574:1 
0 0.05311185414424924 0 157:1 164:1 722:1 784:1 931:1 996:1 1042:1 1052:1 1111:1 1149:1 1151:1 1164:1 1462:1 1641:1 1647:1 1699:1 1711:1 1714:1 1854:1 1855:1 1906:1 2064:1 2074:1 2528:1 2731:1 2774:1 2915:1 2917:1 2936:1 3064:1 3081:1 3128:1 3178:1 3237:1 3273:1 3430:1 3486:1 3516:1 3539:1 3569:1 3571:1 3628:1 3704:1 3705:1 3773:1 3814:1 3835:1 3890:1 3924:1 3927:1 4011:1 4012:1 4054:1 4238:1 4778:1 4932:1 4951:1 5081:1 5104:1 5193:1 5198:1 5357:1 5437:1 5468:1 
0.2081167085524833 1.196291764950479 0.3515002830868262 722:1 810:1 839:1 1462:1 1607:1 1630:1 2126:1 2224:1 2233:1 2373:1 2377:1 2381:1 2731:1 2856:1 2871:1 2915:1 3044:1 3047:1 3430:1 3480:1 4011:1 4222:1 4238:1 4778:1 
0 0.759663909744412 0.06082916727462012 347:1 410:1 560:1 566:1 722:1 931:1 945:1 946:1 2636:1 2694:1 2695:1 2731:1 2732:1 2760:1 2915:1 3237:1 3425:1 3430:1 3486:1 3569:1 3571:1 3592:1 4238:1 4618:1 4778:1 5081:1 5357:1 5437:1 5468:1 5535:1 
0 0.04255429094209515 0 97:1 261:1 267:1 722:1 723:1 749:1 1149:1 1151:1 1254:1 1261:1 1297:1 1309:1 1343:1 1358:1 1360:1 1361:1 1462:1 1543:1 1551:1 1607:1 1906:1 1907:1 2350:1 2373:1 2377:1 2560:1 2731:1 2843:1 2850:1 2856:1 2876:1 2915:1 3064:1 3095:1 3096:1 3237:1 3271:1 3404:1 3418:1 3419:1 3430:1 3539:1 3569:1 3773:1 3814:1 3816:1 4011:1 4178:1 4238:1 4294:1 4415:1 4459:1 4571:1 4778:1 4932:1 5104:1 5200:1 5224:1 5234:1 5235:1 5311:1 5535:1 5556:1 
0.2843780284455203 0.2073234511986913 0.01923072023098178 267:1 279:1 300:1 410:1 507:1 509:1 722:1 1091:1 1099:1 1149:1 1151:1 1156:1 1252:1 1462:1 1489:1 1491:1 1507:1 1543:1 1594:1 1699:1 1890:1 2126:1 2127:1 2177:1 2636:1 2653:1 2657:1 2731:1 2843:1 2851:1 3237:1 3404:1 3421:1 3430:1 3516:1 3527:1 3569:1 3834:1 3940:1 4011:1 4012:1 4238:1 4294:1 4310:1 4311:1 4618:1 4778:1 5104:1 5179:1 5357:1 5373:1 
0.07348751871531629 1.119856120598173 0.705225525024102 28:1 203:1 255:1 1462:1 1515:1 1906:1 2731:1 2843:1 2850:1 2856:1 2894:1 2897:1 3237:1 3402:1 3430:1 4238:1 4323:1 4351:1 4778:1 4818:1 4852:1 5200:1 5357:1 5372:1 
0.06720703217601814 0 0.1281263279086914 97:1 410:1 497:1 506:1 722:1 784:1 798:1 931:1 945:1 958:1 962:1 1149:1 1462:1 1543:1 1568:1 1594:1 2126:1 2254:1 2269:1 2377:1 2387:1 2403:1 2515:1 2516:1 2520:1 2731:1 2807:1 2915:1 3028:1 3034:1 3128:1 3237:1 3324:1 3402:1 3430:1 3486:1 3569:1 3571:1 3575:1 3711:1 4011:1 4238:1 4415:1 4442:1 4443:1 4698:1 4778:1 5104:1 5200:1 5201:1 
0 0.08219982284812063 0 167:1 267:1 279:1 284:1 326:1 1149:1 1462:1 1543:1 1551:1 1594:1 1607:1 2126:1 2254:1 2269:1 2332:1 2373:1 2515:1 2520:1 2563:1 2587:1 2731:1 2843:1 2850:1 2856:1 2876:1 2915:1 2917:1 2968:1 2978:1 2979:1 3064:1 3095:1 3096:1 3128:1 3237:1 3271:1 3430:1 3569:1 3711:1 3832:1 4011:1 4183:1 4222:1 4238:1 4486:1 4778:1 4818:1 4887:1 4995:1 5021:1 5053:1 5063:1 5104:1 5179:1 5200:1 5224:1 5234:1 5263:1 
0 0 0.02298713951246859 35:1 37:1 38:1 410:1 600:1 1149:1 1297:1 1462:1 1489:1 1491:1 1515:1 1543:1 1594:1 1641:1 1906:1 1938:1 1967:1 1974:1 1975:1 2126:1 2127:1 2195:1 2220:1 2254:1 2256:1 2362:1 2563:1 2601:1 2731:1 2915:1 3128:1 3164:1 3237:1 3270:1 3430:1 3454:1 3506:1 4011:1 4238:1 4618:1 4642:1 4652:1 4778:1 4818:1 5200:1 5201:1 5211:1 5224:1 5241:1 5248:1 5252:1 5357:1 5574:1 5593:1 
0 0.208077234684453 0.08149158849868932 722:1 810:1 1149:1 1462:1 1594:1 2126:1 2224:1 2239:1 2337:1 2343:1 2344:1 2528:1 2915:1 3128:1 3137:1 3237:1 3273:1 3305:1 3430:1 3454:1 3569:1 3571:1 3637:1 3640:1 4011:1 4111:1 4222:1 4238:1 4618:1 4619:1 4631:1 4665:1 4668:1 4778:1 4780:1 4818:1 4878:1 5050:1 5357:1 
0.5629974438527324 2.453326010981883 0.1508149065413422 722:1 780:1 
0.03928329106542584 0.09787989619364795 0 722:1 810:1 916:1 1149:1 1462:1 1594:1 1699:1 1756:1 2126:1 2224:1 2239:1 2254:1 2277:1 2337:1 2343:1 2344:1 2528:1 2915:1 3128:1 3137:1 3237:1 3430:1 3454:1 3516:1 3569:1 3571:1 3637:1 3640:1 4011:1 4111:1 4238:1 4393:1 4406:1 4618:1 4619:1 4631:1 4665:1 4668:1 4778:1 4780:1 4818:1 4878:1 5050:1 
0.3220883624656085 0 0.09567172165685067 267:1 722:1 1462:1 1607:1 1699:1 1881:1 2126:1 2127:1 2556:1 2563:1 2564:1 2585:1 2586:1 2636:1 2731:1 2856:1 2887:1 2889:1 2890:1 3237:1 3273:1 3296:1 3430:1 3539:1 3569:1 3571:1 3592:1 4238:1 4618:1 4619:1 4778:1 4780:1 4896:1 5053:1 5059:1 5104:1 5109:1 5535:1 5536:1 
0 0 0.05561142298170277 97:1 134:1 255:1 267:1 279:1 284:1 410:1 1149:1 1283:1 1396:1 1462:1 1489:1 1515:1 1543:1 1594:1 1641:1 1906:1 1907:1 1927:1 1938:1 1976:1 1981:1 1998:1 2126:1 2195:1 2544:1 2563:1 2587:1 2636:1 2642:1 2697:1 2700:1 2731:1 2915:1 3237:1 3238:1 3249:1 3273:1 3324:1 3330:1 3332:1 3402:1 3430:1 3486:1 3506:1 3515:1 3569:1 3773:1 3832:1 4011:1 4012:1 4017:1 4025:1 4238:1 4502:1 4507:1 4618:1 4778:1 4995:1 5033:1 5098:1 5200:1 5357:1 5424:1 5535:1 5574:1 5584:1 
0.1177672829233493 0 0.01028036501828751 65:1 267:1 275:1 279:1 284:1 292:1 410:1 560:1 579:1 722:1 723:1 1462:1 1906:1 2126:1 2254:1 2269:1 2337:1 2515:1 2520:1 2731:1 2732:1 2760:1 2774:1 2807:1 2811:1 2856:1 2864:1 3237:1 3430:1 3468:1 3516:1 3569:1 3571:1 3606:1 3711:1 3773:1 3804:1 3805:1 3832:1 3955:1 4011:1 4238:1 5104:1 5357:1 5392:1 
0.0806833632148664 0 0.1311612045111203 722:1 784:1 797:1 810:1 1462:1 1489:1 1699:1 1725:1 1854:1 1860:1 2126:1 2515:1 2523:1 2560:1 3430:1 3569:1 3773:1 3835:1 3888:1 4011:1 4186:1 4238:1 4571:1 4584:1 5200:1 
0.3743885442077672 0.1412585838372575 0.4250232808830519 267:1 279:1 284:1 722:1 931:1 1462:1 1463:1 2731:1 2915:1 3123:1 3124:1 3430:1 3486:1 3506:1 3514:1 3516:1 3569:1 3650:1 3653:1 3832:1 4011:1 
0 0.5202565715387538 0.1302586365297169 1149:1 1283:1 1462:1 1515:1 1520:1 1906:1 2362:1 2454:1 2465:1 2466:1 2513:1 2731:1 2807:1 2819:1 3237:1 3401:1 3430:1 4238:1 4618:1 4619:1 4778:1 4780:1 4793:1 5200:1 
0.0779155908782064 0 0 97:1 111:1 315:1 410:1 722:1 859:1 1149:1 1462:1 1476:1 1478:1 1543:1 1607:1 1632:1 1699:1 1758:1 1776:1 1906:1 1938:1 1969:1 1970:1 2373:1 2513:1 2731:1 3237:1 3404:1 3410:1 3430:1 3569:1 3571:1 3606:1 3611:1 3773:1 3808:1 4011:1 4054:1 4063:1 4238:1 4323:1 4618:1 4778:1 5104:1 5200:1 
0 0.1893826223131981 0.0263670590472514 97:1 109:1 347:1 410:1 1149:1 1222:1 1225:1 1371:1 1462:1 1543:1 1551:1 1607:1 1632:1 1641:1 1699:1 1906:1 1907:1 2332:1 2333:1 2361:1 2528:1 2563:1 2564:1 2601:1 2731:1 2732:1 2774:1 2791:1 2792:1 2801:1 2856:1 2871:1 2915:1 3064:1 3111:1 3237:1 3271:1 3430:1 3480:1 3506:1 3569:1 3966:1 3976:1 3984:1 4011:1 4111:1 4114:1 4238:1 4618:1 4642:1 4652:1 4657:1 4778:1 4818:1 4932:1 4935:1 4936:1 5104:1 5200:1 5224:1 5357:1 5471:1 5481:1 
0.1182323498403966 0.7637659261005251 0.1724137596023231 1462:1 1641:1 1906:1 2064:1 2089:1 2636:1 2915:1 3237:1 3430:1 3476:1 3479:1 3569:1 3835:1 3842:1 3871:1 4011:1 4238:1 4698:1 4744:1 4778:1 5050:1 5098:1 5101:1 5104:1 5135:1 5179:1 5535:1 
0 10 0 
0.06380887132773651 0 0 267:1 279:1 284:1 286:1 410:1 528:1 658:1 722:1 880:1 897:1 1117:1 1125:1 1126:1 1149:1 1462:1 1524:1 1543:1 1568:1 2337:1 2345:1 2350:1 2373:1 2528:1 2560:1 2731:1 2732:1 2760:1 2774:1 2793:1 2856:1 2892:1 2915:1 3128:1 3129:1 3133:1 3237:1 3401:1 3402:1 3430:1 3546:1 3569:1 3832:1 4011:1 4012:1 4155:1 4238:1 4415:1 4417:1 4513:1 4514:1 4778:1 4780:1 4995:1 4996:1 5011:1 5104:1 5200:1 5263:1 5286:1 5299:1 5302:1 
0 0 0.04933907173299165 44:1 53:1 65:1 97:1 410:1 507:1 514:1 560:1 561:1 562:1 722:1 1149:1 1462:1 1543:1 1583:1 1594:1 1607:1 1699:1 1718:1 1719:1 1720:1 1906:1 1907:1 1913:1 2126:1 2127:1 2350:1 2560:1 2636:1 2731:1 2732:1 2739:1 2843:1 3237:1 3238:1 3247:1 3430:1 3569:1 3958:1 3966:1 4011:1 4083:1 4084:1 4238:1 4415:1 4442:1 4778:1 4818:1 5104:1 5179:1 5200:1 5201:1 5263:1 5272:1 5299:1 5300:1 5533:1 5535:1 
0.05334705425532046 0.07005003385360592 0.2623916490210197 722:1 810:1 1149:1 1462:1 1489:1 1492:1 1543:1 1551:1 1594:1 1906:1 2106:1 2126:1 2254:1 2269:1 2301:1 2515:1 2520:1 2636:1 2653:1 2697:1 2731:1 2915:1 3122:1 3237:1 3271:1 3430:1 3443:1 3447:1 3569:1 3711:1 4011:1 4218:1 4238:1 4618:1 4778:1 5200:1 5224:1 5241:1 5250:1 5357:1 5409:1 5410:1 
0.5096630636321082 10 0.3200545893370169 4011:1 4222:1 4778:1 
0.008328117857058059 0.08244427776615081 0 97:1 1149:1 1297:1 1309:1 1462:1 1543:1 1551:1 1568:1 1607:1 2350:1 2731:1 2900:1 3237:1 3271:1 3402:1 3430:1 4011:1 4123:1 4143:1 4144:1 4238:1 4698:1 4722:1 4778:1 4780:1 5104:1 5200:1 5224:1 5234:1 5235:1 5238:1 5239:1 
0.05089149887696612 0 0.08423480818395877 157:1 164:1 359:1 379:1 387:1 722:1 1149:1 1418:1 1462:1 1524:1 1543:1 1551:1 1568:1 1607:1 1662:1 1676:1 1699:1 1711:1 1716:1 2126:1 2127:1 2147:1 2254:1 2269:1 2515:1 2520:1 2528:1 2636:1 2731:1 2774:1 2799:1 2915:1 2917:1 2989:1 3000:1 3002:1 3237:1 3271:1 3402:1 3430:1 3546:1 3547:1 3569:1 3711:1 4011:1 4175:1 4238:1 4618:1 4665:1 4668:1 4778:1 5104:1 5200:1 5201:1 5224:1 5227:1 5234:1 5357:1 5437:1 5451:1 5459:1 5532:1 
0.003460860128300872 0 0 35:1 97:1 157:1 410:1 528:1 541:1 618:1 620:1 722:1 1149:1 1226:1 1436:1 1455:1 1462:1 1470:1 1515:1 1543:1 1588:1 1594:1 1641:1 1699:1 1711:1 1712:1 1906:1 1938:1 1950:1 2064:1 2126:1 2220:1 2337:1 2373:1 2454:1 2465:1 2471:1 2563:1 2636:1 2697:1 2710:1 2729:1 2731:1 2856:1 3237:1 3238:1 3239:1 3241:1 3401:1 3430:1 3476:1 3506:1 3510:1 3539:1 3569:1 3719:1 3721:1 4011:1 4012:1 4017:1 4039:1 4238:1 4618:1 4642:1 4646:1 4778:1 4818:1 4852:1 5104:1 5174:1 5200:1 5224:1 5241:1 5252:1 5357:1 5360:1 5361:1 5362:1 5437:1 5574:1 5596:1 
0 10 0.1938959887777008 
0 5.567318465933072 0 410:1 1699:1 1737:1 3430:1 4011:1 4238:1 4618:1 4665:1 4668:1 4778:1 
0.1908349279665976 0.3083001290752248 0.1061819723363954 410:1 665:1 673:1 1906:1 2126:1 2301:1 2915:1 3128:1 3149:1 3430:1 3470:1 3486:1 3546:1 4011:1 4211:1 4778:1 5104:1 5116:1 5117:1 
0.08469074563542314 0.2333368990322454 0.04525373987734885 97:1 326:1 404:1 410:1 411:1 460:1 662:1 663:1 681:1 722:1 780:1 931:1 1149:1 1462:1 1906:1 2915:1 2917:1 2968:1 2978:1 2980:1 3237:1 3430:1 3486:1 3569:1 3571:1 4011:1 4043:1 4045:1 4179:1 4222:1 4778:1 4932:1 4947:1 4992:1 4994:1 5104:1 5109:1 5357:1 5535:1 
0.3950679633979863 0.4499662371655729 0.2187831073969062 237:1 722:1 1117:1 1142:1 1149:1 1297:1 1338:1 1906:1 2126:1 2127:1 2153:1 2162:1 3237:1 4011:1 4238:1 4393:1 4396:1 4778:1 5104:1 5179:1 5193:1 5534:1 
0.2484654987275291 0.4710145956110228 0.1956489954878803 410:1 560:1 576:1 1149:1 1276:1 1436:1 1450:1 1462:1 1641:1 2528:1 2731:1 2807:1 2915:1 3207:1 4011:1 4778:1 5104:1 5135:1 
0 0 0.1249586794061532 722:1 1037:1 1149:1 1283:1 1288:1 1289:1 1462:1 1594:1 1607:1 1632:1 1641:1 1906:1 2010:1 2563:1 2587:1 2731:1 2856:1 3430:1 3480:1 3506:1 3546:1 3569:1 3571:1 3628:1 4011:1 4012:1 4238:1 4618:1 4778:1 4818:1 4878:1 5104:1 5200:1 5311:1 5344:1 5349:1 
0.06348914623928351 0.2185956299710005 0.048005253565409 243:1 267:1 410:1 471:1 472:1 497:1 1149:1 1151:1 1164:1 1167:1 1462:1 1481:1 1515:1 1543:1 1906:1 1938:1 1953:1 2372:1 2563:1 2599:1 2636:1 2729:1 2731:1 2807:1 2915:1 3064:1 3087:1 3088:1 3237:1 3430:1 3474:1 3569:1 4778:1 5357:1 5437:1 
0 0.2507468953119931 0 404:1 1462:1 1524:1 1699:1 1807:1 1813:1 2373:1 2563:1 2564:1 2583:1 2636:1 2651:1 2697:1 2731:1 2843:1 2850:1 2856:1 2897:1 2915:1 3064:1 3237:1 3238:1 3273:1 3305:1 3430:1 3480:1 3539:1 3569:1 3773:1 4011:1 4207:1 4238:1 4486:1 4498:1 5357:1 5535:1 
0 0.3289531212820499 0 44:1 97:1 410:1 507:1 512:1 1149:1 1462:1 1543:1 1594:1 1906:1 1938:1 1956:1 2126:1 2254:1 2260:1 2515:1 2516:1 2731:1 2900:1 3237:1 3430:1 3480:1 3569:1 3571:1 3575:1 4011:1 4778:1 
0.09974691513066151 0 0.02592965691117378 267:1 340:1 344:1 345:1 722:1 810:1 816:1 1149:1 1151:1 1462:1 1607:1 1630:1 1699:1 1758:1 1772:1 1807:1 1809:1 2126:1 2127:1 2164:1 2337:1 2373:1 2415:1 2427:1 2433:1 2436:1 2528:1 2544:1 2560:1 2731:1 2915:1 3237:1 3271:1 3430:1 3454:1 3569:1 3719:1 3738:1 3739:1 4011:1 4012:1 4189:1 4238:1 4415:1 4456:1 4457:1 4618:1 4778:1 4780:1 4932:1 4933:1 4947:1 5200:1 5263:1 5299:1 
0.995287841837594 6.615588523186035 1.067976504501132 2126:1 2254:1 2269:1 2515:1 2520:1 3237:1 3430:1 3569:1 3711:1 4011:1 4238:1 4618:1 4665:1 4668:1 4778:1 
0 0.03169360678908072 0 359:1 722:1 723:1 772:1 773:1 1149:1 1151:1 2563:1 2731:1 2856:1 2870:1 3237:1 3238:1 3271:1 3430:1 3474:1 4238:1 4240:1 4270:1 5104:1 5184:1 
0.01881927636171572 0.007011946751599106 0.09966344350520749 237:1 238:1 410:1 520:1 722:1 810:1 851:1 853:1 1462:1 1515:1 1607:1 1632:1 1906:1 1938:1 2126:1 2298:1 2544:1 2731:1 2915:1 2917:1 2982:1 3237:1 4011:1 4183:1 4238:1 4618:1 4778:1 4995:1 5021:1 
0.0713791289395284 0.1164470688194782 0.2959509643275845 410:1 520:1 722:1 810:1 826:1 829:1 830:1 1147:1 1149:1 1192:1 1195:1 1462:1 1607:1 1632:1 2126:1 2196:1 2337:1 2636:1 2692:1 2731:1 3237:1 3273:1 3569:1 3835:1 3875:1 4011:1 4171:1 4238:1 4618:1 4778:1 5535:1 
0.08939211348646969 0.5211852312669999 0.04631481853653838 410:1 520:1 722:1 810:1 826:1 829:1 830:1 1034:1 1462:1 1607:1 1632:1 1698:1 2126:1 2196:1 2250:1 2636:1 2915:1 3237:1 3430:1 4238:1 4415:1 4459:1 4618:1 4778:1 5104:1 5120:1 5121:1 5200:1 5224:1 5357:1 5535:1 
0 0.3990911674320869 0.04681767283562664 65:1 722:1 1462:1 1515:1 1522:1 1607:1 1641:1 2126:1 2204:1 2205:1 2207:1 2563:1 2564:1 2566:1 2636:1 2653:1 2731:1 2843:1 2850:1 2856:1 2915:1 3044:1 3045:1 3128:1 3178:1 3180:1 3185:1 3430:1 4011:1 4238:1 4393:1 4415:1 4459:1 4778:1 5535:1 
0.003658760430895216 0 0 97:1 722:1 859:1 931:1 945:1 970:1 1149:1 1462:1 1507:1 1647:1 2332:1 2337:1 2350:1 2915:1 3060:1 3237:1 3271:1 3324:1 3325:1 3430:1 3486:1 3569:1 4011:1 4091:1 4778:1 4780:1 5104:1 5193:1 
0.05736880731151291 0.1510222888793849 0 410:1 714:1 722:1 1111:1 1149:1 1436:1 1462:1 1515:1 1524:1 1531:1 1699:1 1854:1 1860:1 2126:1 2213:1 2214:1 2224:1 2454:1 2465:1 2473:1 2474:1 2515:1 2563:1 2587:1 2595:1 2596:1 2731:1 2915:1 3237:1 3401:1 3430:1 3454:1 3569:1 3835:1 3890:1 3899:1 3901:1 4011:1 4224:1 4238:1 4393:1 4401:1 4618:1 4778:1 4995:1 5043:1 5044:1 5104:1 5109:1 5357:1 5535:1 
0.2209309012111582 0.01440678927555727 0.1899920765585754 267:1 404:1 722:1 810:1 826:1 827:1 1149:1 1151:1 1185:1 1462:1 1515:1 1524:1 1531:1 1699:1 1854:1 1860:1 1884:1 1885:1 2126:1 2213:1 2214:1 2224:1 2515:1 2731:1 2915:1 3430:1 3454:1 3569:1 4011:1 4238:1 4393:1 4401:1 4778:1 4962:1 4963:1 4964:1 5104:1 5535:1 
0.2397597036542702 0.5466472638043172 0.1760529269847789 410:1 618:1 620:1 722:1 810:1 1105:1 1149:1 1462:1 1470:1 1699:1 1880:1 1906:1 2038:1 2039:1 2126:1 2337:1 2636:1 2731:1 2915:1 3064:1 3066:1 3073:1 3074:1 3075:1 3076:1 3430:1 3468:1 3476:1 3480:1 3506:1 3510:1 3532:1 3539:1 3569:1 3648:1 4011:1 4207:1 4238:1 4524:1 4531:1 4538:1 4778:1 5200:1 5357:1 5471:1 5483:1 5484:1 
0 0.2032083196880371 0.09463159182541579 65:1 91:1 93:1 128:1 255:1 722:1 1111:1 1149:1 1462:1 1543:1 1551:1 1699:1 1758:1 1776:1 1854:1 1855:1 1858:1 1906:1 2038:1 2039:1 2044:1 2731:1 2774:1 2807:1 2838:1 3237:1 3271:1 3402:1 3430:1 3468:1 3506:1 3569:1 3571:1 3592:1 3595:1 3668:1 3669:1 4011:1 4012:1 4025:1 4778:1 5053:1 5104:1 
0 0.9249234579783895 0 267:1 279:1 284:1 1906:1 2012:1 2014:1 2038:1 2039:1 2513:1 2731:1 2915:1 3226:1 3430:1 3468:1 3506:1 3569:1 3832:1 4238:1 5104:1 
0.008154985823034117 0.249920014650678 0 65:1 97:1 267:1 333:1 340:1 342:1 404:1 410:1 411:1 440:1 447:1 448:1 560:1 722:1 723:1 744:1 880:1 884:1 885:1 982:1 1149:1 1151:1 1185:1 1462:1 1481:1 1641:1 1699:1 1758:1 1906:1 2038:1 2039:1 2126:1 2254:1 2275:1 2332:1 2636:1 2653:1 2731:1 2732:1 2760:1 2761:1 2915:1 2917:1 2968:1 2972:1 2973:1 3237:1 3430:1 3454:1 3468:1 3506:1 3569:1 4011:1 4203:1 4238:1 4323:1 4386:1 4415:1 4778:1 4962:1 4963:1 4964:1 5535:1 5553:1 
0 0.1878439064101252 0 65:1 97:1 98:1 333:1 340:1 379:1 404:1 722:1 880:1 884:1 885:1 1091:1 1149:1 1151:1 1174:1 1185:1 1402:1 1462:1 1481:1 1699:1 1758:1 1906:1 2038:1 2039:1 2126:1 2194:1 2332:1 2415:1 2731:1 2732:1 2760:1 2761:1 2915:1 3064:1 3099:1 3237:1 3271:1 3430:1 3454:1 3468:1 3506:1 3539:1 4011:1 4238:1 4415:1 4778:1 4962:1 4963:1 4964:1 5200:1 5535:1 
0 9.614387880370428 0 226:1 722:1 810:1 1091:1 1149:1 1418:1 1428:1 1462:1 1906:1 2038:1 2039:1 2126:1 2337:1 2343:1 2350:1 2731:1 3237:1 3271:1 3430:1 3468:1 3506:1 4011:1 4199:1 4238:1 4240:1 4270:1 4272:1 5357:1 5437:1 
0 10 0.04082197341106664 403:1 1462:1 1662:1 1906:1 1907:1 1913:1 1914:1 1916:1 2038:1 2039:1 2731:1 2732:1 3237:1 3273:1 3315:1 3430:1 3468:1 3506:1 5535:1 
0.0041512767734952 0.146782385078897 0 175:1 722:1 1057:1 1060:1 1462:1 1515:1 1594:1 1699:1 1725:1 1726:1 1758:1 1766:1 1767:1 1854:1 1860:1 1906:1 2038:1 2039:1 2126:1 2204:1 2205:1 2206:1 2224:1 2233:1 2301:1 2362:1 2372:1 2373:1 2560:1 2636:1 2670:1 2677:1 2731:1 2774:1 2775:1 2843:1 2915:1 3237:1 3324:1 3430:1 3468:1 3476:1 3506:1 3539:1 3569:1 3708:1 3773:1 3787:1 4011:1 4218:1 4238:1 4618:1 4778:1 5104:1 5161:1 5200:1 5224:1 5241:1 5357:1 5437:1 5446:1 
0 0.3424505680752438 0.06213548041420842 65:1 71:1 79:1 410:1 528:1 530:1 722:1 780:1 1065:1 1149:1 1462:1 1641:1 1698:1 1906:1 2038:1 2039:1 2350:1 2563:1 2601:1 2636:1 2731:1 2915:1 3064:1 3115:1 3128:1 3152:1 3155:1 3237:1 3273:1 3298:1 3301:1 3402:1 3430:1 3468:1 3506:1 3516:1 3539:1 3546:1 3550:1 3569:1 3773:1 3814:1 3835:1 3890:1 3924:1 3927:1 4011:1 4222:1 4238:1 4698:1 4703:1 4778:1 5104:1 5105:1 5168:1 5179:1 5357:1 5471:1 5483:1 5488:1 5535:1 
0 0 0.1107684612683576 332:1 340:1 359:1 360:1 410:1 560:1 579:1 722:1 723:1 762:1 763:1 810:1 1091:1 1149:1 1462:1 1641:1 1906:1 1938:1 2038:1 2039:1 2126:1 2337:1 2343:1 2350:1 2563:1 2587:1 2594:1 2731:1 2732:1 2760:1 2761:1 2856:1 2864:1 3237:1 3271:1 3402:1 3430:1 3468:1 3506:1 3569:1 3835:1 3890:1 4011:1 4238:1 4240:1 4270:1 4272:1 4294:1 4415:1 4417:1 4418:1 4778:1 5104:1 5109:1 5111:1 5168:1 5357:1 5437:1 5439:1 5440:1 5529:1 5535:1 5574:1 
0 0.2617092652019202 0 226:1 722:1 859:1 861:1 1149:1 1190:1 1293:1 1418:1 1428:1 1436:1 1462:1 1543:1 1662:1 1698:1 1906:1 2038:1 2039:1 2350:1 2372:1 2373:1 2528:1 2531:1 2636:1 2731:1 2807:1 2823:1 2915:1 2917:1 3237:1 3271:1 3273:1 3315:1 3324:1 3430:1 3468:1 3480:1 3484:1 3506:1 4011:1 4199:1 4238:1 4698:1 4730:1 5104:1 5116:1 5119:1 5179:1 5180:1 5524:1 5526:1 5535:1 5541:1 5548:1 5567:1 
0 0.1914592316418592 0.0679498060275438 65:1 83:1 410:1 527:1 618:1 620:1 621:1 665:1 722:1 723:1 762:1 784:1 798:1 1091:1 1149:1 1254:1 1270:1 1462:1 1515:1 1594:1 1607:1 1620:1 1699:1 1758:1 1776:1 1782:1 1906:1 2038:1 2039:1 2334:1 2427:1 2429:1 2430:1 2446:1 2513:1 2528:1 2550:1 2636:1 2731:1 2807:1 2808:1 2809:1 2810:1 2813:1 3237:1 3324:1 3347:1 3430:1 3468:1 3476:1 3506:1 3510:1 3569:1 4011:1 4222:1 4238:1 4415:1 4459:1 4460:1 4571:1 4778:1 4932:1 5200:1 5263:1 5286:1 5287:1 5311:1 5357:1 5392:1 5395:1 
0 0.01018819601637875 0.1007330440064335 237:1 313:1 722:1 810:1 1149:1 1252:1 1462:1 1463:1 1507:1 1510:1 1515:1 1594:1 1641:1 1906:1 1938:1 2038:1 2039:1 2106:1 2126:1 2636:1 2653:1 2731:1 2732:1 2744:1 2747:1 2748:1 2856:1 2864:1 2900:1 2915:1 2917:1 2968:1 2972:1 2973:1 3237:1 3430:1 3454:1 3468:1 3506:1 4011:1 4218:1 4222:1 4238:1 4294:1 4323:1 4324:1 4329:1 4351:1 4370:1 4611:1 4778:1 4962:1 5200:1 5224:1 5241:1 5254:1 5311:1 5331:1 
0 0.2087145388992593 0.08182787079005688 157:1 410:1 560:1 1906:1 2012:1 2013:1 2038:1 2039:1 2373:1 2731:1 2915:1 2917:1 2936:1 2937:1 3128:1 3129:1 3136:1 3430:1 3468:1 3506:1 
0 0.06955239808717988 0 97:1 218:1 222:1 722:1 859:1 1111:1 1149:1 1151:1 1154:1 1214:1 1436:1 1462:1 1481:1 1543:1 1607:1 1699:1 1906:1 1981:1 1998:1 2026:1 2038:1 2039:1 2350:1 2444:1 2513:1 2544:1 2731:1 2856:1 2887:1 2900:1 2913:1 3237:1 3238:1 3388:1 3390:1 3430:1 3468:1 3480:1 3506:1 3539:1 3569:1 3571:1 3606:1 3773:1 3808:1 4011:1 4012:1 4017:1 4083:1 4088:1 4123:1 4143:1 4144:1 4238:1 4469:1 4613:1 4618:1 4698:1 4699:1 4722:1 4778:1 4780:1 4995:1 4996:1 5002:1 5004:1 5104:1 5109:1 5192:1 5200:1 5224:1 5535:1 
0 0.4450779479243166 0.2048873336911823 226:1 236:1 403:1 404:1 722:1 1149:1 1297:1 1343:1 1357:1 1418:1 1428:1 1462:1 1662:1 1906:1 1907:1 1913:1 1914:1 2038:1 2039:1 2126:1 2127:1 2153:1 2155:1 2161:1 2182:1 2203:1 2337:1 2350:1 2636:1 2731:1 2732:1 2772:1 2915:1 3064:1 3115:1 3237:1 3271:1 3273:1 3305:1 3312:1 3315:1 3430:1 3468:1 3506:1 3569:1 3749:1 3761:1 4011:1 4199:1 4238:1 4571:1 4618:1 4661:1 4778:1 4932:1 4933:1 5357:1 5535:1 
0 4.550888138633059 0 1906:1 2038:1 2039:1 2731:1 3430:1 3468:1 3506:1 
0.003151668428246151 0.244579720460811 0 410:1 677:1 722:1 810:1 826:1 829:1 830:1 1037:1 1149:1 1462:1 1489:1 1491:1 1515:1 1543:1 1699:1 1906:1 2038:1 2039:1 2126:1 2196:1 2254:1 2277:1 2350:1 2351:1 2636:1 2653:1 2731:1 2807:1 2816:1 2827:1 2915:1 3064:1 3108:1 3237:1 3349:1 3404:1 3422:1 3430:1 3468:1 3480:1 3501:1 3506:1 3516:1 3569:1 4011:1 4046:1 4238:1 4393:1 4406:1 4778:1 5104:1 5193:1 5200:1 5263:1 5272:1 5273:1 5357:1 5392:1 5403:1 5406:1 5437:1 5451:1 5459:1 
0 0.2261736518572626 0.06888055541467601 134:1 139:1 410:1 527:1 684:1 722:1 723:1 732:1 1462:1 1543:1 1568:1 1594:1 1662:1 1676:1 1683:1 1906:1 2038:1 2039:1 2377:1 2731:1 2732:1 2774:1 2843:1 2848:1 2915:1 3028:1 3034:1 3230:1 3237:1 3402:1 3430:1 3468:1 3506:1 3569:1 4011:1 4178:1 4778:1 5104:1 5200:1 5357:1 5392:1 5395:1 5532:1 5535:1 
0 0.2201980945390321 0 225:1 722:1 810:1 1091:1 1149:1 1190:1 1418:1 1462:1 1515:1 1524:1 1543:1 1568:1 1652:1 1906:1 2038:1 2039:1 2126:1 2254:1 2259:1 2337:1 2343:1 2563:1 2731:1 2856:1 2915:1 3237:1 3271:1 3402:1 3430:1 3468:1 3474:1 3506:1 3546:1 4011:1 4155:1 4156:1 4157:1 4238:1 4240:1 4270:1 4272:1 4778:1 5104:1 5135:1 5200:1 5224:1 5230:1 5238:1 5357:1 5437:1 
0 0.1799215872000419 0 226:1 410:1 411:1 722:1 810:1 1149:1 1418:1 1428:1 1462:1 1463:1 1594:1 1699:1 1906:1 2038:1 2039:1 2126:1 2301:1 2337:1 2343:1 2350:1 2731:1 3237:1 3271:1 3404:1 3405:1 3430:1 3468:1 3506:1 3516:1 3569:1 3835:1 3842:1 4011:1 4199:1 4218:1 4238:1 4571:1 4778:1 4813:1 5098:1 5099:1 5104:1 5200:1 5224:1 5241:1 5535:1 5574:1 5590:1 
0.0495265663327626 0 0.04877652147262375 157:1 161:1 163:1 410:1 490:1 618:1 620:1 722:1 931:1 945:1 967:1 969:1 1091:1 1149:1 1462:1 1470:1 1515:1 1607:1 1630:1 1699:1 1906:1 2038:1 2039:1 2126:1 2127:1 2153:1 2154:1 2636:1 2731:1 2915:1 2917:1 2936:1 2938:1 2939:1 2954:1 3237:1 3270:1 3402:1 3430:1 3468:1 3476:1 3486:1 3506:1 3510:1 3569:1 3648:1 3835:1 3842:1 3856:1 3866:1 4011:1 4123:1 4238:1 4294:1 4310:1 4316:1 4778:1 5357:1 
0.1610304292725025 0.4539246156371067 0 359:1 370:1 372:1 374:1 403:1 1462:1 1662:1 1699:1 1807:1 1813:1 1906:1 1907:1 1913:1 1914:1 2038:1 2039:1 2731:1 2732:1 2843:1 2850:1 2856:1 2897:1 3237:1 3273:1 3315:1 3430:1 3468:1 3480:1 3506:1 4238:1 4615:1 4616:1 4698:1 4730:1 4778:1 5104:1 5193:1 5357:1 5535:1 
0.03229673968880242 0 0 97:1 157:1 267:1 410:1 411:1 456:1 560:1 722:1 1149:1 1189:1 1462:1 1481:1 1515:1 1524:1 1699:1 1711:1 1712:1 1906:1 2038:1 2039:1 2337:1 2373:1 2563:1 2587:1 2731:1 2915:1 3128:1 3129:1 3136:1 3237:1 3238:1 3254:1 3273:1 3281:1 3430:1 3468:1 3486:1 3506:1 3539:1 3569:1 3835:1 3890:1 3918:1 4011:1 4201:1 4207:1 4238:1 4240:1 4248:1 4615:1 4616:1 4618:1 4665:1 4698:1 4730:1 4778:1 4818:1 4852:1 5104:1 5574:1 5579:1 
0 9.808207278980651 0 226:1 403:1 1149:1 1418:1 1428:1 1462:1 1662:1 1906:1 1907:1 1913:1 1914:1 2038:1 2039:1 2350:1 2731:1 2732:1 3237:1 3271:1 3273:1 3315:1 3430:1 3468:1 3506:1 4011:1 4199:1 5535:1 
0 0.01271728089304452 0 97:1 226:1 410:1 722:1 810:1 982:1 986:1 1091:1 1149:1 1254:1 1263:1 1297:1 1343:1 1358:1 1360:1 1361:1 1418:1 1428:1 1462:1 1543:1 1551:1 1594:1 1607:1 1699:1 1758:1 1786:1 1906:1 1938:1 1967:1 1981:1 1991:1 1992:1 2038:1 2039:1 2126:1 2337:1 2343:1 2350:1 2528:1 2532:1 2560:1 2731:1 2856:1 2887:1 2915:1 3237:1 3271:1 3430:1 3454:1 3468:1 3506:1 3539:1 3569:1 3773:1 3814:1 3816:1 3966:1 3976:1 3984:1 4011:1 4043:1 4189:1 4199:1 4238:1 4240:1 4270:1 4272:1 4415:1 4459:1 4571:1 4778:1 4818:1 4863:1 4865:1 4932:1 4962:1 4965:1 5104:1 5200:1 5311:1 5357:1 5437:1 
0 0 0.00392536422136799 175:1 404:1 1149:1 1462:1 1489:1 1491:1 1543:1 1906:1 2038:1 2039:1 2350:1 2372:1 2373:1 2563:1 2614:1 2622:1 2636:1 2670:1 2677:1 2731:1 2732:1 2772:1 2774:1 2775:1 2900:1 2915:1 3217:1 3218:1 3237:1 3430:1 3468:1 3506:1 3546:1 3569:1 3571:1 3637:1 3749:1 3761:1 3835:1 3890:1 3933:1 3934:1 4011:1 4778:1 4818:1 4842:1 4844:1 4980:1 4988:1 4989:1 5050:1 5104:1 5179:1 5200:1 5263:1 5272:1 5357:1 5437:1 5446:1 5535:1 
0 0 0.05210560552103049 65:1 84:1 226:1 410:1 520:1 528:1 722:1 810:1 1091:1 1149:1 1151:1 1174:1 1231:1 1418:1 1428:1 1462:1 1524:1 1607:1 1632:1 1662:1 1699:1 1793:1 1800:1 1906:1 2038:1 2039:1 2106:1 2126:1 2182:1 2337:1 2343:1 2350:1 2362:1 2515:1 2731:1 2807:1 2915:1 3128:1 3129:1 3131:1 3237:1 3238:1 3242:1 3243:1 3244:1 3271:1 3273:1 3315:1 3430:1 3468:1 3506:1 3569:1 4011:1 4199:1 4238:1 4240:1 4270:1 4272:1 4615:1 4618:1 4698:1 4730:1 4778:1 4932:1 4939:1 4941:1 5104:1 5357:1 5437:1 
0 0.2777891980158482 0 410:1 716:1 722:1 1906:1 2038:1 2039:1 2337:1 2563:1 2614:1 2617:1 2619:1 2636:1 2731:1 3430:1 3468:1 3506:1 5104:1 5123:1 5124:1 5199:1 5574:1 
0 10 0.3143363992784843 1906:1 2038:1 2039:1 2731:1 3430:1 3468:1 3506:1 
0 0.1906464190407556 0.009533736494520198 167:1 170:1 226:1 379:1 403:1 722:1 1109:1 1110:1 1149:1 1151:1 1182:1 1418:1 1428:1 1462:1 1662:1 1699:1 1854:1 1870:1 1872:1 1906:1 1907:1 1913:1 1914:1 2038:1 2039:1 2337:1 2350:1 2373:1 2513:1 2563:1 2731:1 2732:1 2915:1 3237:1 3271:1 3273:1 3315:1 3430:1 3468:1 3506:1 3569:1 3773:1 3808:1 3813:1 3955:1 3957:1 4011:1 4179:1 4199:1 4222:1 4223:1 4238:1 4486:1 4571:1 4599:1 4778:1 5104:1 5200:1 5535:1 
0.02026036007193991 0 0 65:1 97:1 333:1 340:1 404:1 410:1 528:1 555:1 706:1 710:1 722:1 859:1 874:1 880:1 884:1 885:1 1149:1 1151:1 1185:1 1462:1 1481:1 1489:1 1607:1 1630:1 1699:1 1758:1 1775:1 1906:1 2038:1 2039:1 2064:1 2091:1 2097:1 2101:1 2332:1 2362:1 2373:1 2515:1 2636:1 2731:1 2732:1 2760:1 2761:1 2774:1 2775:1 2776:1 2913:1 3237:1 3273:1 3296:1 3430:1 3454:1 3468:1 3506:1 3546:1 3569:1 4011:1 4181:1 4214:1 4238:1 4240:1 4292:1 4415:1 4442:1 4778:1 4932:1 4939:1 4962:1 4963:1 4964:1 4995:1 5024:1 5028:1 5029:1 5104:1 5357:1 5409:1 5535:1 5574:1 
0 0.06360043399338169 0 65:1 326:1 333:1 340:1 404:1 410:1 528:1 555:1 722:1 880:1 884:1 885:1 1042:1 1050:1 1149:1 1151:1 1185:1 1462:1 1481:1 1594:1 1647:1 1698:1 1699:1 1758:1 1906:1 2038:1 2039:1 2126:1 2127:1 2167:1 2218:1 2224:1 2228:1 2229:1 2332:1 2362:1 2415:1 2731:1 2732:1 2760:1 2761:1 2915:1 3128:1 3178:1 3180:1 3183:1 3237:1 3271:1 3430:1 3443:1 3454:1 3468:1 3506:1 3569:1 4011:1 4154:1 4222:1 4238:1 4393:1 4397:1 4415:1 4618:1 4619:1 4631:1 4633:1 4778:1 4780:1 4962:1 4963:1 4964:1 5104:1 5193:1 5535:1 5574:1 
0.03672678144989039 0.4668406469105227 0 134:1 146:1 410:1 528:1 547:1 1462:1 1463:1 1465:1 1594:1 1603:1 1607:1 1630:1 1906:1 2038:1 2039:1 2126:1 2254:1 2275:1 2731:1 2774:1 2775:1 2778:1 2799:1 2800:1 3237:1 3430:1 3468:1 3506:1 3569:1 4011:1 4224:1 4231:1 4238:1 4323:1 4370:1 4374:1 4376:1 4542:1 5104:1 5535:1 5536:1 5539:1 
0 9.140313745392021 0 226:1 403:1 722:1 1149:1 1418:1 1428:1 1462:1 1662:1 1906:1 1907:1 1913:1 1914:1 1916:1 2038:1 2039:1 2337:1 2350:1 2731:1 2732:1 3237:1 3271:1 3273:1 3315:1 3430:1 3468:1 3506:1 4011:1 4199:1 4238:1 4615:1 4616:1 4698:1 4730:1 5104:1 5535:1 
0 10 1.636629230648482 403:1 1462:1 1662:1 1906:1 1907:1 1913:1 1914:1 2038:1 2039:1 2731:1 2732:1 3237:1 3273:1 3315:1 3430:1 3468:1 3506:1 5535:1 
0.140353752757525 0.1385212266651041 0 65:1 157:1 410:1 722:1 1462:1 1515:1 1524:1 1525:1 1699:1 1737:1 1906:1 2012:1 2013:1 2038:1 2039:1 2126:1 2127:1 2136:1 2137:1 2373:1 2560:1 2636:1 2731:1 2807:1 2816:1 2915:1 2917:1 2936:1 2937:1 3237:1 3430:1 3468:1 3506:1 3569:1 3835:1 3888:1 4011:1 4186:1 4224:1 4228:1 4238:1 4323:1 4351:1 4778:1 4995:1 5024:1 5104:1 5123:1 5200:1 
0.01887229988943672 0.1772033085423388 0 65:1 410:1 618:1 620:1 722:1 784:1 859:1 870:1 1149:1 1297:1 1462:1 1470:1 1524:1 1531:1 1641:1 1699:1 1703:1 1704:1 1906:1 1981:1 1994:1 1995:1 2038:1 2039:1 2126:1 2301:1 2304:1 2305:1 2513:1 2636:1 2731:1 2915:1 3237:1 3430:1 3468:1 3476:1 3506:1 3510:1 3569:1 4011:1 4222:1 4778:1 4818:1 4858:1 4861:1 4932:1 5050:1 5081:1 5104:1 5200:1 5201:1 5205:1 5357:1 5437:1 5468:1 
0.2779232080598156 7.802161482102028 0 226:1 722:1 810:1 1091:1 1149:1 1418:1 1428:1 1462:1 1906:1 2038:1 2039:1 2126:1 2337:1 2343:1 2350:1 2731:1 3237:1 3271:1 3430:1 3468:1 3506:1 4011:1 4199:1 4238:1 4240:1 4270:1 4272:1 4615:1 4616:1 4698:1 4730:1 5104:1 5357:1 5437:1 
0 0.01588056607489809 0 212:1 213:1 214:1 722:1 810:1 1462:1 1463:1 1594:1 1906:1 2038:1 2039:1 2126:1 2560:1 2563:1 2731:1 2732:1 2760:1 2807:1 2827:1 2834:1 2900:1 2904:1 2915:1 3021:1 3237:1 3238:1 3258:1 3404:1 3430:1 3468:1 3506:1 4011:1 4238:1 4778:1 4818:1 4878:1 4932:1 4951:1 4995:1 5021:1 5104:1 5109:1 5111:1 5198:1 5200:1 5201:1 
0 0 0.0498351229791081 226:1 255:1 403:1 1149:1 1418:1 1428:1 1462:1 1524:1 1607:1 1662:1 1906:1 1907:1 1913:1 1914:1 2038:1 2039:1 2350:1 2731:1 2732:1 2843:1 2915:1 3044:1 3237:1 3271:1 3273:1 3315:1 3402:1 3430:1 3468:1 3506:1 3569:1 3571:1 3592:1 3599:1 3600:1 4011:1 4199:1 4238:1 4323:1 4358:1 4361:1 4778:1 4780:1 4793:1 5535:1 
0.08156455099741755 0 0.1003377804673218 65:1 97:1 218:1 267:1 333:1 340:1 404:1 410:1 560:1 583:1 722:1 723:1 739:1 880:1 884:1 885:1 931:1 945:1 958:1 963:1 1149:1 1151:1 1185:1 1462:1 1481:1 1699:1 1758:1 1880:1 1906:1 2038:1 2039:1 2126:1 2332:1 2528:1 2731:1 2732:1 2760:1 2761:1 2856:1 2913:1 2915:1 2992:1 3128:1 3152:1 3159:1 3237:1 3238:1 3247:1 3368:1 3430:1 3454:1 3468:1 3486:1 3506:1 3516:1 3569:1 3719:1 3738:1 3773:1 4011:1 4224:1 4229:1 4238:1 4415:1 4524:1 4526:1 4754:1 4756:1 4778:1 4962:1 4963:1 4964:1 5104:1 5357:1 5431:1 5535:1 
0.01311262444241129 0.03507603299447293 0 65:1 84:1 97:1 113:1 267:1 333:1 340:1 404:1 410:1 706:1 722:1 810:1 826:1 880:1 884:1 885:1 1149:1 1151:1 1185:1 1462:1 1476:1 1481:1 1515:1 1699:1 1758:1 1906:1 1907:1 2038:1 2039:1 2064:1 2126:1 2204:1 2332:1 2731:1 2732:1 2760:1 2761:1 2774:1 2775:1 2779:1 2915:1 3237:1 3322:1 3430:1 3454:1 3468:1 3480:1 3506:1 3516:1 3527:1 3569:1 3835:1 3890:1 3911:1 3913:1 4011:1 4012:1 4014:1 4015:1 4189:1 4238:1 4415:1 4442:1 4447:1 4448:1 4531:1 4778:1 4962:1 4963:1 4964:1 5104:1 5357:1 5471:1 5474:1 5476:1 5535:1 
0 0.1028317434932565 0 722:1 784:1 792:1 1149:1 1462:1 1543:1 1699:1 1906:1 2038:1 2039:1 2337:1 2350:1 2351:1 2377:1 2731:1 2807:1 2811:1 2812:1 2915:1 3237:1 3401:1 3430:1 3468:1 3506:1 3569:1 4011:1 4040:1 4238:1 4323:1 4370:1 4571:1 4580:1 5200:1 5263:1 5272:1 5273:1 
0 0 0.04561986565258849 44:1 53:1 65:1 267:1 275:1 410:1 560:1 722:1 723:1 1462:1 1515:1 1906:1 2038:1 2039:1 2064:1 2074:1 2126:1 2127:1 2129:1 2133:1 2337:1 2373:1 2563:1 2731:1 2732:1 2760:1 2807:1 2811:1 2915:1 3021:1 3430:1 3468:1 3506:1 3569:1 3571:1 3606:1 3773:1 3808:1 4011:1 4012:1 4238:1 4778:1 5200:1 5263:1 5282:1 
0.1522428987296933 0 0 65:1 91:1 410:1 618:1 620:1 722:1 1111:1 1149:1 1462:1 1470:1 1699:1 1703:1 1708:1 1906:1 2038:1 2039:1 2636:1 2731:1 3430:1 3468:1 3476:1 3506:1 3510:1 3569:1 3648:1 4011:1 4238:1 4698:1 4744:1 4745:1 4746:1 4778:1 5104:1 5179:1 
0.03639639828675801 0.08677434859041697 0.07684081872356704 410:1 722:1 810:1 1462:1 1906:1 1981:1 1991:1 1993:1 2038:1 2039:1 2064:1 2126:1 2337:1 2343:1 2731:1 3237:1 3273:1 3305:1 3313:1 3314:1 3430:1 3468:1 3506:1 3546:1 4011:1 4171:1 4173:1 4778:1 5053:1 5054:1 5104:1 5105:1 5193:1 5357:1 5535:1 5565:1 5566:1 
0.06589362694465518 0.2791505112916955 0.006454681908169673 410:1 597:1 599:1 1906:1 2038:1 2039:1 2126:1 2127:1 2167:1 2171:1 2731:1 3430:1 3468:1 3506:1 3546:1 3569:1 4011:1 4778:1 5053:1 5054:1 5104:1 5105:1 5193:1 5535:1 5565:1 5566:1 
0 0 0.08460217769391318 410:1 411:1 432:1 1462:1 1607:1 1906:1 2038:1 2039:1 2126:1 2636:1 2653:1 2731:1 2915:1 3215:1 3216:1 3237:1 3430:1 3468:1 3506:1 3546:1 4238:1 4393:1 4778:1 5053:1 5054:1 5104:1 5105:1 5130:1 5193:1 5535:1 5565:1 5566:1 
0 0.0148208947834328 0.1362078692429835 97:1 255:1 261:1 262:1 403:1 722:1 810:1 859:1 1091:1 1149:1 1151:1 1462:1 1662:1 1906:1 1907:1 1913:1 1914:1 1915:1 1916:1 2038:1 2039:1 2126:1 2332:1 2337:1 2343:1 2731:1 2732:1 2843:1 3237:1 3271:1 3273:1 3315:1 3402:1 3404:1 3418:1 3419:1 3430:1 3468:1 3506:1 3569:1 3571:1 3592:1 3599:1 3600:1 3955:1 3956:1 4011:1 4238:1 4240:1 4270:1 4272:1 4778:1 4780:1 4793:1 5104:1 5357:1 5437:1 5535:1 
0 0.3840452825591336 0 1906:1 2038:1 2039:1 2731:1 2915:1 3128:1 3178:1 3180:1 3186:1 3430:1 3468:1 3480:1 3506:1 4011:1 4200:1 4222:1 4778:1 
0.1133793497824434 1.005616941593254 0 226:1 722:1 880:1 891:1 1149:1 1418:1 1428:1 1462:1 1474:1 1906:1 2038:1 2039:1 2350:1 2515:1 2636:1 2731:1 2807:1 3237:1 3271:1 3430:1 3468:1 3506:1 3569:1 3940:1 4011:1 4199:1 4238:1 4322:1 
0.01515020256455595 0 0.00159944198668658 65:1 71:1 76:1 175:1 226:1 403:1 410:1 654:1 722:1 780:1 859:1 1149:1 1226:1 1418:1 1428:1 1462:1 1515:1 1662:1 1699:1 1758:1 1773:1 1774:1 1807:1 1848:1 1849:1 1906:1 1907:1 1913:1 1914:1 1916:1 2038:1 2039:1 2350:1 2373:1 2636:1 2731:1 2732:1 2900:1 3237:1 3271:1 3273:1 3305:1 3315:1 3430:1 3468:1 3506:1 4011:1 4199:1 4222:1 4238:1 4615:1 4616:1 4698:1 4730:1 4778:1 4995:1 5104:1 5357:1 5535:1 
0 0.08544493231749938 0 332:1 403:1 410:1 560:1 579:1 722:1 723:1 762:1 763:1 810:1 1149:1 1297:1 1312:1 1462:1 1512:1 1662:1 1906:1 1907:1 1913:1 1914:1 2038:1 2039:1 2126:1 2298:1 2350:1 2351:1 2544:1 2731:1 2732:1 2807:1 2827:1 2856:1 2864:1 3237:1 3273:1 3315:1 3349:1 3430:1 3468:1 3501:1 3506:1 4011:1 4238:1 4294:1 4323:1 4349:1 4618:1 4778:1 4818:1 4820:1 5104:1 5120:1 5122:1 5200:1 5263:1 5272:1 5273:1 5535:1 
0 0.1261796146221085 0 410:1 528:1 536:1 1149:1 1418:1 1462:1 1515:1 1906:1 2011:1 2038:1 2039:1 2106:1 2362:1 2372:1 2636:1 2731:1 2774:1 2803:1 2807:1 2813:1 2823:1 2856:1 2871:1 2900:1 3237:1 3271:1 3430:1 3468:1 3480:1 3506:1 4011:1 4222:1 4238:1 4240:1 4270:1 4271:1 4778:1 5104:1 5193:1 5200:1 5224:1 5230:1 
0 0.5014420560438051 0.2985481106759504 226:1 326:1 403:1 722:1 784:1 810:1 998:1 1091:1 1149:1 1418:1 1428:1 1462:1 1607:1 1658:1 1662:1 1906:1 1907:1 1913:1 1914:1 1916:1 2038:1 2039:1 2126:1 2254:1 2269:1 2337:1 2339:1 2340:1 2343:1 2350:1 2731:1 2732:1 2915:1 2917:1 2968:1 2978:1 3237:1 3271:1 3273:1 3315:1 3353:1 3404:1 3410:1 3413:1 3430:1 3443:1 3468:1 3506:1 3569:1 3711:1 4011:1 4123:1 4199:1 4222:1 4238:1 4240:1 4270:1 4272:1 4486:1 4489:1 4492:1 4615:1 4616:1 4698:1 4730:1 4778:1 5104:1 5200:1 5311:1 5357:1 5437:1 5535:1 
0.03385768636878366 0.1123720643921297 0.243912077730553 410:1 528:1 536:1 1462:1 1906:1 2011:1 2038:1 2039:1 2362:1 2372:1 2636:1 2731:1 2807:1 2813:1 2823:1 3430:1 3468:1 3506:1 4778:1 5104:1 5193:1 
0 0 0.01244001709145742 379:1 389:1 404:1 1149:1 1297:1 1343:1 1358:1 1360:1 1462:1 1463:1 1607:1 1630:1 1631:1 1699:1 1854:1 1906:1 2038:1 2039:1 2731:1 3430:1 3468:1 3506:1 3539:1 3546:1 3569:1 3773:1 3814:1 3835:1 3890:1 4011:1 4238:1 4240:1 4292:1 4571:1 5104:1 5200:1 5224:1 5261:1 5311:1 5344:1 5535:1 5574:1 
0.02185560515358637 0.2212583892378691 0 44:1 55:1 65:1 267:1 279:1 284:1 306:1 410:1 618:1 620:1 722:1 784:1 1109:1 1149:1 1462:1 1470:1 1481:1 1594:1 1598:1 1699:1 1701:1 1702:1 1703:1 1704:1 1906:1 2038:1 2039:1 2064:1 2337:1 2373:1 2477:1 2478:1 2636:1 2731:1 2732:1 2760:1 2856:1 2887:1 3237:1 3402:1 3425:1 3430:1 3443:1 3468:1 3476:1 3506:1 3510:1 3539:1 3569:1 3832:1 4011:1 4012:1 4072:1 4171:1 4238:1 4515:1 4542:1 4546:1 4615:1 4616:1 4698:1 4730:1 4778:1 4818:1 5081:1 5104:1 5168:1 5200:1 5263:1 5282:1 5357:1 5437:1 5468:1 5535:1 
0 0.08283617366847708 0 226:1 403:1 722:1 784:1 810:1 1091:1 1149:1 1418:1 1428:1 1462:1 1515:1 1607:1 1662:1 1906:1 1907:1 1913:1 1914:1 1916:1 2038:1 2039:1 2126:1 2337:1 2339:1 2340:1 2343:1 2350:1 2731:1 2732:1 2744:1 2751:1 3237:1 3271:1 3273:1 3315:1 3430:1 3468:1 3506:1 4011:1 4123:1 4199:1 4238:1 4240:1 4270:1 4272:1 4615:1 4616:1 4698:1 4730:1 5104:1 5357:1 5437:1 5535:1 5574:1 
0 0.08549589370674122 0 410:1 706:1 707:1 708:1 722:1 723:1 931:1 981:1 1462:1 1543:1 1594:1 1906:1 2038:1 2039:1 2563:1 2731:1 2856:1 2887:1 2915:1 3237:1 3273:1 3430:1 3468:1 3486:1 3506:1 3539:1 3569:1 3695:1 3966:1 3969:1 4011:1 4218:1 4238:1 4294:1 4295:1 4323:1 4542:1 5104:1 
0 0.01544548103014004 0.6836868447212432 410:1 716:1 1906:1 2038:1 2039:1 2106:1 2731:1 3430:1 3468:1 3506:1 4778:1 5104:1 5199:1 5574:1 
0 0.3272666966303127 0 1462:1 1543:1 1568:1 1906:1 2038:1 2039:1 2377:1 2731:1 2915:1 3064:1 3237:1 3402:1 3430:1 3468:1 3506:1 4238:1 4323:1 4341:1 4362:1 4366:1 4367:1 4778:1 4932:1 4943:1 
0 0.1251155276845599 0.02636297851284825 44:1 65:1 66:1 67:1 68:1 226:1 313:1 403:1 410:1 722:1 723:1 784:1 798:1 810:1 931:1 1091:1 1149:1 1418:1 1428:1 1462:1 1524:1 1594:1 1607:1 1620:1 1624:1 1632:1 1662:1 1699:1 1750:1 1906:1 1907:1 1913:1 1914:1 1916:1 2038:1 2039:1 2126:1 2254:1 2269:1 2273:1 2274:1 2337:1 2343:1 2350:1 2528:1 2636:1 2697:1 2703:1 2731:1 2732:1 2915:1 3237:1 3271:1 3273:1 3296:1 3297:1 3315:1 3388:1 3397:1 3430:1 3468:1 3486:1 3506:1 3546:1 3569:1 3571:1 3606:1 3610:1 4011:1 4199:1 4238:1 4240:1 4270:1 4272:1 4571:1 4615:1 4616:1 4618:1 4698:1 4730:1 4778:1 4818:1 4878:1 5104:1 5200:1 5311:1 5357:1 5437:1 5535:1 
0.03859270349134714 0.4881514648354156 0.02302520767330214 247:1 267:1 410:1 528:1 529:1 560:1 722:1 1042:1 1052:1 1111:1 1149:1 1218:1 1462:1 1906:1 2038:1 2039:1 2064:1 2070:1 2126:1 2334:1 2513:1 2563:1 2610:1 2612:1 2613:1 2636:1 2694:1 2695:1 2731:1 2807:1 3237:1 3430:1 3468:1 3506:1 3546:1 3569:1 4011:1 4012:1 4026:1 4054:1 4222:1 4238:1 4618:1 4697:1 4778:1 5098:1 5104:1 5179:1 5357:1 5535:1 5555:1 
0 0.7454315039316727 0.08375504535543389 226:1 722:1 784:1 810:1 1091:1 1149:1 1418:1 1428:1 1462:1 1524:1 1594:1 1607:1 1699:1 1807:1 1848:1 1906:1 2038:1 2039:1 2126:1 2337:1 2339:1 2340:1 2343:1 2350:1 2636:1 2731:1 2774:1 2915:1 3064:1 3080:1 3237:1 3271:1 3430:1 3468:1 3506:1 3569:1 3571:1 3628:1 3966:1 3976:1 3984:1 4002:1 4011:1 4012:1 4123:1 4199:1 4238:1 4240:1 4270:1 4272:1 4778:1 4995:1 4996:1 5104:1 5123:1 5357:1 5437:1 5451:1 5459:1 
0 0.04686797480819385 0 1462:1 1463:1 1906:1 2038:1 2039:1 2731:1 3237:1 3430:1 3468:1 3506:1 3569:1 3650:1 3653:1 3654:1 4011:1 4218:1 4238:1 4542:1 
0 0.2552569933672299 0 157:1 161:1 264:1 722:1 931:1 945:1 958:1 963:1 1462:1 1594:1 1662:1 1676:1 1686:1 1687:1 1906:1 2038:1 2039:1 2636:1 2670:1 2683:1 2731:1 2732:1 2852:1 2856:1 2871:1 2879:1 2881:1 2913:1 2915:1 2917:1 3237:1 3430:1 3443:1 3468:1 3476:1 3479:1 3480:1 3486:1 3506:1 3510:1 3569:1 3749:1 4011:1 4778:1 4818:1 4878:1 4884:1 4961:1 5050:1 5053:1 5081:1 5085:1 5091:1 5104:1 5357:1 5437:1 5468:1 5532:1 5535:1 
0 0 0.1380747172345153 246:1 403:1 410:1 611:1 722:1 1149:1 1436:1 1462:1 1594:1 1662:1 1906:1 1907:1 1913:1 1914:1 1916:1 2038:1 2039:1 2106:1 2337:1 2731:1 2732:1 2915:1 3237:1 3273:1 3315:1 3402:1 3430:1 3468:1 3506:1 4011:1 4222:1 4238:1 4698:1 4723:1 4778:1 4995:1 5104:1 5135:1 5200:1 5224:1 5241:1 5311:1 5315:1 5316:1 5535:1 
0 8.766515110399403 2.499575575716033 226:1 722:1 810:1 1091:1 1149:1 1418:1 1428:1 1462:1 1906:1 2038:1 2039:1 2126:1 2337:1 2343:1 2350:1 2731:1 3237:1 3271:1 3430:1 3468:1 3506:1 4011:1 4199:1 4238:1 4240:1 4270:1 4272:1 5357:1 5437:1 
0 1.812121006495205 0.1142278000540793 267:1 279:1 284:1 1906:1 2038:1 2039:1 2731:1 3430:1 3468:1 3506:1 3569:1 3832:1 
0 0.1845050797517166 0.05559902470583857 410:1 618:1 620:1 706:1 711:1 722:1 780:1 784:1 806:1 810:1 846:1 1149:1 1462:1 1470:1 1607:1 1630:1 1699:1 1906:1 2038:1 2039:1 2126:1 2127:1 2167:1 2173:1 2254:1 2275:1 2528:1 2636:1 2731:1 3430:1 3468:1 3476:1 3480:1 3506:1 3510:1 3538:1 3569:1 3648:1 4011:1 4235:1 4238:1 4294:1 4302:1 4618:1 4665:1 4668:1 4669:1 4698:1 4706:1 4778:1 5104:1 5109:1 5200:1 5201:1 5215:1 5263:1 5286:1 5535:1 
0.03184338521576292 0.7757350174948136 0.2236174798369802 267:1 1149:1 1462:1 1481:1 1515:1 1518:1 1607:1 1630:1 1662:1 1699:1 1854:1 1860:1 1906:1 2038:1 2039:1 2064:1 2070:1 2126:1 2731:1 2774:1 2775:1 2779:1 2791:1 3237:1 3273:1 3281:1 3315:1 3430:1 3468:1 3506:1 3569:1 3835:1 3842:1 3856:1 3866:1 4011:1 4012:1 4026:1 4092:1 4094:1 4123:1 4238:1 4415:1 4459:1 4778:1 4818:1 4852:1 4855:1 
0 0.604868006531678 0 407:1 1149:1 1418:1 1425:1 1906:1 2038:1 2039:1 2513:1 2731:1 2915:1 3128:1 3178:1 3180:1 3186:1 3430:1 3454:1 3468:1 3480:1 3506:1 4011:1 4012:1 4035:1 4037:1 4180:1 4200:1 4778:1 5574:1 
0 1.616025267407487 6.320303509482275 226:1 1149:1 1418:1 1428:1 1462:1 1524:1 1906:1 2038:1 2039:1 2350:1 2373:1 2731:1 2915:1 3064:1 3237:1 3271:1 3430:1 3468:1 3506:1 4011:1 4199:1 4238:1 4486:1 4498:1 
0 0.1049273109313277 0 226:1 403:1 1149:1 1418:1 1428:1 1462:1 1481:1 1662:1 1906:1 1907:1 1913:1 1914:1 2038:1 2039:1 2350:1 2549:1 2731:1 2732:1 2915:1 3007:1 3237:1 3271:1 3273:1 3315:1 3430:1 3468:1 3506:1 4011:1 4199:1 4238:1 4615:1 4616:1 4698:1 4730:1 4778:1 5104:1 5535:1 
0 0.4362458258312857 0.3400146856100126 236:1 326:1 403:1 410:1 528:1 722:1 810:1 1091:1 1149:1 1283:1 1284:1 1462:1 1515:1 1662:1 1906:1 1907:1 1913:1 1914:1 1916:1 2038:1 2039:1 2126:1 2254:1 2269:1 2337:1 2343:1 2731:1 2732:1 2915:1 2917:1 2968:1 2978:1 3237:1 3271:1 3273:1 3315:1 3430:1 3468:1 3506:1 3569:1 3711:1 4011:1 4222:1 4224:1 4226:1 4238:1 4240:1 4270:1 4272:1 4486:1 4489:1 4492:1 4615:1 4616:1 4698:1 4730:1 4778:1 5104:1 5105:1 5200:1 5224:1 5230:1 5357:1 5437:1 5535:1 
0 0.06440793251826465 0.06370403836868928 722:1 810:1 826:1 829:1 830:1 1149:1 1297:1 1309:1 1462:1 1463:1 1481:1 1515:1 1699:1 1756:1 1906:1 2030:1 2038:1 2039:1 2126:1 2196:1 2350:1 2415:1 2563:1 2587:1 2595:1 2636:1 2731:1 2807:1 2827:1 2831:1 2915:1 3007:1 3009:1 3064:1 3099:1 3237:1 3271:1 3430:1 3454:1 3468:1 3506:1 4011:1 4238:1 4415:1 4456:1 4618:1 4695:1 4757:1 4778:1 4818:1 4821:1 4826:1 5053:1 5104:1 5114:1 5357:1 5390:1 
0 0.207813998022854 0.1655741389916956 97:1 226:1 403:1 722:1 784:1 806:1 810:1 1091:1 1149:1 1418:1 1428:1 1462:1 1515:1 1607:1 1662:1 1906:1 1907:1 1913:1 1914:1 2038:1 2039:1 2126:1 2337:1 2339:1 2340:1 2343:1 2350:1 2731:1 2732:1 3237:1 3238:1 3247:1 3271:1 3273:1 3277:1 3278:1 3315:1 3430:1 3468:1 3506:1 4011:1 4123:1 4199:1 4238:1 4240:1 4270:1 4272:1 4415:1 4459:1 4615:1 4616:1 4698:1 4730:1 4778:1 4780:1 5104:1 5357:1 5437:1 5535:1 
0.1677878886729312 0 0 123:1 146:1 157:1 161:1 162:1 267:1 273:1 722:1 1042:1 1149:1 1462:1 1501:1 1607:1 1906:1 2038:1 2039:1 2126:1 2127:1 2415:1 2559:1 2731:1 3237:1 3271:1 3430:1 3468:1 3506:1 3569:1 3699:1 4011:1 4238:1 4778:1 4818:1 5053:1 5055:1 5104:1 5120:1 
0 0.08487576726281883 0.04646375226004689 410:1 692:1 1149:1 1462:1 1543:1 1564:1 1906:1 2038:1 2039:1 2126:1 2224:1 2236:1 2373:1 2636:1 2697:1 2710:1 2711:1 2726:1 2731:1 2807:1 2827:1 2831:1 2832:1 2856:1 3237:1 3349:1 3430:1 3468:1 3506:1 3539:1 4011:1 4238:1 4618:1 4642:1 4778:1 4818:1 5104:1 5123:1 5179:1 5357:1 
0 0 0.08321925193255703 123:1 146:1 157:1 161:1 162:1 267:1 273:1 1149:1 1462:1 1501:1 1607:1 1906:1 2038:1 2039:1 2126:1 2127:1 2415:1 2559:1 2731:1 3237:1 3271:1 3430:1 3468:1 3506:1 3569:1 3699:1 4238:1 4778:1 4818:1 5053:1 5055:1 5104:1 5120:1 
0 9.60442068422438 5.669353925543826 1906:1 2038:1 2039:1 2731:1 3430:1 3468:1 3506:1 
0.1157215032749782 0.3135701440771874 0.1218890092644427 175:1 212:1 722:1 723:1 749:1 754:1 1149:1 1192:1 1195:1 1196:1 1462:1 1524:1 1594:1 1662:1 1699:1 1807:1 1906:1 2038:1 2039:1 2126:1 2254:1 2260:1 2261:1 2372:1 2373:1 2636:1 2670:1 2677:1 2731:1 2774:1 2775:1 2900:1 2915:1 3430:1 3468:1 3480:1 3481:1 3506:1 3569:1 3683:1 4011:1 4189:1 4778:1 4818:1 4892:1 5357:1 5437:1 5446:1 
0 0 0.03218217780375154 175:1 722:1 784:1 793:1 1149:1 1462:1 1543:1 1568:1 1594:1 1641:1 1642:1 1699:1 1758:1 1790:1 1906:1 2038:1 2039:1 2126:1 2254:1 2372:1 2373:1 2636:1 2653:1 2662:1 2670:1 2677:1 2731:1 2774:1 2775:1 2915:1 3050:1 3054:1 3237:1 3402:1 3430:1 3454:1 3468:1 3476:1 3506:1 3569:1 3773:1 3787:1 3788:1 3835:1 3890:1 3904:1 3909:1 4011:1 4218:1 4238:1 4415:1 4459:1 4618:1 4778:1 4916:1 5357:1 5437:1 5446:1 
0 0.09293997197392458 0.0137532841483043 65:1 97:1 175:1 410:1 722:1 810:1 826:1 1111:1 1149:1 1231:1 1414:1 1462:1 1524:1 1594:1 1607:1 1632:1 1662:1 1699:1 1793:1 1805:1 1906:1 2038:1 2039:1 2126:1 2127:1 2136:1 2137:1 2254:1 2260:1 2261:1 2262:1 2326:1 2327:1 2372:1 2373:1 2636:1 2670:1 2677:1 2731:1 2774:1 2775:1 2807:1 2827:1 2831:1 2856:1 2857:1 2915:1 3237:1 3273:1 3305:1 3307:1 3349:1 3430:1 3432:1 3443:1 3448:1 3449:1 3468:1 3476:1 3480:1 3481:1 3506:1 3569:1 3773:1 3787:1 4011:1 4238:1 4618:1 4778:1 4818:1 4892:1 5104:1 5173:1 5179:1 5200:1 5357:1 5426:1 5437:1 5446:1 5535:1 5574:1 5613:1 
0 0.1855059893426941 0 157:1 161:1 175:1 250:1 1149:1 1390:1 1436:1 1444:1 1462:1 1515:1 1524:1 1607:1 1630:1 1632:1 1662:1 1906:1 1907:1 1912:1 2038:1 2039:1 2126:1 2254:1 2260:1 2261:1 2266:1 2268:1 2372:1 2373:1 2513:1 2636:1 2670:1 2677:1 2731:1 2774:1 2775:1 2799:1 2915:1 3044:1 3237:1 3425:1 3430:1 3468:1 3476:1 3480:1 3481:1 3486:1 3506:1 3546:1 3569:1 3773:1 3787:1 4011:1 4238:1 4618:1 4778:1 4818:1 4892:1 4980:1 4988:1 4989:1 5104:1 5130:1 5179:1 5200:1 5263:1 5284:1 5357:1 5437:1 5446:1 5535:1 
0 0.1552663353204423 0 722:1 1462:1 1543:1 1594:1 1906:1 1907:1 1938:1 1956:1 1980:1 2038:1 2039:1 2337:1 2362:1 2513:1 2636:1 2640:1 2731:1 2774:1 2804:1 3237:1 3322:1 3430:1 3468:1 3506:1 4011:1 4238:1 4415:1 4425:1 4469:1 5200:1 5224:1 5241:1 
0 0.0106672897205449 0.1228555548431888 267:1 279:1 283:1 403:1 407:1 722:1 810:1 859:1 868:1 931:1 936:1 1091:1 1149:1 1297:1 1462:1 1543:1 1568:1 1607:1 1662:1 1699:1 1758:1 1776:1 1782:1 1906:1 1907:1 1913:1 1914:1 1916:1 1981:1 2038:1 2039:1 2126:1 2127:1 2332:1 2337:1 2343:1 2377:1 2403:1 2446:1 2513:1 2731:1 2732:1 2807:1 2856:1 2915:1 3064:1 3123:1 3237:1 3271:1 3273:1 3315:1 3324:1 3347:1 3402:1 3430:1 3468:1 3486:1 3506:1 3569:1 3668:1 3835:1 3842:1 3856:1 3857:1 3862:1 4011:1 4123:1 4238:1 4240:1 4270:1 4272:1 4294:1 4304:1 4305:1 4323:1 4362:1 4366:1 4778:1 4780:1 5104:1 5179:1 5180:1 5200:1 5311:1 5314:1 5357:1 5437:1 5535:1 5574:1 
0 0 0.01712736428970129 722:1 1017:1 1027:1 1149:1 1226:1 1462:1 1515:1 1543:1 1568:1 1652:1 1906:1 2038:1 2039:1 2731:1 3237:1 3402:1 3430:1 3468:1 3506:1 3569:1 3835:1 3842:1 3848:1 3890:1 4011:1 4083:1 4778:1 4995:1 5104:1 5168:1 5200:1 5224:1 5238:1 
0 0.03699628104273005 0.0270452890630685 157:1 340:1 379:1 381:1 387:1 722:1 810:1 1063:1 1462:1 1607:1 1632:1 1641:1 1647:1 1906:1 2038:1 2039:1 2126:1 2221:1 2337:1 2528:1 2563:1 2600:1 2731:1 2774:1 2915:1 3128:1 3146:1 3430:1 3468:1 3506:1 3546:1 3549:1 3569:1 3571:1 3628:1 3633:1 3966:1 3976:1 4002:1 4011:1 4238:1 4563:1 4568:1 4618:1 4778:1 4995:1 5104:1 5109:1 5111:1 5123:1 5179:1 5200:1 5201:1 5204:1 5224:1 5227:1 5263:1 5296:1 
0 0 0.1098035604426642 359:1 365:1 1149:1 1297:1 1343:1 1358:1 1462:1 1662:1 1906:1 2038:1 2039:1 2126:1 2313:1 2377:1 2563:1 2610:1 2612:1 2636:1 2731:1 2915:1 3237:1 3273:1 3315:1 3317:1 3430:1 3468:1 3506:1 3546:1 3569:1 3773:1 3835:1 3877:1 4011:1 4178:1 4222:1 4238:1 4322:1 4571:1 4778:1 5104:1 5123:1 5179:1 
0 0.7226053843945732 0.1924111557350073 226:1 407:1 1149:1 1418:1 1428:1 1462:1 1662:1 1699:1 1741:1 1906:1 2038:1 2039:1 2350:1 2731:1 3237:1 3271:1 3273:1 3315:1 3320:1 3430:1 3468:1 3506:1 4011:1 4199:1 4203:1 4238:1 4618:1 4685:1 4778:1 4995:1 5033:1 5035:1 5574:1 
0 0.5884225301734757 0 65:1 243:1 722:1 931:1 1149:1 1462:1 1515:1 1543:1 1551:1 1607:1 1630:1 1641:1 1699:1 1807:1 1813:1 1854:1 1870:1 1871:1 1906:1 2038:1 2039:1 2126:1 2127:1 2153:1 2254:1 2636:1 2731:1 2843:1 2850:1 2856:1 2897:1 2915:1 3050:1 3057:1 3236:1 3237:1 3271:1 3273:1 3305:1 3430:1 3468:1 3480:1 3486:1 3506:1 3532:1 3546:1 3569:1 3571:1 3573:1 3835:1 3842:1 3856:1 3866:1 4011:1 4123:1 4238:1 4393:1 4410:1 4411:1 4571:1 4572:1 4573:1 4778:1 4896:1 4898:1 4979:1 4980:1 4990:1 5081:1 5104:1 5193:1 5357:1 5416:1 5418:1 5419:1 5437:1 5468:1 5471:1 5483:1 5484:1 5486:1 5535:1 
0 0.1030419747627199 0 226:1 1149:1 1418:1 1428:1 1906:1 2038:1 2039:1 2053:1 2054:1 2350:1 2731:1 3237:1 3271:1 3430:1 3468:1 3506:1 3539:1 4011:1 4199:1 4238:1 4618:1 4619:1 4628:1 4778:1 4780:1 4796:1 
0 0.6476120417539447 0.02207882660014304 226:1 326:1 403:1 722:1 784:1 810:1 931:1 945:1 948:1 949:1 1091:1 1149:1 1418:1 1428:1 1462:1 1543:1 1568:1 1607:1 1662:1 1699:1 1906:1 1907:1 1913:1 1914:1 1916:1 2038:1 2039:1 2126:1 2337:1 2339:1 2340:1 2343:1 2350:1 2373:1 2731:1 2732:1 2915:1 3237:1 3271:1 3273:1 3315:1 3319:1 3402:1 3430:1 3468:1 3486:1 3506:1 3569:1 3571:1 3606:1 4011:1 4123:1 4199:1 4222:1 4238:1 4240:1 4270:1 4272:1 4615:1 4616:1 4698:1 4730:1 4778:1 4932:1 4942:1 5104:1 5200:1 5357:1 5437:1 5535:1 
0 0.1127175795239216 0 722:1 931:1 945:1 958:1 961:1 1065:1 1462:1 1543:1 1548:1 1591:1 1594:1 1607:1 1632:1 1641:1 1906:1 2038:1 2039:1 2731:1 2774:1 2801:1 2915:1 3237:1 3402:1 3430:1 3468:1 3486:1 3506:1 3546:1 3550:1 3569:1 3966:1 3976:1 3984:1 4000:1 4011:1 4121:1 4238:1 4323:1 4374:1 4377:1 4618:1 4778:1 5104:1 5168:1 5200:1 
0 0 0.02061769150361992 722:1 1149:1 1283:1 1462:1 1662:1 1906:1 2038:1 2039:1 2337:1 2372:1 2377:1 2550:1 2636:1 2670:1 2676:1 2683:1 2731:1 2915:1 3237:1 3273:1 3315:1 3317:1 3430:1 3468:1 3506:1 3546:1 3552:1 3569:1 3835:1 3877:1 4011:1 4178:1 4238:1 4571:1 4778:1 4980:1 4990:1 5104:1 5193:1 5200:1 
2.138702949735048 5.154609718876005 4.04505304666943 65:1 410:1 618:1 620:1 722:1 784:1 1462:1 1470:1 1699:1 1703:1 1704:1 1906:1 2038:1 2039:1 2636:1 2731:1 3430:1 3468:1 3476:1 3506:1 3510:1 
0 0 0.1725882157999211 134:1 135:1 226:1 315:1 722:1 784:1 810:1 1017:1 1020:1 1091:1 1149:1 1418:1 1428:1 1462:1 1543:1 1551:1 1607:1 1632:1 1906:1 1938:1 1956:1 2038:1 2039:1 2126:1 2254:1 2269:1 2337:1 2343:1 2350:1 2415:1 2731:1 3237:1 3271:1 3402:1 3430:1 3468:1 3506:1 3569:1 3571:1 3606:1 3611:1 3612:1 3711:1 4011:1 4054:1 4199:1 4238:1 4240:1 4270:1 4272:1 4618:1 4778:1 4780:1 5357:1 5437:1 5451:1 5452:1 
0 0.03841608808198109 0.1788614535885713 226:1 267:1 403:1 722:1 784:1 810:1 1091:1 1149:1 1297:1 1343:1 1356:1 1418:1 1428:1 1462:1 1543:1 1594:1 1662:1 1906:1 1907:1 1913:1 1914:1 2038:1 2039:1 2126:1 2337:1 2343:1 2350:1 2528:1 2731:1 2732:1 3237:1 3271:1 3273:1 3315:1 3401:1 3430:1 3468:1 3506:1 3569:1 3668:1 3671:1 3835:1 3836:1 3839:1 4011:1 4012:1 4199:1 4238:1 4240:1 4270:1 4272:1 4571:1 4778:1 4818:1 4878:1 4879:1 5357:1 5437:1 5535:1 
0 1.779609626167948 1.318044860954356 403:1 722:1 1462:1 1662:1 1906:1 1907:1 1913:1 1914:1 2038:1 2039:1 2337:1 2731:1 2732:1 3237:1 3273:1 3315:1 3430:1 3468:1 3506:1 4238:1 4615:1 4616:1 4698:1 4730:1 5104:1 5535:1 
0 0.2605436575517148 0.08661492785202508 403:1 722:1 723:1 784:1 798:1 810:1 1091:1 1149:1 1462:1 1524:1 1594:1 1607:1 1662:1 1699:1 1807:1 1848:1 1849:1 1906:1 1907:1 1913:1 1914:1 1916:1 2038:1 2039:1 2126:1 2337:1 2339:1 2340:1 2343:1 2544:1 2731:1 2732:1 2915:1 3064:1 3066:1 3067:1 3237:1 3238:1 3271:1 3273:1 3315:1 3430:1 3468:1 3506:1 3569:1 3571:1 3592:1 4011:1 4123:1 4238:1 4240:1 4270:1 4272:1 4415:1 4456:1 4457:1 4458:1 4615:1 4616:1 4618:1 4642:1 4698:1 4730:1 4778:1 4818:1 4858:1 5104:1 5357:1 5437:1 5535:1 
0 0 0.07032530763467949 722:1 1462:1 1662:1 1906:1 2038:1 2039:1 2337:1 2377:1 2731:1 2915:1 3237:1 3273:1 3315:1 3317:1 3430:1 3468:1 3506:1 3569:1 3571:1 3592:1 3597:1 3598:1 3835:1 3877:1 4011:1 4012:1 4178:1 4222:1 4238:1 4571:1 4698:1 4744:1 4778:1 5104:1 5179:1 
0.0864685290373064 0.3019852356452953 0 226:1 267:1 379:1 387:1 410:1 528:1 531:1 722:1 1111:1 1149:1 1297:1 1342:1 1418:1 1428:1 1462:1 1543:1 1662:1 1906:1 2038:1 2039:1 2126:1 2254:1 2286:1 2350:1 2377:1 2528:1 2731:1 2915:1 3237:1 3271:1 3273:1 3315:1 3317:1 3430:1 3468:1 3506:1 3569:1 3713:1 3835:1 3877:1 4011:1 4054:1 4111:1 4178:1 4199:1 4238:1 4571:1 4778:1 5104:1 5200:1 5224:1 5227:1 
0 0 0.07156975106726325 722:1 810:1 1462:1 1543:1 1607:1 1630:1 1699:1 1854:1 1860:1 1866:1 1906:1 2038:1 2039:1 2126:1 2377:1 2394:1 2395:1 2731:1 2856:1 2894:1 2915:1 3237:1 3430:1 3468:1 3506:1 3569:1 3571:1 3606:1 3835:1 3842:1 3856:1 3866:1 4011:1 4107:1 4123:1 4238:1 5200:1 
0 0 0.02517589852163809 125:1 267:1 279:1 280:1 315:1 722:1 810:1 1037:1 1462:1 1607:1 1632:1 1662:1 1699:1 1756:1 1758:1 1760:1 1906:1 2038:1 2039:1 2126:1 2127:1 2167:1 2254:1 2286:1 2337:1 2343:1 2373:1 2377:1 2731:1 2915:1 3237:1 3273:1 3315:1 3317:1 3430:1 3468:1 3480:1 3506:1 3569:1 3571:1 3606:1 3713:1 3835:1 3877:1 4011:1 4178:1 4238:1 4393:1 4397:1 4571:1 4618:1 4698:1 4744:1 4778:1 5104:1 5179:1 
0 0.01031084161825608 0 134:1 359:1 403:1 722:1 859:1 1462:1 1662:1 1699:1 1758:1 1760:1 1906:1 1907:1 1913:1 1914:1 2038:1 2039:1 2332:1 2337:1 2544:1 2731:1 2732:1 2807:1 3237:1 3273:1 3315:1 3430:1 3465:1 3468:1 3506:1 3569:1 3571:1 3577:1 3578:1 3835:1 3885:1 3886:1 4011:1 4183:1 4238:1 4615:1 4616:1 4618:1 4619:1 4636:1 4698:1 4730:1 4778:1 4780:1 5098:1 5104:1 5535:1 
0 0 0.00489403130868258 267:1 308:1 379:1 393:1 410:1 528:1 722:1 810:1 817:1 931:1 932:1 934:1 1111:1 1112:1 1149:1 1151:1 1177:1 1462:1 1641:1 1662:1 1906:1 2038:1 2039:1 2126:1 2127:1 2334:1 2373:1 2377:1 2513:1 2528:1 2731:1 2774:1 2782:1 2783:1 2807:1 2838:1 2915:1 2992:1 3237:1 3273:1 3315:1 3317:1 3430:1 3454:1 3468:1 3486:1 3506:1 3539:1 3546:1 3569:1 3773:1 3814:1 3817:1 3818:1 3822:1 3835:1 3877:1 3966:1 3976:1 4011:1 4178:1 4180:1 4222:1 4238:1 4240:1 4289:1 4290:1 4415:1 4571:1 4778:1 4932:1 4942:1 5104:1 5179:1 5193:1 5194:1 5200:1 5311:1 5315:1 5321:1 5535:1 
0.007306094437735498 0.2698009950213304 0.1114358269290772 97:1 157:1 267:1 276:1 403:1 722:1 723:1 784:1 810:1 1091:1 1149:1 1151:1 1154:1 1155:1 1177:1 1462:1 1607:1 1662:1 1699:1 1748:1 1906:1 1907:1 1913:1 1914:1 1916:1 2038:1 2039:1 2126:1 2337:1 2339:1 2340:1 2343:1 2550:1 2560:1 2731:1 2732:1 2807:1 2811:1 2915:1 2917:1 2936:1 3128:1 3152:1 3157:1 3158:1 3237:1 3238:1 3247:1 3271:1 3273:1 3315:1 3324:1 3347:1 3430:1 3468:1 3506:1 3569:1 3571:1 3606:1 4011:1 4123:1 4238:1 4240:1 4270:1 4272:1 4615:1 4616:1 4698:1 4730:1 4778:1 4932:1 4995:1 5104:1 5200:1 5311:1 5357:1 5437:1 5535:1 
0 0 0.108700679751645 243:1 315:1 397:1 410:1 411:1 440:1 441:1 722:1 810:1 846:1 1462:1 1607:1 1632:1 1641:1 1662:1 1699:1 1892:1 1899:1 1900:1 1906:1 2038:1 2039:1 2126:1 2224:1 2239:1 2254:1 2275:1 2315:1 2528:1 2636:1 2731:1 2732:1 2768:1 2769:1 2771:1 2915:1 3237:1 3273:1 3298:1 3324:1 3330:1 3425:1 3430:1 3468:1 3480:1 3506:1 4011:1 4012:1 4024:1 4222:1 4223:1 4238:1 4240:1 4261:1 4294:1 4302:1 4393:1 4402:1 4618:1 4698:1 4749:1 4751:1 4778:1 5048:1 5104:1 5135:1 5357:1 5535:1 
0 0.01289734031050872 0 226:1 255:1 267:1 279:1 284:1 359:1 722:1 784:1 787:1 808:1 810:1 1091:1 1149:1 1418:1 1428:1 1436:1 1462:1 1515:1 1543:1 1594:1 1607:1 1620:1 1641:1 1906:1 2038:1 2039:1 2126:1 2337:1 2339:1 2340:1 2343:1 2350:1 2377:1 2563:1 2610:1 2612:1 2731:1 2732:1 2774:1 2915:1 3064:1 3112:1 3217:1 3237:1 3271:1 3385:1 3386:1 3402:1 3430:1 3468:1 3495:1 3506:1 3546:1 3569:1 3749:1 3773:1 3793:1 3794:1 3832:1 3966:1 3976:1 3984:1 4011:1 4012:1 4025:1 4123:1 4199:1 4238:1 4240:1 4270:1 4272:1 4571:1 4618:1 4664:1 4778:1 4932:1 4943:1 4995:1 5104:1 5179:1 5200:1 5224:1 5225:1 5357:1 5437:1 
0 0 0.1011718323814675 65:1 91:1 410:1 528:1 722:1 1017:1 1018:1 1111:1 1149:1 1151:1 1164:1 1254:1 1402:1 1403:1 1462:1 1607:1 1641:1 1662:1 1906:1 2038:1 2039:1 2334:1 2373:1 2377:1 2731:1 2774:1 2799:1 2807:1 2838:1 2915:1 3050:1 3237:1 3273:1 3315:1 3317:1 3402:1 3430:1 3468:1 3506:1 3539:1 3569:1 3773:1 3814:1 3817:1 3818:1 3835:1 3877:1 4011:1 4178:1 4222:1 4238:1 4415:1 4571:1 4778:1 4780:1 5104:1 5535:1 
0 0.003448976755432323 0 407:1 722:1 723:1 735:1 1149:1 1418:1 1422:1 1462:1 1524:1 1543:1 1551:1 1594:1 1699:1 1735:1 1906:1 2038:1 2039:1 2489:1 2731:1 2774:1 2915:1 3128:1 3237:1 3271:1 3402:1 3404:1 3410:1 3430:1 3468:1 3506:1 4011:1 4098:1 4778:1 4818:1 4863:1 4865:1 4866:1 4878:1 5104:1 5200:1 5574:1 
0 0.0467851954979889 0 359:1 368:1 1149:1 1297:1 1337:1 1462:1 1481:1 1543:1 1641:1 1662:1 1906:1 1938:1 2038:1 2039:1 2350:1 2377:1 2513:1 2731:1 2915:1 3028:1 3032:1 3237:1 3273:1 3315:1 3317:1 3401:1 3430:1 3468:1 3506:1 3569:1 3835:1 3877:1 4011:1 4072:1 4077:1 4178:1 4222:1 4238:1 4415:1 4451:1 4571:1 4778:1 5104:1 5357:1 5437:1 5439:1 5440:1 
0 0.1237987649338784 0 267:1 722:1 723:1 735:1 736:1 1149:1 1418:1 1462:1 1515:1 1543:1 1551:1 1662:1 1906:1 2038:1 2039:1 2377:1 2731:1 2774:1 2915:1 3237:1 3271:1 3273:1 3315:1 3317:1 3385:1 3387:1 3430:1 3468:1 3506:1 3546:1 3569:1 3768:1 3835:1 3877:1 3958:1 4011:1 4178:1 4238:1 4571:1 5104:1 5179:1 5200:1 5224:1 5230:1 5535:1 
0.003277300481536768 0.1500432472981801 0.08788565262599131 65:1 134:1 175:1 359:1 404:1 410:1 411:1 450:1 722:1 1149:1 1189:1 1462:1 1481:1 1489:1 1490:1 1543:1 1607:1 1632:1 1699:1 1743:1 1744:1 1906:1 1938:1 2038:1 2039:1 2636:1 2731:1 2915:1 2917:1 2945:1 3237:1 3401:1 3430:1 3468:1 3476:1 3477:1 3506:1 4011:1 4046:1 4238:1 4240:1 4253:1 4288:1 4323:1 4362:1 4365:1 4618:1 4778:1 5104:1 5183:1 5535:1 
0 0 0.03738499839890397 322:1 410:1 618:1 620:1 722:1 784:1 806:1 1042:1 1055:1 1056:1 1149:1 1462:1 1470:1 1607:1 1630:1 1662:1 1699:1 1906:1 2038:1 2039:1 2636:1 2731:1 2915:1 3430:1 3443:1 3468:1 3476:1 3506:1 3510:1 3569:1 3648:1 3835:1 3890:1 3897:1 3898:1 4011:1 4189:1 4222:1 4238:1 4778:1 4818:1 
0 0 0.015477982605941 157:1 161:1 163:1 410:1 618:1 620:1 1149:1 1462:1 1470:1 1641:1 1699:1 1756:1 1906:1 2038:1 2039:1 2454:1 2462:1 2515:1 2636:1 2731:1 2732:1 2900:1 2915:1 3217:1 3218:1 3221:1 3237:1 3401:1 3402:1 3430:1 3468:1 3476:1 3480:1 3506:1 3510:1 3569:1 3648:1 3749:1 3751:1 4011:1 4200:1 4238:1 4323:1 4386:1 4388:1 4531:1 4538:1 4778:1 4932:1 4949:1 5050:1 5104:1 5200:1 
0 0.1630830511861334 0 97:1 379:1 387:1 410:1 722:1 810:1 854:1 931:1 932:1 1149:1 1462:1 1543:1 1567:1 1641:1 1662:1 1698:1 1906:1 2038:1 2039:1 2126:1 2254:1 2269:1 2271:1 2272:1 2298:1 2377:1 2563:1 2731:1 2774:1 2801:1 2915:1 2992:1 3237:1 3273:1 3315:1 3317:1 3430:1 3468:1 3486:1 3499:1 3506:1 3569:1 3835:1 3877:1 4011:1 4178:1 4189:1 4201:1 4203:1 4238:1 4571:1 4769:1 4770:1 4778:1 5104:1 5200:1 5224:1 5227:1 5535:1 
0 0.01698573760532173 0 722:1 1111:1 1149:1 1254:1 1267:1 1462:1 1591:1 1607:1 1632:1 1662:1 1699:1 1807:1 1822:1 1823:1 1906:1 2038:1 2039:1 2377:1 2636:1 2731:1 2915:1 3237:1 3273:1 3315:1 3317:1 3430:1 3468:1 3506:1 3516:1 3569:1 3835:1 3877:1 3966:1 3976:1 3984:1 4000:1 4011:1 4121:1 4178:1 4238:1 4415:1 4459:1 4463:1 4571:1 4618:1 4767:1 4778:1 4995:1 5104:1 5535:1 5556:1 
0.05635903775475644 0.3517173422627417 0.1222267385398639 65:1 157:1 226:1 410:1 560:1 722:1 996:1 1149:1 1198:1 1200:1 1418:1 1428:1 1462:1 1476:1 1478:1 1524:1 1699:1 1703:1 1906:1 2038:1 2039:1 2126:1 2254:1 2269:1 2350:1 2373:1 2528:1 2731:1 2856:1 2915:1 3064:1 3237:1 3238:1 3271:1 3430:1 3468:1 3506:1 3569:1 3711:1 3773:1 3785:1 3966:1 3976:1 4011:1 4054:1 4064:1 4199:1 4238:1 4486:1 4498:1 4778:1 4970:1 5104:1 
0.2085802927376533 0 0.1573141672236282 65:1 359:1 370:1 410:1 618:1 620:1 722:1 723:1 775:1 784:1 1462:1 1470:1 1641:1 1699:1 1703:1 1704:1 1906:1 2038:1 2039:1 2126:1 2127:1 2167:1 2636:1 2731:1 3237:1 3273:1 3298:1 3301:1 3430:1 3443:1 3468:1 3476:1 3506:1 3510:1 4011:1 4238:1 4393:1 4397:1 4515:1 4778:1 5104:1 5193:1 5357:1 5471:1 5483:1 5488:1 
0 0.1414810963776482 0.06005520938019878 722:1 1091:1 1099:1 1149:1 1245:1 1251:1 1462:1 1489:1 1491:1 1543:1 1607:1 1662:1 1906:1 2038:1 2039:1 2377:1 2636:1 2731:1 2774:1 2799:1 2856:1 2860:1 2861:1 2862:1 2915:1 3237:1 3273:1 3315:1 3317:1 3402:1 3430:1 3443:1 3468:1 3506:1 3569:1 3835:1 3877:1 4011:1 4178:1 4222:1 4238:1 4294:1 4310:1 4311:1 4542:1 4545:1 4571:1 4778:1 5104:1 5200:1 5263:1 5290:1 
0.2491431805011278 0 0.03321962813983297 97:1 267:1 279:1 301:1 722:1 1105:1 1149:1 1462:1 1699:1 1880:1 2337:1 2515:1 2516:1 2518:1 2636:1 2915:1 3064:1 3066:1 3073:1 3074:1 3075:1 3076:1 3192:1 3430:1 3539:1 3569:1 3571:1 3575:1 4011:1 4207:1 4238:1 4524:1 4778:1 4818:1 5574:1 5581:1 
0.1742596389045986 0 0 157:1 161:1 163:1 722:1 1105:1 1149:1 1297:1 1338:1 1410:1 1411:1 1412:1 1699:1 1880:1 1906:1 2126:1 2337:1 2915:1 3064:1 3066:1 3073:1 3074:1 3075:1 3076:1 3237:1 3402:1 3404:1 3422:1 3430:1 3539:1 3546:1 3569:1 3646:1 4011:1 4207:1 4214:1 4238:1 4240:1 4255:1 4258:1 4524:1 4778:1 5104:1 5116:1 5117:1 5193:1 5357:1 
0.09749889326208261 0.3515173069447143 0 410:1 605:1 607:1 722:1 1105:1 1149:1 1254:1 1263:1 1462:1 1607:1 1699:1 1880:1 2337:1 2513:1 2560:1 2636:1 2731:1 2732:1 2744:1 2751:1 2807:1 2840:1 2915:1 3064:1 3066:1 3073:1 3074:1 3075:1 3076:1 3237:1 3430:1 3480:1 3539:1 3569:1 4011:1 4207:1 4238:1 4415:1 4459:1 4460:1 4463:1 4468:1 4524:1 4778:1 4932:1 5200:1 5535:1 5574:1 
0 0.0260873445916792 0 65:1 97:1 722:1 931:1 944:1 1105:1 1149:1 1462:1 1607:1 1630:1 1647:1 1699:1 1758:1 1760:1 1763:1 1807:1 1809:1 1880:1 2337:1 2377:1 2394:1 2395:1 2396:1 2397:1 2513:1 2731:1 2915:1 2917:1 2923:1 3060:1 3064:1 3066:1 3073:1 3074:1 3075:1 3076:1 3128:1 3237:1 3238:1 3247:1 3430:1 3454:1 3486:1 3539:1 3569:1 3835:1 3842:1 3856:1 3866:1 3966:1 3976:1 3977:1 3979:1 4011:1 4123:1 4207:1 4238:1 4415:1 4451:1 4524:1 4526:1 4778:1 5104:1 5357:1 
0 2.069384345107329 0.5926107684482071 722:1 810:1 1105:1 1462:1 1699:1 1880:1 1906:1 2126:1 2337:1 2731:1 2856:1 2864:1 2915:1 3064:1 3066:1 3073:1 3074:1 3075:1 3076:1 3237:1 3273:1 3305:1 3430:1 3468:1 3480:1 3539:1 4011:1 4207:1 4238:1 4524:1 4778:1 4818:1 4821:1 4826:1 4831:1 4832:1 5357:1 
0.01967521202288899 0.03129432867910428 0 175:1 245:1 410:1 722:1 859:1 931:1 932:1 1105:1 1111:1 1462:1 1515:1 1524:1 1594:1 1658:1 1660:1 1662:1 1676:1 1686:1 1688:1 1699:1 1880:1 1892:1 1893:1 2126:1 2127:1 2149:1 2152:1 2337:1 2513:1 2560:1 2636:1 2670:1 2679:1 2731:1 2807:1 2811:1 2856:1 2915:1 2917:1 2945:1 2992:1 3064:1 3066:1 3073:1 3074:1 3075:1 3076:1 3128:1 3237:1 3273:1 3324:1 3430:1 3480:1 3486:1 3539:1 3569:1 4011:1 4098:1 4100:1 4207:1 4218:1 4238:1 4524:1 4778:1 5104:1 5200:1 5224:1 5241:1 5311:1 5327:1 5532:1 
0.06777772848184151 0.3361147252806942 0.1055051588657443 65:1 326:1 410:1 722:1 914:1 1082:1 1105:1 1117:1 1138:1 1149:1 1462:1 1543:1 1557:1 1699:1 1880:1 1906:1 2126:1 2254:1 2269:1 2337:1 2636:1 2731:1 2843:1 2915:1 2917:1 2948:1 2968:1 2978:1 2992:1 3064:1 3066:1 3073:1 3074:1 3075:1 3076:1 3237:1 3430:1 3454:1 3486:1 3539:1 3569:1 3711:1 3966:1 3974:1 4011:1 4012:1 4207:1 4222:1 4238:1 4486:1 4487:1 4488:1 4489:1 4492:1 4495:1 4524:1 4618:1 4665:1 4778:1 4968:1 5104:1 5191:1 
0 0 0.04690680430974892 65:1 237:1 722:1 810:1 1105:1 1149:1 1297:1 1302:1 1304:1 1462:1 1543:1 1594:1 1662:1 1693:1 1695:1 1699:1 1703:1 1758:1 1786:1 1787:1 1880:1 1906:1 2126:1 2337:1 2343:1 2488:1 2528:1 2532:1 2731:1 2732:1 2744:1 2747:1 2915:1 3064:1 3066:1 3073:1 3074:1 3075:1 3076:1 3237:1 3401:1 3402:1 3430:1 3539:1 4011:1 4189:1 4207:1 4238:1 4524:1 4778:1 4818:1 4878:1 5104:1 5113:1 5135:1 5357:1 5373:1 
0.01196813766353353 0 0 97:1 410:1 528:1 544:1 722:1 1105:1 1149:1 1297:1 1340:1 1462:1 1515:1 1699:1 1880:1 1906:1 1907:1 2337:1 2373:1 2513:1 2528:1 2731:1 2732:1 2843:1 2856:1 2864:1 2915:1 3064:1 3066:1 3073:1 3074:1 3075:1 3076:1 3237:1 3430:1 3454:1 3456:1 3468:1 3480:1 3539:1 3569:1 3659:1 3664:1 3665:1 3719:1 4011:1 4207:1 4238:1 4524:1 4778:1 4818:1 4837:1 4839:1 4840:1 
0.01119474146199184 0.1187089374583897 0.02983624780134762 21:1 157:1 161:1 163:1 404:1 722:1 1105:1 1149:1 1297:1 1338:1 1410:1 1411:1 1412:1 1699:1 1880:1 1906:1 2126:1 2337:1 2731:1 2732:1 2772:1 2915:1 3064:1 3066:1 3073:1 3074:1 3075:1 3076:1 3237:1 3402:1 3404:1 3422:1 3430:1 3539:1 3546:1 3569:1 3646:1 3749:1 3761:1 3764:1 3940:1 3941:1 4011:1 4207:1 4214:1 4238:1 4240:1 4255:1 4258:1 4524:1 4618:1 4778:1 5104:1 5116:1 5117:1 5193:1 5357:1 5535:1 
0 0.2320610754373256 0.02169109612000171 97:1 212:1 722:1 723:1 730:1 784:1 798:1 802:1 804:1 805:1 859:1 873:1 1105:1 1149:1 1462:1 1591:1 1592:1 1594:1 1699:1 1758:1 1760:1 1761:1 1880:1 2337:1 2515:1 2523:1 2731:1 2900:1 2915:1 3064:1 3066:1 3073:1 3074:1 3075:1 3076:1 3430:1 3539:1 3569:1 3773:1 3808:1 3966:1 3976:1 4002:1 4011:1 4207:1 4222:1 4238:1 4294:1 4524:1 4778:1 4932:1 5104:1 5123:1 
0 0.08286602593114872 0.07978647423193924 722:1 1091:1 1092:1 1095:1 1105:1 1149:1 1297:1 1326:1 1462:1 1463:1 1481:1 1699:1 1758:1 1789:1 1880:1 1906:1 1981:1 2337:1 2362:1 2373:1 2403:1 2411:1 2413:1 2447:1 2731:1 2732:1 2915:1 3064:1 3066:1 3073:1 3074:1 3075:1 3076:1 3237:1 3324:1 3402:1 3430:1 3539:1 3569:1 3773:1 3793:1 3799:1 4011:1 4012:1 4072:1 4207:1 4238:1 4415:1 4417:1 4524:1 4778:1 4995:1 4996:1 5574:1 
0.05706785452054629 0.312919000497164 0.7123620422257191 722:1 1105:1 1462:1 1607:1 1630:1 1699:1 1880:1 1906:1 2106:1 2337:1 2915:1 3064:1 3066:1 3073:1 3074:1 3075:1 3076:1 3430:1 3539:1 4011:1 4207:1 4238:1 4323:1 4332:1 4524:1 4778:1 
0.2333526165786438 0.6411453903885982 0.1821963536671697 410:1 692:1 722:1 1091:1 1105:1 1111:1 1114:1 1149:1 1462:1 1699:1 1880:1 1906:1 2028:1 2337:1 2373:1 2731:1 2913:1 2915:1 3064:1 3066:1 3073:1 3074:1 3075:1 3076:1 3237:1 3430:1 3539:1 3569:1 4011:1 4207:1 4208:1 4238:1 4469:1 4524:1 4778:1 5098:1 5101:1 5102:1 5104:1 5123:1 5535:1 
0 0.2325715795335529 0.1177675569247342 97:1 119:1 320:1 722:1 784:1 931:1 1105:1 1149:1 1297:1 1338:1 1462:1 1543:1 1568:1 1571:1 1594:1 1603:1 1662:1 1676:1 1691:1 1699:1 1880:1 2126:1 2254:1 2285:1 2337:1 2515:1 2519:1 2636:1 2915:1 3064:1 3066:1 3073:1 3074:1 3075:1 3076:1 3196:1 3199:1 3200:1 3237:1 3273:1 3305:1 3402:1 3430:1 3486:1 3539:1 3569:1 3646:1 3773:1 3808:1 3813:1 3835:1 4011:1 4207:1 4222:1 4238:1 4391:1 4415:1 4452:1 4524:1 4618:1 4698:1 4734:1 4738:1 4778:1 4818:1 4878:1 5104:1 5109:1 5110:1 5112:1 5200:1 5357:1 5532:1 
0.05774380176007853 0.1268822173245822 0.2593524590446242 722:1 859:1 1105:1 1149:1 1283:1 1291:1 1297:1 1368:1 1462:1 1515:1 1699:1 1756:1 1758:1 1760:1 1880:1 2337:1 2350:1 2560:1 2636:1 2731:1 2915:1 3064:1 3066:1 3073:1 3074:1 3075:1 3076:1 3430:1 3462:1 3539:1 3569:1 4011:1 4207:1 4238:1 4463:1 4468:1 4524:1 4778:1 5200:1 5263:1 5272:1 5535:1 
0.1869198081463963 0.6507590548198899 0.1923427643122889 404:1 410:1 722:1 810:1 826:1 829:1 830:1 1105:1 1462:1 1489:1 1515:1 1699:1 1880:1 2126:1 2196:1 2204:1 2209:1 2337:1 2563:1 2606:1 2636:1 2731:1 2915:1 2917:1 2991:1 3064:1 3066:1 3073:1 3074:1 3075:1 3076:1 3237:1 3273:1 3283:1 3430:1 3539:1 3569:1 3832:1 4011:1 4207:1 4238:1 4415:1 4459:1 4524:1 4778:1 5535:1 
0 0.07788460897711372 0.0739303496131293 410:1 611:1 615:1 722:1 784:1 787:1 1105:1 1149:1 1462:1 1481:1 1482:1 1515:1 1594:1 1607:1 1699:1 1807:1 1832:1 1880:1 1906:1 2337:1 2415:1 2550:1 2636:1 2653:1 2731:1 2856:1 2887:1 2915:1 3064:1 3066:1 3073:1 3074:1 3075:1 3076:1 3230:1 3237:1 3271:1 3324:1 3347:1 3402:1 3430:1 3532:1 3539:1 3569:1 3571:1 3592:1 3606:1 3692:1 4011:1 4207:1 4238:1 4240:1 4524:1 4772:1 4778:1 5104:1 5173:1 5185:1 5357:1 5437:1 5451:1 5452:1 5535:1 
0.007624100955835834 0 0 97:1 255:1 257:1 410:1 528:1 543:1 722:1 723:1 762:1 765:1 880:1 883:1 1105:1 1111:1 1149:1 1203:1 1208:1 1209:1 1462:1 1515:1 1594:1 1607:1 1699:1 1880:1 1906:1 1907:1 1931:1 2337:1 2362:1 2373:1 2731:1 2732:1 2757:1 2843:1 2844:1 2915:1 3064:1 3066:1 3073:1 3074:1 3075:1 3076:1 3237:1 3388:1 3391:1 3402:1 3430:1 3532:1 3539:1 3569:1 3681:1 3773:1 3808:1 4011:1 4207:1 4238:1 4524:1 4778:1 4818:1 4887:1 4932:1 4939:1 5104:1 5200:1 5224:1 5230:1 5357:1 5471:1 5483:1 5484:1 5485:1 
0.02833119492830335 0.2225451487970975 0 97:1 255:1 257:1 722:1 723:1 762:1 765:1 880:1 883:1 1017:1 1027:1 1105:1 1111:1 1149:1 1203:1 1208:1 1209:1 1462:1 1594:1 1699:1 1880:1 1906:1 1907:1 1931:1 2337:1 2362:1 2513:1 2731:1 2732:1 2757:1 2807:1 2843:1 2844:1 2915:1 3064:1 3066:1 3073:1 3074:1 3075:1 3076:1 3128:1 3152:1 3159:1 3160:1 3237:1 3368:1 3402:1 3430:1 3480:1 3516:1 3532:1 3539:1 3569:1 3681:1 3773:1 3789:1 3808:1 4011:1 4207:1 4238:1 4524:1 4778:1 4932:1 4939:1 4995:1 5104:1 5357:1 5471:1 5483:1 5484:1 5485:1 
0.1363063984037175 0.1269352510604697 0.03038864210210214 237:1 722:1 1105:1 1462:1 1515:1 1699:1 1880:1 1906:1 2126:1 2127:1 2167:1 2204:1 2211:1 2337:1 2636:1 2715:1 2731:1 2900:1 2915:1 2917:1 2954:1 2961:1 3064:1 3066:1 3073:1 3074:1 3075:1 3076:1 3237:1 3238:1 3258:1 3404:1 3430:1 3539:1 3569:1 3833:1 4011:1 4012:1 4207:1 4238:1 4524:1 4778:1 5104:1 
0 0 0.01969192798452964 97:1 119:1 410:1 722:1 810:1 826:1 836:1 1105:1 1149:1 1462:1 1543:1 1594:1 1699:1 1756:1 1757:1 1806:1 1880:1 2126:1 2298:1 2337:1 2366:1 2369:1 2636:1 2915:1 3064:1 3066:1 3073:1 3074:1 3075:1 3076:1 3237:1 3273:1 3359:1 3430:1 3476:1 3478:1 3539:1 4011:1 4189:1 4207:1 4238:1 4524:1 4778:1 4818:1 4878:1 4880:1 4881:1 5200:1 
0 0.5049892794417906 0 157:1 159:1 218:1 224:1 226:1 410:1 411:1 428:1 429:1 722:1 784:1 797:1 1105:1 1149:1 1418:1 1428:1 1462:1 1699:1 1880:1 2337:1 2350:1 2371:1 2731:1 2843:1 2915:1 3064:1 3066:1 3073:1 3074:1 3075:1 3076:1 3237:1 3238:1 3258:1 3271:1 3430:1 3539:1 4011:1 4199:1 4207:1 4238:1 4524:1 4618:1 4642:1 4652:1 4778:1 4818:1 5053:1 5065:1 5104:1 5200:1 
0 0.1318155478897188 0 722:1 1105:1 1699:1 1880:1 2337:1 2513:1 2636:1 2731:1 2732:1 2744:1 2751:1 2915:1 3064:1 3066:1 3073:1 3074:1 3075:1 3076:1 3237:1 3430:1 3539:1 3569:1 4011:1 4207:1 4238:1 4415:1 4459:1 4460:1 4463:1 4468:1 4524:1 4778:1 4932:1 5535:1 5574:1 
0.003318765948983054 0 0 722:1 810:1 1105:1 1462:1 1699:1 1880:1 2126:1 2337:1 2513:1 2636:1 2731:1 2732:1 2744:1 2751:1 2915:1 3064:1 3066:1 3073:1 3074:1 3075:1 3076:1 3237:1 3430:1 3539:1 3569:1 4011:1 4207:1 4238:1 4415:1 4459:1 4460:1 4463:1 4468:1 4524:1 4778:1 4818:1 4821:1 4826:1 4831:1 4932:1 5535:1 5574:1 
0 0.1263039553760657 0.05821992968303507 403:1 404:1 410:1 722:1 784:1 793:1 810:1 1105:1 1149:1 1151:1 1185:1 1462:1 1543:1 1557:1 1568:1 1607:1 1699:1 1880:1 1906:1 2064:1 2080:1 2126:1 2337:1 2528:1 2535:1 2563:1 2601:1 2636:1 2697:1 2699:1 2915:1 3064:1 3066:1 3073:1 3074:1 3075:1 3076:1 3237:1 3402:1 3430:1 3454:1 3539:1 3569:1 3835:1 3842:1 3856:1 4011:1 4123:1 4207:1 4238:1 4524:1 4778:1 4818:1 4821:1 4962:1 4963:1 4964:1 5200:1 5263:1 5535:1 
0 0.2578011280727373 0 44:1 97:1 226:1 410:1 411:1 428:1 429:1 528:1 722:1 784:1 797:1 1102:1 1103:1 1105:1 1149:1 1151:1 1154:1 1418:1 1428:1 1462:1 1699:1 1880:1 1906:1 2337:1 2350:1 2373:1 2415:1 2731:1 2807:1 2843:1 2856:1 2864:1 2915:1 3064:1 3066:1 3073:1 3074:1 3075:1 3076:1 3237:1 3271:1 3430:1 3468:1 3480:1 3539:1 4011:1 4184:1 4199:1 4207:1 4238:1 4240:1 4243:1 4524:1 4618:1 4642:1 4652:1 4778:1 4818:1 4837:1 4839:1 4840:1 4932:1 4933:1 5104:1 5182:1 5200:1 5357:1 5437:1 5451:1 5452:1 
0 0.002886070858032524 0 308:1 350:1 722:1 1105:1 1462:1 1543:1 1594:1 1607:1 1699:1 1854:1 1870:1 1880:1 1906:1 2337:1 2358:1 2373:1 2513:1 2528:1 2731:1 2843:1 2850:1 2856:1 2876:1 2887:1 2915:1 2917:1 2948:1 2953:1 3064:1 3066:1 3073:1 3074:1 3075:1 3076:1 3095:1 3096:1 3237:1 3430:1 3539:1 3966:1 3976:1 4011:1 4207:1 4238:1 4524:1 4698:1 4699:1 4714:1 4778:1 4780:1 5104:1 5166:1 5192:1 5357:1 
0.005723577924386449 0 0 44:1 97:1 146:1 154:1 267:1 279:1 284:1 410:1 722:1 931:1 945:1 967:1 968:1 1105:1 1117:1 1149:1 1391:1 1462:1 1515:1 1594:1 1607:1 1699:1 1880:1 2126:1 2127:1 2129:1 2254:1 2279:1 2337:1 2513:1 2731:1 2915:1 3064:1 3066:1 3073:1 3074:1 3075:1 3076:1 3237:1 3324:1 3430:1 3486:1 3539:1 3569:1 3832:1 3835:1 3836:1 3952:1 3966:1 3976:1 3984:1 4011:1 4012:1 4017:1 4054:1 4070:1 4207:1 4222:1 4238:1 4323:1 4524:1 4778:1 4995:1 4996:1 5104:1 
0 4.065529343480834 0 722:1 1105:1 1699:1 1880:1 2337:1 2915:1 3064:1 3066:1 3073:1 3074:1 3075:1 3076:1 3430:1 3539:1 4011:1 4207:1 4238:1 4524:1 4778:1 
0 0.2361325902481227 0 65:1 410:1 471:1 473:1 474:1 722:1 723:1 749:1 758:1 1105:1 1149:1 1418:1 1462:1 1481:1 1515:1 1543:1 1557:1 1558:1 1699:1 1758:1 1880:1 1906:1 1981:1 2337:1 2563:1 2731:1 2915:1 3064:1 3066:1 3073:1 3074:1 3075:1 3076:1 3237:1 3430:1 3539:1 3569:1 3835:1 3890:1 3904:1 4011:1 4207:1 4238:1 4524:1 4571:1 4778:1 5200:1 5201:1 5202:1 5305:1 5357:1 5373:1 
0.01126570567204831 0.1310360814445474 0.110581481355571 410:1 722:1 1105:1 1149:1 1245:1 1250:1 1297:1 1343:1 1365:1 1369:1 1462:1 1481:1 1699:1 1880:1 2126:1 2254:1 2266:1 2267:1 2269:1 2277:1 2334:1 2337:1 2415:1 2544:1 2563:1 2601:1 2731:1 2915:1 3007:1 3064:1 3066:1 3073:1 3074:1 3075:1 3076:1 3237:1 3271:1 3430:1 3480:1 3486:1 3506:1 3516:1 3539:1 3569:1 3711:1 3773:1 4011:1 4207:1 4238:1 4393:1 4406:1 4524:1 4571:1 4618:1 4778:1 4975:1 4995:1 5024:1 5026:1 5104:1 5193:1 5200:1 5305:1 5306:1 5357:1 5437:1 5451:1 5452:1 5457:1 5535:1 
0 0.0845177632753522 0 65:1 97:1 410:1 507:1 514:1 560:1 561:1 562:1 716:1 717:1 722:1 723:1 740:1 1105:1 1149:1 1462:1 1524:1 1543:1 1594:1 1607:1 1620:1 1699:1 1880:1 2126:1 2337:1 2636:1 2731:1 2732:1 2739:1 2915:1 2917:1 2954:1 3064:1 3066:1 3073:1 3074:1 3075:1 3076:1 3237:1 3271:1 3273:1 3296:1 3430:1 3480:1 3539:1 3569:1 3571:1 3628:1 3629:1 4011:1 4207:1 4222:1 4238:1 4240:1 4248:1 4323:1 4358:1 4359:1 4463:1 4468:1 4524:1 4571:1 4618:1 4619:1 4631:1 4632:1 4778:1 4780:1 4818:1 4858:1 4859:1 5104:1 5109:1 5199:1 5357:1 5471:1 5483:1 5535:1 5541:1 5574:1 
0 0.07337708782102959 0 146:1 410:1 646:1 722:1 810:1 1105:1 1149:1 1237:1 1436:1 1444:1 1462:1 1515:1 1543:1 1699:1 1880:1 2126:1 2127:1 2167:1 2168:1 2169:1 2337:1 2343:1 2636:1 2731:1 2915:1 3064:1 3066:1 3073:1 3074:1 3075:1 3076:1 3237:1 3430:1 3454:1 3539:1 3569:1 3719:1 3835:1 3890:1 3899:1 3903:1 3904:1 4011:1 4207:1 4222:1 4238:1 4415:1 4421:1 4524:1 4526:1 4571:1 4590:1 4778:1 5104:1 5130:1 5200:1 5311:1 5331:1 5335:1 5339:1 5357:1 5521:1 5574:1 5577:1 
0 0.06010090475711725 0 65:1 71:1 74:1 75:1 410:1 528:1 722:1 780:1 784:1 806:1 1105:1 1149:1 1252:1 1253:1 1462:1 1543:1 1551:1 1594:1 1607:1 1630:1 1699:1 1880:1 1906:1 1981:1 1996:1 2064:1 2079:1 2334:1 2337:1 2373:1 2636:1 2653:1 2731:1 2732:1 2807:1 2838:1 2915:1 2917:1 2968:1 2976:1 3064:1 3066:1 3073:1 3074:1 3075:1 3076:1 3237:1 3271:1 3273:1 3305:1 3425:1 3430:1 3443:1 3486:1 3538:1 3539:1 3546:1 3554:1 3569:1 3835:1 3842:1 3851:1 3966:1 3976:1 4011:1 4012:1 4039:1 4107:1 4108:1 4207:1 4238:1 4415:1 4524:1 4618:1 4675:1 4778:1 4932:1 4942:1 4968:1 4995:1 4996:1 5050:1 5081:1 5095:1 5104:1 5193:1 5194:1 5200:1 5224:1 5241:1 5357:1 5437:1 5468:1 5535:1 
0.1372606995841839 0.6673877344747314 0.0189230922728002 226:1 229:1 410:1 722:1 810:1 1105:1 1149:1 1418:1 1428:1 1462:1 1699:1 1880:1 2126:1 2337:1 2350:1 2915:1 3064:1 3066:1 3073:1 3074:1 3075:1 3076:1 3237:1 3271:1 3430:1 3539:1 4011:1 4199:1 4207:1 4238:1 4524:1 4778:1 4818:1 4821:1 4822:1 5357:1 5392:1 
0.0491343526044305 0 0 267:1 359:1 365:1 410:1 611:1 617:1 722:1 1105:1 1149:1 1254:1 1436:1 1462:1 1594:1 1607:1 1630:1 1699:1 1880:1 2126:1 2313:1 2337:1 2371:1 2377:1 2394:1 2395:1 2396:1 2513:1 2528:1 2563:1 2610:1 2612:1 2731:1 2732:1 2774:1 2807:1 2822:1 2915:1 3064:1 3066:1 3073:1 3074:1 3075:1 3076:1 3237:1 3401:1 3430:1 3539:1 3546:1 3569:1 3571:1 3602:1 3835:1 3842:1 3856:1 3866:1 4011:1 4123:1 4207:1 4224:1 4227:1 4238:1 4415:1 4451:1 4524:1 4778:1 4980:1 4990:1 4995:1 5043:1 5044:1 5104:1 5105:1 5109:1 5123:1 5179:1 5193:1 5200:1 5224:1 5241:1 5311:1 5315:1 5316:1 
0.007173773659561214 0.06862079782611955 0.1230747738933114 44:1 353:1 359:1 407:1 410:1 722:1 859:1 880:1 897:1 1105:1 1111:1 1149:1 1297:1 1389:1 1462:1 1699:1 1880:1 2126:1 2301:1 2304:1 2337:1 2560:1 2636:1 2670:1 2679:1 2731:1 2732:1 2737:1 2856:1 2892:1 2915:1 2917:1 2954:1 2985:1 3064:1 3066:1 3073:1 3074:1 3075:1 3076:1 3237:1 3273:1 3430:1 3486:1 3539:1 3546:1 3569:1 3571:1 3606:1 3620:1 3835:1 3888:1 4011:1 4186:1 4207:1 4222:1 4238:1 4322:1 4415:1 4486:1 4494:1 4524:1 4542:1 4544:1 4698:1 4778:1 4995:1 5024:1 5050:1 5104:1 5200:1 5357:1 5392:1 5399:1 5574:1 
0.0146300372599016 0.2356390661559994 0 267:1 410:1 525:1 528:1 541:1 722:1 810:1 816:1 859:1 871:1 1105:1 1149:1 1252:1 1462:1 1463:1 1465:1 1489:1 1515:1 1543:1 1551:1 1594:1 1650:1 1699:1 1880:1 1906:1 1938:1 1952:1 2126:1 2127:1 2164:1 2337:1 2350:1 2351:1 2528:1 2563:1 2731:1 2774:1 2775:1 2778:1 2785:1 2787:1 2793:1 2794:1 2915:1 3064:1 3066:1 3073:1 3074:1 3075:1 3076:1 3237:1 3271:1 3430:1 3495:1 3539:1 3569:1 4011:1 4207:1 4218:1 4222:1 4224:1 4238:1 4294:1 4524:1 4778:1 4818:1 4878:1 4886:1 5098:1 5104:1 5116:1 5200:1 5201:1 5205:1 5210:1 5211:1 5224:1 5228:1 5535:1 5574:1 
0 0.0505080120062885 0.00461973708627654 35:1 65:1 84:1 322:1 410:1 560:1 574:1 722:1 810:1 859:1 1105:1 1149:1 1151:1 1152:1 1153:1 1177:1 1379:1 1382:1 1462:1 1481:1 1543:1 1594:1 1641:1 1699:1 1756:1 1880:1 1906:1 2020:1 2021:1 2126:1 2301:1 2337:1 2415:1 2563:1 2564:1 2599:1 2636:1 2731:1 2807:1 2905:1 2915:1 3064:1 3066:1 3073:1 3074:1 3075:1 3076:1 3128:1 3164:1 3237:1 3271:1 3430:1 3506:1 3539:1 4011:1 4189:1 4207:1 4222:1 4238:1 4524:1 4778:1 4932:1 4947:1 4995:1 5021:1 5104:1 5109:1 5200:1 5201:1 5211:1 5224:1 5241:1 5256:1 5257:1 5357:1 5360:1 5361:1 
0 0.02005523276312882 0 65:1 97:1 119:1 120:1 267:1 722:1 723:1 744:1 745:1 746:1 859:1 1105:1 1149:1 1462:1 1543:1 1568:1 1578:1 1580:1 1594:1 1641:1 1699:1 1880:1 2337:1 2350:1 2915:1 3064:1 3066:1 3073:1 3074:1 3075:1 3076:1 3230:1 3237:1 3324:1 3402:1 3430:1 3516:1 3539:1 3569:1 3571:1 3573:1 3773:1 3808:1 3813:1 4011:1 4207:1 4222:1 4238:1 4524:1 4551:1 4553:1 4778:1 4780:1 4818:1 4872:1 4995:1 5021:1 5104:1 5200:1 5224:1 5241:1 5256:1 5535:1 
0 0.1042999435084358 0 146:1 255:1 326:1 722:1 810:1 850:1 1105:1 1149:1 1374:1 1462:1 1594:1 1641:1 1699:1 1880:1 1906:1 1907:1 1927:1 1938:1 1967:1 2126:1 2254:1 2275:1 2295:1 2337:1 2731:1 2915:1 3064:1 3066:1 3073:1 3074:1 3075:1 3076:1 3196:1 3237:1 3273:1 3298:1 3323:1 3402:1 3430:1 3506:1 3539:1 3569:1 3571:1 3606:1 3625:1 4011:1 4012:1 4025:1 4207:1 4222:1 4238:1 4240:1 4284:1 4524:1 4698:1 4708:1 4778:1 5098:1 5104:1 5109:1 5111:1 5135:1 5139:1 5200:1 5224:1 5241:1 5252:1 5535:1 5536:1 5539:1 5574:1 5583:1 
0.01301759135208825 0.08860833801818643 0 35:1 37:1 39:1 410:1 484:1 485:1 657:1 722:1 1105:1 1149:1 1462:1 1543:1 1551:1 1699:1 1880:1 2337:1 2350:1 2636:1 2653:1 2731:1 2807:1 2827:1 2834:1 2915:1 3064:1 3066:1 3073:1 3074:1 3075:1 3076:1 3237:1 3270:1 3271:1 3404:1 3430:1 3539:1 4011:1 4207:1 4238:1 4524:1 4778:1 5104:1 5198:1 5535:1 
0 0.09852226007004634 0 1:1 21:1 410:1 528:1 531:1 646:1 722:1 1105:1 1149:1 1462:1 1476:1 1478:1 1543:1 1699:1 1880:1 1906:1 1938:1 1956:1 2337:1 2731:1 2856:1 2869:1 2915:1 3064:1 3066:1 3073:1 3074:1 3075:1 3076:1 3128:1 3237:1 3271:1 3273:1 3430:1 3495:1 3539:1 3546:1 3569:1 3768:1 3773:1 3822:1 3966:1 3976:1 3984:1 4011:1 4207:1 4238:1 4323:1 4332:1 4334:1 4524:1 4530:1 4542:1 4778:1 4995:1 5104:1 5179:1 5521:1 5522:1 
0.001042777307073956 0.1247393088928612 0.02828345482075466 410:1 664:1 722:1 1105:1 1149:1 1294:1 1462:1 1489:1 1491:1 1515:1 1543:1 1607:1 1630:1 1641:1 1699:1 1807:1 1829:1 1880:1 2126:1 2331:1 2337:1 2372:1 2449:1 2563:1 2587:1 2636:1 2724:1 2725:1 2731:1 2774:1 2801:1 2843:1 2915:1 3050:1 3064:1 3066:1 3073:1 3074:1 3075:1 3076:1 3237:1 3238:1 3402:1 3430:1 3476:1 3506:1 3510:1 3539:1 3569:1 3664:1 4011:1 4184:1 4207:1 4238:1 4524:1 4571:1 4586:1 4778:1 5104:1 5168:1 5200:1 5224:1 5357:1 5437:1 5451:1 5460:1 5535:1 5574:1 5593:1 5594:1 
0 0 0.05056259062478866 35:1 134:1 175:1 410:1 489:1 664:1 722:1 1105:1 1149:1 1151:1 1157:1 1177:1 1276:1 1278:1 1462:1 1489:1 1491:1 1515:1 1543:1 1551:1 1641:1 1699:1 1807:1 1829:1 1880:1 1906:1 2106:1 2337:1 2372:1 2560:1 2563:1 2587:1 2636:1 2653:1 2719:1 2720:1 2731:1 2732:1 2733:1 2736:1 2774:1 2807:1 2840:1 2915:1 2917:1 2918:1 2920:1 3064:1 3066:1 3073:1 3074:1 3075:1 3076:1 3087:1 3088:1 3128:1 3167:1 3237:1 3270:1 3271:1 3349:1 3430:1 3476:1 3506:1 3510:1 3535:1 3539:1 4011:1 4184:1 4207:1 4238:1 4524:1 4618:1 4778:1 4818:1 4852:1 4854:1 5200:1 5201:1 5211:1 5357:1 5437:1 5441:1 5574:1 5592:1 
0.02839948334864937 0 0 65:1 175:1 226:1 243:1 267:1 722:1 1105:1 1149:1 1297:1 1418:1 1428:1 1462:1 1515:1 1543:1 1607:1 1620:1 1699:1 1880:1 1906:1 1938:1 1956:1 1963:1 2337:1 2350:1 2563:1 2564:1 2583:1 2584:1 2635:1 2636:1 2653:1 2658:1 2731:1 2807:1 2842:1 2915:1 2917:1 2923:1 3028:1 3030:1 3064:1 3066:1 3073:1 3074:1 3075:1 3076:1 3237:1 3271:1 3425:1 3430:1 3539:1 3546:1 3569:1 3571:1 3602:1 4011:1 4123:1 4134:1 4199:1 4207:1 4222:1 4238:1 4524:1 4571:1 4778:1 5104:1 5357:1 5535:1 
0 0.04617940406260147 0 9:1 20:1 65:1 175:1 226:1 243:1 267:1 722:1 1105:1 1149:1 1297:1 1418:1 1428:1 1462:1 1515:1 1543:1 1607:1 1620:1 1699:1 1880:1 1906:1 1938:1 1956:1 1963:1 2337:1 2350:1 2446:1 2563:1 2564:1 2583:1 2584:1 2635:1 2636:1 2653:1 2658:1 2731:1 2807:1 2842:1 2915:1 2917:1 2923:1 2954:1 2966:1 3028:1 3030:1 3064:1 3066:1 3073:1 3074:1 3075:1 3076:1 3237:1 3271:1 3324:1 3347:1 3425:1 3430:1 3539:1 3546:1 3569:1 3571:1 3602:1 3719:1 4011:1 4123:1 4134:1 4199:1 4207:1 4238:1 4524:1 4571:1 4778:1 5104:1 5200:1 5263:1 5281:1 5357:1 5535:1 5574:1 
0.01668659666461382 0 0 313:1 410:1 722:1 810:1 1017:1 1027:1 1030:1 1105:1 1111:1 1112:1 1113:1 1149:1 1297:1 1343:1 1358:1 1360:1 1361:1 1462:1 1463:1 1515:1 1607:1 1699:1 1880:1 2126:1 2337:1 2373:1 2560:1 2731:1 2732:1 2915:1 3064:1 3066:1 3073:1 3074:1 3075:1 3076:1 3237:1 3402:1 3430:1 3480:1 3539:1 3569:1 3773:1 3814:1 3816:1 4011:1 4123:1 4124:1 4200:1 4207:1 4238:1 4323:1 4324:1 4329:1 4415:1 4459:1 4513:1 4524:1 4571:1 4778:1 4932:1 4942:1 4995:1 5033:1 5200:1 5263:1 5290:1 5311:1 
0 0.1174284258699233 0.09118486967814676 146:1 410:1 691:1 722:1 1105:1 1149:1 1297:1 1332:1 1333:1 1699:1 1880:1 1906:1 2126:1 2254:1 2275:1 2337:1 2563:1 2636:1 2670:1 2731:1 2915:1 3064:1 3066:1 3073:1 3074:1 3075:1 3076:1 3430:1 3506:1 3539:1 4011:1 4187:1 4207:1 4222:1 4238:1 4524:1 4778:1 4780:1 4793:1 5104:1 5116:1 5535:1 5536:1 5539:1 
0.06692115720958192 0 0.01544031415026531 44:1 243:1 255:1 410:1 411:1 432:1 439:1 490:1 597:1 722:1 1105:1 1149:1 1252:1 1462:1 1489:1 1500:1 1515:1 1524:1 1594:1 1699:1 1880:1 1906:1 1938:1 1943:1 2059:1 2064:1 2067:1 2069:1 2126:1 2224:1 2233:1 2254:1 2277:1 2279:1 2337:1 2373:1 2515:1 2636:1 2697:1 2731:1 2807:1 2915:1 3064:1 3066:1 3073:1 3074:1 3075:1 3076:1 3237:1 3271:1 3273:1 3291:1 3351:1 3402:1 3430:1 3476:1 3495:1 3496:1 3506:1 3510:1 3514:1 3516:1 3539:1 3546:1 3569:1 3708:1 3709:1 4011:1 4012:1 4013:1 4025:1 4207:1 4222:1 4238:1 4393:1 4406:1 4524:1 4778:1 4916:1 4918:1 4932:1 4949:1 4970:1 5050:1 5104:1 5200:1 5224:1 5241:1 5251:1 5357:1 5471:1 5483:1 5488:1 5492:1 
0.509198855058919 0.1407736987706674 0.1105148164591299 97:1 267:1 279:1 284:1 326:1 327:1 328:1 722:1 780:1 784:1 787:1 880:1 891:1 1105:1 1117:1 1149:1 1462:1 1474:1 1515:1 1662:1 1664:1 1699:1 1880:1 2337:1 2515:1 2731:1 2807:1 2856:1 2915:1 3064:1 3066:1 3073:1 3074:1 3075:1 3076:1 3430:1 3539:1 3569:1 3832:1 3940:1 4011:1 4043:1 4207:1 4222:1 4238:1 4524:1 4778:1 4932:1 4933:1 5104:1 
0.02319400152529341 0.1737355583339108 0.06074513286878476 65:1 71:1 78:1 397:1 722:1 780:1 1042:1 1044:1 1046:1 1105:1 1149:1 1699:1 1880:1 2337:1 2377:1 2506:1 2731:1 2732:1 2768:1 2770:1 2915:1 3064:1 3066:1 3073:1 3074:1 3075:1 3076:1 3128:1 3172:1 3237:1 3430:1 3532:1 3539:1 3966:1 3976:1 4011:1 4184:1 4203:1 4207:1 4238:1 4524:1 4608:1 4698:1 4718:1 4778:1 4932:1 4943:1 5104:1 5123:1 5126:1 5200:1 5357:1 5511:1 
0 0.034455559821203 0 157:1 161:1 410:1 560:1 579:1 580:1 722:1 810:1 859:1 1001:1 1105:1 1149:1 1151:1 1164:1 1231:1 1232:1 1462:1 1515:1 1523:1 1524:1 1699:1 1880:1 1906:1 2027:1 2126:1 2224:1 2228:1 2229:1 2337:1 2362:1 2377:1 2390:1 2513:1 2550:1 2731:1 2774:1 2855:1 2856:1 2864:1 2867:1 2915:1 2917:1 2936:1 2938:1 3064:1 3066:1 3073:1 3074:1 3075:1 3076:1 3237:1 3361:1 3402:1 3430:1 3443:1 3468:1 3486:1 3516:1 3539:1 3569:1 3571:1 3606:1 4011:1 4207:1 4238:1 4515:1 4520:1 4524:1 4698:1 4744:1 4778:1 4818:1 4821:1 4968:1 5081:1 5083:1 5104:1 5179:1 5200:1 5224:1 5230:1 5232:1 5357:1 5437:1 5468:1 
0 0.04502758323366166 0 134:1 135:1 410:1 632:1 722:1 810:1 859:1 875:1 1105:1 1149:1 1151:1 1157:1 1237:1 1462:1 1489:1 1491:1 1543:1 1551:1 1594:1 1699:1 1758:1 1880:1 1906:1 1938:1 1956:1 2064:1 2091:1 2092:1 2126:1 2224:1 2228:1 2229:1 2337:1 2362:1 2373:1 2515:1 2523:1 2563:1 2587:1 2636:1 2731:1 2915:1 3064:1 3066:1 3073:1 3074:1 3075:1 3076:1 3237:1 3270:1 3271:1 3324:1 3430:1 3539:1 3569:1 3773:1 3835:1 3890:1 3904:1 3907:1 4011:1 4207:1 4238:1 4294:1 4524:1 4571:1 4580:1 4778:1 4818:1 4821:1 4826:1 4830:1 4995:1 5024:1 5104:1 5123:1 5126:1 5128:1 5357:1 5425:1 5574:1 5596:1 5598:1 
0 0.06360531919673541 0 35:1 315:1 410:1 722:1 1105:1 1149:1 1462:1 1489:1 1491:1 1543:1 1594:1 1641:1 1699:1 1880:1 1906:1 1907:1 1910:1 2064:1 2091:1 2095:1 2126:1 2127:1 2167:1 2220:1 2337:1 2636:1 2915:1 3064:1 3066:1 3073:1 3074:1 3075:1 3076:1 3237:1 3402:1 3430:1 3486:1 3539:1 3546:1 3569:1 3773:1 3784:1 3808:1 3813:1 4011:1 4111:1 4203:1 4207:1 4222:1 4238:1 4393:1 4397:1 4398:1 4524:1 4571:1 4580:1 4778:1 4813:1 5104:1 5123:1 5126:1 5127:1 5200:1 5201:1 5211:1 5224:1 5241:1 5244:1 5357:1 5425:1 
0 0.3119706047275178 0.007633670354018524 218:1 222:1 223:1 407:1 410:1 411:1 428:1 429:1 528:1 547:1 560:1 579:1 722:1 1105:1 1149:1 1151:1 1188:1 1462:1 1501:1 1507:1 1699:1 1880:1 1903:1 1906:1 2126:1 2337:1 2731:1 2843:1 2856:1 2864:1 2900:1 2913:1 2915:1 3019:1 3064:1 3066:1 3073:1 3074:1 3075:1 3076:1 3237:1 3238:1 3430:1 3468:1 3539:1 3546:1 4011:1 4207:1 4238:1 4415:1 4421:1 4422:1 4524:1 4618:1 4778:1 4980:1 4990:1 5104:1 5193:1 5357:1 5373:1 5377:1 5535:1 5574:1 5606:1 
0.00021239926131748 0.2853620193882326 0.09267829371274763 134:1 359:1 410:1 490:1 722:1 810:1 826:1 1105:1 1149:1 1297:1 1340:1 1462:1 1515:1 1641:1 1699:1 1880:1 1906:1 2126:1 2337:1 2513:1 2731:1 2774:1 2807:1 2813:1 2915:1 2917:1 2933:1 2935:1 3064:1 3066:1 3073:1 3074:1 3075:1 3076:1 3430:1 3539:1 4011:1 4207:1 4238:1 4486:1 4494:1 4524:1 4778:1 5104:1 
0 0.2388134582855936 0 407:1 722:1 1105:1 1149:1 1462:1 1594:1 1699:1 1880:1 2337:1 2415:1 2544:1 2915:1 3064:1 3066:1 3073:1 3074:1 3075:1 3076:1 3237:1 3271:1 3430:1 3539:1 4011:1 4207:1 4238:1 4323:1 4374:1 4377:1 4524:1 4618:1 4619:1 4778:1 4780:1 5200:1 5263:1 5290:1 5293:1 5357:1 5437:1 5451:1 5452:1 5574:1 5596:1 
0.3683839141768677 0 0 722:1 1105:1 1462:1 1607:1 1699:1 1880:1 2337:1 2636:1 2915:1 3064:1 3066:1 3073:1 3074:1 3075:1 3076:1 3430:1 3539:1 3569:1 4011:1 4207:1 4222:1 4238:1 4463:1 4468:1 4524:1 4778:1 5535:1 5536:1 
0 0.07481988291042811 0 97:1 407:1 410:1 411:1 450:1 451:1 722:1 784:1 793:1 794:1 795:1 1091:1 1092:1 1105:1 1149:1 1151:1 1254:1 1256:1 1258:1 1462:1 1463:1 1543:1 1568:1 1578:1 1581:1 1607:1 1641:1 1699:1 1880:1 1906:1 1938:1 2337:1 2731:1 2843:1 2850:1 2856:1 2915:1 3064:1 3066:1 3073:1 3074:1 3075:1 3076:1 3237:1 3402:1 3430:1 3468:1 3480:1 3539:1 4011:1 4200:1 4207:1 4238:1 4240:1 4248:1 4524:1 4529:1 4531:1 4535:1 4536:1 4778:1 4995:1 5033:1 5104:1 5109:1 5574:1 
0 0.05026736124694196 0 35:1 65:1 84:1 85:1 212:1 226:1 410:1 411:1 428:1 429:1 722:1 810:1 1105:1 1149:1 1418:1 1428:1 1462:1 1473:1 1594:1 1699:1 1793:1 1880:1 1906:1 1938:1 1972:1 1973:1 2126:1 2127:1 2128:1 2254:1 2301:1 2337:1 2350:1 2731:1 2843:1 2900:1 2915:1 3064:1 3066:1 3073:1 3074:1 3075:1 3076:1 3237:1 3238:1 3239:1 3241:1 3271:1 3430:1 3539:1 4011:1 4199:1 4207:1 4209:1 4238:1 4524:1 4618:1 4642:1 4652:1 4655:1 4778:1 4818:1 4878:1 5104:1 5123:1 5126:1 5200:1 5224:1 5227:1 
0.1661527002170328 0.9209645006555335 0 226:1 410:1 411:1 428:1 429:1 722:1 1105:1 1149:1 1418:1 1428:1 1462:1 1699:1 1880:1 2337:1 2350:1 2513:1 2636:1 2697:1 2700:1 2701:1 2731:1 2843:1 2915:1 3064:1 3066:1 3073:1 3074:1 3075:1 3076:1 3237:1 3271:1 3430:1 3486:1 3539:1 3569:1 4011:1 4199:1 4207:1 4238:1 4524:1 4618:1 4642:1 4652:1 4778:1 4818:1 5050:1 5200:1 5357:1 5506:1 5507:1 
0 1.049160815063722 0 722:1 810:1 1105:1 1699:1 1880:1 2126:1 2337:1 2550:1 2551:1 2731:1 2732:1 2744:1 2751:1 2915:1 3064:1 3066:1 3073:1 3074:1 3075:1 3076:1 3237:1 3324:1 3347:1 3430:1 3486:1 3492:1 3493:1 3539:1 3546:1 3549:1 4011:1 4207:1 4238:1 4524:1 4778:1 4980:1 4981:1 5104:1 5109:1 5111:1 5574:1 
0 0.1450881629297896 0.04274704307567928 65:1 407:1 722:1 1017:1 1021:1 1105:1 1149:1 1297:1 1312:1 1314:1 1462:1 1699:1 1807:1 1842:1 1880:1 1906:1 2064:1 2078:1 2332:1 2337:1 2427:1 2433:1 2436:1 2439:1 2731:1 2915:1 2917:1 3064:1 3066:1 3073:1 3074:1 3075:1 3076:1 3128:1 3152:1 3154:1 3237:1 3271:1 3402:1 3430:1 3495:1 3539:1 3569:1 3958:1 3966:1 3976:1 3977:1 3980:1 3981:1 4011:1 4012:1 4035:1 4189:1 4207:1 4238:1 4415:1 4524:1 4698:1 4722:1 4778:1 4780:1 5050:1 5104:1 5179:1 5200:1 5355:1 5535:1 5574:1 
0 0.003946136000665477 0 44:1 53:1 193:1 198:1 200:1 226:1 322:1 326:1 404:1 410:1 560:1 571:1 722:1 723:1 749:1 1105:1 1149:1 1418:1 1428:1 1462:1 1481:1 1543:1 1568:1 1594:1 1607:1 1620:1 1624:1 1626:1 1641:1 1662:1 1676:1 1686:1 1688:1 1689:1 1699:1 1854:1 1860:1 1867:1 1880:1 1906:1 2125:1 2126:1 2254:1 2269:1 2337:1 2350:1 2731:1 2774:1 2801:1 2807:1 2811:1 2915:1 2917:1 2968:1 2978:1 3064:1 3066:1 3073:1 3074:1 3075:1 3076:1 3237:1 3271:1 3402:1 3430:1 3539:1 3543:1 3544:1 3569:1 3711:1 3952:1 3953:1 4011:1 4012:1 4034:1 4107:1 4189:1 4199:1 4207:1 4222:1 4238:1 4415:1 4486:1 4489:1 4492:1 4524:1 4571:1 4778:1 4780:1 4782:1 4783:1 4784:1 4932:1 4935:1 4995:1 5033:1 5104:1 5532:1 5535:1 5574:1 
0.0004315334560875599 0 0.01903881701236534 65:1 410:1 507:1 722:1 1105:1 1149:1 1462:1 1501:1 1594:1 1699:1 1880:1 2126:1 2127:1 2136:1 2137:1 2298:1 2337:1 2415:1 2636:1 2697:1 2705:1 2731:1 2915:1 3017:1 3064:1 3066:1 3073:1 3074:1 3075:1 3076:1 3237:1 3271:1 3402:1 3430:1 3480:1 3539:1 4011:1 4171:1 4200:1 4207:1 4222:1 4238:1 4524:1 4778:1 4995:1 5024:1 5027:1 5033:1 5357:1 5437:1 5451:1 5452:1 
0 0.0297491364114258 0 65:1 97:1 226:1 722:1 931:1 944:1 1105:1 1149:1 1254:1 1256:1 1257:1 1418:1 1428:1 1462:1 1481:1 1607:1 1618:1 1632:1 1641:1 1699:1 1880:1 1891:1 2126:1 2127:1 2136:1 2337:1 2350:1 2513:1 2731:1 2732:1 2744:1 2843:1 2856:1 2887:1 2915:1 3064:1 3066:1 3073:1 3074:1 3075:1 3076:1 3128:1 3237:1 3271:1 3273:1 3298:1 3430:1 3454:1 3480:1 3486:1 3539:1 3569:1 3749:1 3752:1 3753:1 3952:1 3953:1 4011:1 4199:1 4200:1 4207:1 4238:1 4240:1 4524:1 4618:1 4698:1 4699:1 4778:1 4962:1 4965:1 5104:1 5192:1 
0 0.08844656650504115 0.03221954485435805 722:1 1105:1 1149:1 1462:1 1543:1 1699:1 1880:1 1906:1 2337:1 2377:1 2387:1 2415:1 2563:1 2731:1 2856:1 2900:1 2902:1 2903:1 2909:1 2915:1 3021:1 3064:1 3066:1 3073:1 3074:1 3075:1 3076:1 3128:1 3237:1 3271:1 3324:1 3325:1 3329:1 3430:1 3454:1 3539:1 4011:1 4207:1 4238:1 4524:1 4778:1 4932:1 4943:1 4962:1 4965:1 5104:1 5116:1 5357:1 5437:1 5451:1 5452:1 
0 0.09164343832736832 0 175:1 183:1 185:1 242:1 410:1 528:1 722:1 922:1 1105:1 1149:1 1462:1 1515:1 1699:1 1725:1 1727:1 1880:1 2337:1 2372:1 2563:1 2564:1 2582:1 2636:1 2731:1 2807:1 2827:1 2915:1 3064:1 3066:1 3073:1 3074:1 3075:1 3076:1 3237:1 3430:1 3480:1 3539:1 4011:1 4092:1 4207:1 4224:1 4225:1 4238:1 4524:1 4778:1 5104:1 5105:1 5130:1 5357:1 5517:1 5535:1 5574:1 5606:1 5609:1 
0.1348877796672406 0 0 267:1 279:1 284:1 722:1 1105:1 1699:1 1880:1 1906:1 2038:1 2039:1 2337:1 2731:1 2915:1 3064:1 3066:1 3073:1 3074:1 3075:1 3076:1 3430:1 3468:1 3506:1 3539:1 3569:1 3832:1 4011:1 4207:1 4238:1 4524:1 4778:1 
0 0 0.02551010438381627 65:1 267:1 275:1 410:1 507:1 514:1 560:1 561:1 562:1 722:1 723:1 1105:1 1462:1 1594:1 1699:1 1880:1 1906:1 2337:1 2636:1 2731:1 2732:1 2739:1 2744:1 2751:1 2807:1 2811:1 2856:1 2864:1 2915:1 3064:1 3066:1 3073:1 3074:1 3075:1 3076:1 3237:1 3430:1 3468:1 3480:1 3539:1 3569:1 3571:1 3606:1 3773:1 4011:1 4207:1 4238:1 4524:1 4571:1 4600:1 4778:1 4818:1 4837:1 4839:1 4840:1 5357:1 5392:1 5535:1 5574:1 
0 0.1398223461414985 0.01568913371577368 722:1 982:1 984:1 1105:1 1149:1 1462:1 1699:1 1758:1 1807:1 1880:1 1906:1 2064:1 2104:1 2337:1 2350:1 2415:1 2560:1 2731:1 2732:1 2807:1 2840:1 2841:1 2856:1 2864:1 2915:1 3064:1 3066:1 3073:1 3074:1 3075:1 3076:1 3237:1 3271:1 3430:1 3443:1 3468:1 3480:1 3539:1 3569:1 3749:1 3757:1 3758:1 3773:1 3808:1 4011:1 4189:1 4207:1 4224:1 4238:1 4524:1 4526:1 4778:1 4780:1 4818:1 4837:1 4839:1 4840:1 4995:1 5033:1 5034:1 5104:1 5200:1 5357:1 5437:1 5451:1 5452:1 
0 0.1071628799622549 0 722:1 810:1 1105:1 1149:1 1418:1 1433:1 1462:1 1481:1 1488:1 1699:1 1758:1 1786:1 1880:1 1906:1 2064:1 2126:1 2337:1 2528:1 2532:1 2563:1 2636:1 2731:1 2856:1 2864:1 2915:1 3064:1 3066:1 3073:1 3074:1 3075:1 3076:1 3115:1 3123:1 3237:1 3238:1 3401:1 3430:1 3468:1 3474:1 3480:1 3539:1 3569:1 3835:1 3890:1 3911:1 3914:1 4011:1 4189:1 4207:1 4224:1 4234:1 4238:1 4524:1 4698:1 4721:1 4723:1 4729:1 4777:1 4778:1 4818:1 4821:1 4826:1 4831:1 4832:1 5096:1 5104:1 5116:1 5130:1 5135:1 5357:1 5471:1 5535:1 5574:1 
0.1445771349328914 0.1078364601728873 0.05446711248883634 157:1 267:1 305:1 410:1 411:1 428:1 431:1 602:1 603:1 722:1 810:1 1105:1 1149:1 1151:1 1177:1 1462:1 1473:1 1489:1 1491:1 1543:1 1594:1 1641:1 1699:1 1711:1 1712:1 1880:1 2126:1 2220:1 2301:1 2337:1 2373:1 2544:1 2636:1 2731:1 2856:1 2875:1 2915:1 3064:1 3066:1 3073:1 3074:1 3075:1 3076:1 3237:1 3238:1 3324:1 3330:1 3332:1 3404:1 3430:1 3476:1 3486:1 3506:1 3510:1 3539:1 3569:1 4011:1 4207:1 4238:1 4502:1 4503:1 4524:1 4618:1 4778:1 5104:1 5357:1 5427:1 5437:1 5464:1 5467:1 
0.04591901480347568 0.4259908456746986 0.07940810374146907 347:1 410:1 722:1 1105:1 1111:1 1149:1 1462:1 1489:1 1501:1 1524:1 1526:1 1543:1 1594:1 1699:1 1854:1 1859:1 1880:1 1906:1 1981:1 1994:1 2126:1 2337:1 2427:1 2442:1 2513:1 2636:1 2915:1 2992:1 3064:1 3066:1 3073:1 3074:1 3075:1 3076:1 3237:1 3425:1 3430:1 3539:1 3569:1 4011:1 4012:1 4083:1 4087:1 4207:1 4224:1 4238:1 4323:1 4362:1 4369:1 4524:1 4571:1 4580:1 4618:1 4642:1 4643:1 4649:1 4773:1 4774:1 4775:1 4778:1 4818:1 4842:1 4878:1 4995:1 5043:1 5044:1 5104:1 5109:1 5357:1 5425:1 5535:1 
0 0 0.006705733576017792 410:1 634:1 722:1 810:1 854:1 1105:1 1462:1 1607:1 1630:1 1699:1 1880:1 1906:1 2038:1 2039:1 2126:1 2298:1 2301:1 2304:1 2337:1 2731:1 2915:1 3064:1 3066:1 3073:1 3074:1 3075:1 3076:1 3430:1 3468:1 3486:1 3506:1 3539:1 3569:1 3965:1 4011:1 4201:1 4207:1 4222:1 4238:1 4323:1 4332:1 4524:1 4778:1 5050:1 5357:1 5574:1 5582:1 
0.09298441618352479 0 0 65:1 97:1 146:1 208:1 253:1 310:1 410:1 411:1 428:1 429:1 528:1 542:1 722:1 1105:1 1149:1 1462:1 1699:1 1880:1 1906:1 2126:1 2254:1 2275:1 2337:1 2373:1 2636:1 2670:1 2731:1 2843:1 2915:1 2917:1 3064:1 3066:1 3073:1 3074:1 3075:1 3076:1 3237:1 3401:1 3430:1 3506:1 3539:1 4011:1 4012:1 4207:1 4238:1 4240:1 4284:1 4469:1 4524:1 4618:1 4642:1 4652:1 4655:1 4778:1 4818:1 5104:1 5200:1 5224:1 5535:1 5536:1 5539:1 5555:1 5569:1 
0.0002593024547984279 10 0 722:1 1105:1 1699:1 1880:1 2337:1 2915:1 3064:1 3066:1 3073:1 3074:1 3075:1 3076:1 3430:1 3539:1 4011:1 4207:1 4238:1 4524:1 4778:1 
0.01121111609572416 0 0 97:1 255:1 410:1 722:1 1105:1 1111:1 1112:1 1113:1 1117:1 1120:1 1149:1 1254:1 1256:1 1462:1 1594:1 1607:1 1699:1 1758:1 1760:1 1880:1 2337:1 2373:1 2731:1 2843:1 2915:1 3064:1 3066:1 3073:1 3074:1 3075:1 3076:1 3237:1 3402:1 3430:1 3480:1 3539:1 3567:1 3569:1 3571:1 3592:1 3599:1 3600:1 3835:1 3890:1 3938:1 3966:1 3976:1 4011:1 4200:1 4207:1 4238:1 4240:1 4513:1 4524:1 4698:1 4734:1 4736:1 4778:1 4780:1 4793:1 4932:1 4942:1 5104:1 5535:1 5541:1 
0.05750840664338439 0 0.03116479051654539 35:1 134:1 157:1 722:1 1105:1 1149:1 1226:1 1297:1 1371:1 1436:1 1462:1 1489:1 1491:1 1515:1 1543:1 1699:1 1711:1 1712:1 1880:1 1906:1 2106:1 2126:1 2127:1 2153:1 2155:1 2156:1 2159:1 2337:1 2362:1 2373:1 2563:1 2599:1 2636:1 2731:1 2807:1 2915:1 2917:1 2985:1 3064:1 3066:1 3073:1 3074:1 3075:1 3076:1 3237:1 3238:1 3258:1 3261:1 3271:1 3430:1 3454:1 3486:1 3502:1 3539:1 3569:1 3835:1 3890:1 3899:1 3901:1 4011:1 4012:1 4207:1 4238:1 4524:1 4778:1 4932:1 4939:1 5053:1 5067:1 5104:1 5109:1 5179:1 5180:1 5200:1 5349:1 5350:1 
0.078061596062104 0 0.01357418825004177 722:1 784:1 808:1 880:1 891:1 1105:1 1149:1 1436:1 1462:1 1524:1 1531:1 1543:1 1568:1 1594:1 1641:1 1699:1 1880:1 2337:1 2373:1 2731:1 2774:1 2807:1 2915:1 3018:1 3064:1 3066:1 3073:1 3074:1 3075:1 3076:1 3237:1 3402:1 3430:1 3539:1 3569:1 3773:1 3808:1 3813:1 3835:1 3889:1 4011:1 4098:1 4105:1 4207:1 4222:1 4238:1 4323:1 4374:1 4377:1 4524:1 4778:1 5104:1 5200:1 
0 0.09470413941792656 0 212:1 217:1 722:1 859:1 1105:1 1149:1 1297:1 1340:1 1462:1 1543:1 1551:1 1607:1 1632:1 1639:1 1640:1 1699:1 1880:1 2337:1 2513:1 2731:1 2900:1 2915:1 3064:1 3066:1 3073:1 3074:1 3075:1 3076:1 3237:1 3271:1 3430:1 3539:1 3569:1 3699:1 3835:1 3842:1 3843:1 4011:1 4054:1 4207:1 4238:1 4524:1 4618:1 4691:1 4692:1 4778:1 5053:1 5104:1 5200:1 5224:1 5234:1 
0.05890049900895615 1.593401161866899 0.03528429107159931 65:1 91:1 313:1 722:1 810:1 1105:1 1111:1 1462:1 1463:1 1524:1 1594:1 1607:1 1662:1 1693:1 1696:1 1697:1 1699:1 1880:1 2126:1 2337:1 2483:1 2550:1 2551:1 2915:1 3064:1 3066:1 3073:1 3074:1 3075:1 3076:1 3237:1 3324:1 3347:1 3402:1 3430:1 3486:1 3492:1 3493:1 3539:1 3546:1 3549:1 4011:1 4012:1 4098:1 4123:1 4124:1 4207:1 4238:1 4323:1 4324:1 4329:1 4524:1 4778:1 4818:1 4878:1 4980:1 4981:1 4995:1 5021:1 5104:1 5109:1 5111:1 
0 0.1823873738273825 0 722:1 880:1 897:1 1105:1 1149:1 1462:1 1594:1 1699:1 1880:1 2337:1 2350:1 2496:1 2498:1 2544:1 2560:1 2731:1 2856:1 2892:1 2915:1 3064:1 3066:1 3073:1 3074:1 3075:1 3076:1 3237:1 3402:1 3430:1 3539:1 3546:1 4011:1 4207:1 4238:1 4524:1 4618:1 4698:1 4722:1 4778:1 4818:1 4878:1 5104:1 5200:1 5263:1 5272:1 5290:1 5299:1 5301:1 
0 0.1041941964730827 0 410:1 490:1 492:1 528:1 536:1 722:1 810:1 826:1 834:1 1091:1 1099:1 1105:1 1149:1 1226:1 1462:1 1489:1 1491:1 1515:1 1543:1 1594:1 1699:1 1793:1 1880:1 1906:1 2126:1 2337:1 2362:1 2550:1 2551:1 2731:1 2807:1 2813:1 2900:1 2915:1 3064:1 3066:1 3073:1 3074:1 3075:1 3076:1 3237:1 3271:1 3324:1 3347:1 3430:1 3486:1 3492:1 3493:1 3539:1 3546:1 3549:1 4011:1 4207:1 4238:1 4294:1 4310:1 4311:1 4524:1 4778:1 4980:1 4981:1 4985:1 5104:1 5109:1 5111:1 5200:1 5224:1 5241:1 5259:1 5311:1 5331:1 5357:1 
0.5145564723738106 2.475091710398678 0.03508244398594411 722:1 1105:1 1149:1 1699:1 1880:1 2126:1 2254:1 2269:1 2337:1 2415:1 2636:1 2915:1 3064:1 3066:1 3073:1 3074:1 3075:1 3076:1 3237:1 3271:1 3359:1 3430:1 3476:1 3539:1 3569:1 3711:1 4011:1 4207:1 4238:1 4524:1 4571:1 4778:1 5357:1 5437:1 5451:1 5452:1 5457:1 
0 0.1035239929839323 0.001723379129138845 44:1 311:1 404:1 410:1 507:1 722:1 1105:1 1462:1 1515:1 1594:1 1606:1 1699:1 1880:1 1906:1 1938:1 1951:1 2126:1 2127:1 2129:1 2130:1 2337:1 2563:1 2636:1 2653:1 2662:1 2694:1 2731:1 2774:1 2856:1 2870:1 2915:1 3064:1 3066:1 3073:1 3074:1 3075:1 3076:1 3237:1 3430:1 3474:1 3480:1 3539:1 4011:1 4012:1 4207:1 4224:1 4230:1 4238:1 4415:1 4442:1 4524:1 4778:1 4818:1 4850:1 5104:1 5135:1 5535:1 5561:1 
0.04259850906342755 0.1838178137055447 0.04280166716184855 65:1 410:1 411:1 516:1 560:1 579:1 722:1 810:1 1105:1 1462:1 1489:1 1594:1 1607:1 1641:1 1662:1 1699:1 1793:1 1880:1 1906:1 2126:1 2224:1 2227:1 2337:1 2372:1 2636:1 2653:1 2731:1 2732:1 2774:1 2807:1 2827:1 2856:1 2864:1 2915:1 2917:1 2968:1 2972:1 2973:1 2974:1 3013:1 3064:1 3066:1 3073:1 3074:1 3075:1 3076:1 3237:1 3349:1 3404:1 3430:1 3468:1 3476:1 3501:1 3506:1 3510:1 3516:1 3539:1 3569:1 3749:1 3750:1 4011:1 4081:1 4207:1 4238:1 4294:1 4524:1 4778:1 5104:1 5200:1 
