svm_type c_svc
kernel_type linear
nr_class 4
total_sv 1720
rho -1.00031 0.0037823 -1.00015 0.999861 0.999858 -0.999678
label 3 1 2 0
nr_sv 453 229 807 231
SV
0 0.3162782823216509 0 482:1 542:1 816:1 894:1 905:1 906:1 1308:1 1310:1 1326:1 1327:1 1643:1 1644:1 1736:1 1764:1 1768:1 1794:1 3066:1 3153:1 3174:1 3633:1 3819:1 3845:1 3903:1 3970:1 4528:1 4778:1 5193:1 5248:1 5253:1 5368:1 5411:1 5479:1 
0.0524223001113537 0 0 71:1 79:1 234:1 308:1 325:1 816:1 817:1 820:1 821:1 890:1 925:1 943:1 1054:1 1308:1 1310:1 1394:1 1470:1 1643:1 1702:1 1714:1 1736:1 1746:1 1794:1 1929:1 2002:1 2160:1 2171:1 2407:1 2408:1 2464:1 2518:1 2549:1 2634:1 2841:1 2843:1 2848:1 2873:1 3066:1 3193:1 3272:1 3274:1 3414:1 3633:1 3634:1 3670:1 3792:1 3793:1 3794:1 3845:1 3903:1 4015:1 4017:1 4035:1 4038:1 4317:1 4528:1 4778:1 4780:1 4823:1 4864:1 4906:1 4907:1 4975:1 5023:1 5193:1 5223:1 5248:1 5368:1 5411:1 5456:1 5457:1 5542:1 5734:1 6034:1 6116:1 6275:1 
0 0.1034867622522534 0 183:1 190:1 816:1 894:1 1055:1 1063:1 1138:1 1201:1 1202:1 1203:1 1267:1 1308:1 1310:1 1326:1 1643:1 1794:1 1852:1 1860:1 1929:1 1948:1 2117:1 2118:1 2176:1 2338:1 2348:1 2349:1 2841:1 2856:1 3066:1 3117:1 3272:1 3274:1 3295:1 3443:1 3459:1 3510:1 3515:1 3570:1 3633:1 3634:1 3672:1 3845:1 3911:1 3947:1 3979:1 4015:1 4017:1 4173:1 4174:1 4251:1 4321:1 4384:1 4424:1 4429:1 4528:1 4529:1 4731:1 4778:1 5368:1 5411:1 5479:1 5496:1 5542:1 5571:1 5618:1 5648:1 5679:1 5709:1 5713:1 5715:1 5734:1 5819:1 5850:1 6034:1 6128:1 6163:1 
0.2304045017038535 1.377266541440809 0.244228961545187 157:1 816:1 925:1 959:1 1643:1 1811:1 1838:1 1839:1 2176:1 2407:1 2518:1 2673:1 2674:1 2678:1 2684:1 2685:1 3066:1 3193:1 3206:1 3223:1 3272:1 3423:1 3424:1 3845:1 3903:1 4528:1 4763:1 4778:1 4780:1 5368:1 
0.2618652129822289 0.734117679293716 0.1272406756502478 279:1 482:1 645:1 651:1 816:1 1055:1 1074:1 1075:1 1643:1 1794:1 2407:1 2518:1 2968:1 3029:1 3030:1 3066:1 3067:1 3272:1 3633:1 3730:1 3845:1 3911:1 4015:1 4017:1 4528:1 4778:1 5193:1 5368:1 5411:1 5479:1 5679:1 5709:1 5713:1 5715:1 6034:1 6120:1 6128:1 6163:1 
0.1558900584951969 0.3335054024155636 0.09379199889703801 308:1 325:1 351:1 482:1 586:1 588:1 816:1 1243:1 1255:1 1308:1 1310:1 1316:1 1423:1 1643:1 1674:1 1676:1 1693:1 1736:1 1794:1 1795:1 1929:1 2157:1 2158:1 2407:1 2408:1 2464:1 2841:1 2968:1 2988:1 2992:1 3066:1 3193:1 3272:1 3633:1 3821:1 3836:1 3845:1 3947:1 3962:1 4015:1 4317:1 4442:1 4528:1 4529:1 4764:1 4778:1 4839:1 4857:1 4858:1 5193:1 5248:1 5368:1 5542:1 5734:1 5766:1 5819:1 6034:1 6035:1 6051:1 6057:1 
0.05705805916531546 0.4865110518050468 0.4100742634414094 28:1 234:1 237:1 295:1 1643:1 1702:1 2176:1 3066:1 3193:1 3201:1 3206:1 3249:1 3253:1 3272:1 3515:1 3558:1 3633:1 3819:1 3845:1 3970:1 4528:1 4778:1 4864:1 4901:1 5368:1 5411:1 5447:1 5453:1 5852:1 5878:1 6034:1 6035:1 6050:1 
0.1708461734098484 0.0134552157782468 0.1071198035673705 112:1 482:1 576:1 585:1 816:1 894:1 1055:1 1074:1 1092:1 1099:1 1100:1 1308:1 1643:1 1736:1 1764:1 1794:1 1800:1 2407:1 2549:1 2678:1 2684:1 2692:1 2843:1 2844:1 2848:1 3066:1 3153:1 3272:1 3400:1 3408:1 3515:1 3633:1 3730:1 3819:1 3845:1 3911:1 4015:1 4017:1 4022:1 4221:1 4528:1 4778:1 4975:1 5007:1 5008:1 5009:1 5283:1 5368:1 5542:1 5734:1 5852:1 5853:1 
0 0.1753086333227073 0 308:1 325:1 333:1 384:1 1308:1 1643:1 1736:1 1746:1 1794:1 1811:1 2407:1 2549:1 2627:1 2673:1 2674:1 2843:1 2848:1 2893:1 2918:1 3066:1 3193:1 3201:1 3206:1 3272:1 3274:1 3347:1 3348:1 3443:1 3476:1 3515:1 3633:1 3670:1 3845:1 4015:1 4221:1 4317:1 4319:1 4528:1 4731:1 4763:1 4778:1 5054:1 5368:1 5411:1 5618:1 5648:1 5682:1 5692:1 5734:1 5819:1 5852:1 5878:1 5888:1 5925:1 
0 0.01339597162399076 0.04288355546059376 35:1 39:1 41:1 482:1 538:1 576:1 1308:1 1408:1 1470:1 1643:1 1666:1 1674:1 1676:1 1702:1 1736:1 1794:1 1852:1 2176:1 2208:1 2240:1 2249:1 2250:1 2407:1 2408:1 2487:1 2488:1 2514:1 2549:1 2551:1 2893:1 2932:1 3066:1 3117:1 3129:1 3272:1 3515:1 3555:1 3633:1 3669:1 3845:1 3869:1 3937:1 4004:1 4528:1 4778:1 5193:1 5223:1 5233:1 5368:1 5411:1 5852:1 5853:1 5865:1 5878:1 5896:1 5905:1 5910:1 5911:1 6034:1 6275:1 6294:1 
0 0.08291579754270506 0 417:1 816:1 925:1 1308:1 1310:1 1643:1 1794:1 2407:1 2518:1 2634:1 2643:1 2644:1 2856:1 3272:1 3515:1 3524:1 3633:1 3672:1 3709:1 3845:1 3869:1 3970:1 4015:1 4017:1 4106:1 4115:1 4528:1 4644:1 4646:1 4731:1 4763:1 4778:1 5193:1 5194:1 5208:1 5248:1 5253:1 5368:1 5370:1 5411:1 5479:1 5679:1 6034:1 
0.7841078075478283 2.148875370160479 0 816:1 890:1 
0.05729344232077402 0 0.05734493830863582 308:1 309:1 816:1 1643:1 1811:1 1929:1 2147:1 2407:1 2408:1 2886:1 2893:1 2894:1 2916:1 2917:1 2968:1 3066:1 3206:1 3243:1 3244:1 3633:1 3672:1 3845:1 3979:1 4015:1 4017:1 4778:1 5193:1 5194:1 5368:1 5370:1 5501:1 5682:1 5734:1 5739:1 6233:1 6234:1 
0.1410339028873151 0 0.04851754640144985 71:1 308:1 320:1 321:1 325:1 333:1 342:1 363:1 482:1 645:1 665:1 816:1 817:1 978:1 1643:1 2176:1 2407:1 2549:1 2634:1 2841:1 2843:1 2848:1 3066:1 3067:1 3117:1 3153:1 3206:1 3215:1 3633:1 3845:1 3890:1 3947:1 4015:1 4017:1 4056:1 4057:1 4221:1 4251:1 4289:1 4290:1 4317:1 4319:1 4528:1 4529:1 5734:1 6034:1 6073:1 
0.01855277385677804 0 0 71:1 816:1 894:1 912:1 925:1 978:1 1643:1 1674:1 1929:1 1963:1 2117:1 2123:1 2125:1 2407:1 2843:1 2851:1 3845:1 4015:1 4251:1 4321:1 4381:1 4528:1 4778:1 5142:1 5158:1 5852:1 5853:1 
0.2399454935971954 0.138378346634266 0.1751539646993067 295:1 308:1 325:1 333:1 816:1 1055:1 1059:1 1643:1 1644:1 3066:1 3272:1 3373:1 3374:1 3510:1 3511:1 3633:1 3819:1 3845:1 3911:1 3915:1 3937:1 3945:1 3947:1 4015:1 4115:1 4118:1 4221:1 4317:1 4319:1 4528:1 5368:1 
0.03502226427636383 0.08327693750163391 0.1211651255289931 112:1 245:1 816:1 1308:1 1454:1 1459:1 1470:1 1643:1 1702:1 1709:1 2176:1 2634:1 2787:1 2841:1 3066:1 3153:1 3633:1 3818:1 3845:1 4528:1 4562:1 4565:1 4778:1 5193:1 5194:1 5368:1 5370:1 5852:1 5925:1 5929:1 
0.05322190991735112 0 0 112:1 128:1 363:1 369:1 482:1 816:1 978:1 1308:1 1643:1 1661:1 1663:1 1736:1 1811:1 1842:1 1843:1 1929:1 2002:1 2023:1 2176:1 2208:1 2244:1 2627:1 2673:1 2841:1 3066:1 3153:1 3633:1 3821:1 3826:1 3845:1 3921:1 4015:1 4017:1 4056:1 4057:1 4063:1 4251:1 4293:1 4528:1 4529:1 4589:1 4778:1 4864:1 5193:1 5194:1 5368:1 5370:1 5542:1 5734:1 5852:1 5853:1 
0 0.1882748683566692 0.008833039269501216 112:1 126:1 482:1 1308:1 1310:1 1389:1 1393:1 1548:1 1643:1 1736:1 1746:1 1811:1 1842:1 1852:1 1929:1 2176:1 2177:1 2627:1 2629:1 2661:1 2856:1 2893:1 2894:1 2932:1 3066:1 3067:1 3117:1 3137:1 3146:1 3206:1 3223:1 3272:1 3443:1 3633:1 3670:1 3845:1 3903:1 3937:1 4015:1 4221:1 4474:1 4484:1 4495:1 4528:1 4644:1 4649:1 4778:1 5193:1 5223:1 5233:1 5238:1 5368:1 5411:1 5542:1 5546:1 5547:1 5734:1 5852:1 5878:1 6034:1 6166:1 6178:1 
0 0.02081117229108433 0 157:1 183:1 816:1 817:1 849:1 978:1 1308:1 1310:1 1643:1 1794:1 1800:1 1929:1 2002:1 2006:1 2176:1 2255:1 2263:1 2634:1 2636:1 2645:1 2651:1 2712:1 2766:1 3633:1 3634:1 3670:1 3730:1 3845:1 4015:1 4017:1 4027:1 4474:1 4484:1 4490:1 4495:1 4507:1 4508:1 4509:1 4528:1 4778:1 5193:1 5223:1 5233:1 5283:1 5284:1 5368:1 5411:1 5734:1 5852:1 5853:1 5857:1 5878:1 
0.1401270350205536 0.5290042496761541 0.1008701519588376 1643:1 1852:1 2176:1 2338:1 2367:1 2407:1 2518:1 2968:1 3005:1 3272:1 3510:1 3633:1 3845:1 3899:1 3901:1 4015:1 4321:1 4329:1 4359:1 4528:1 4778:1 5283:1 5333:1 5334:1 5368:1 5542:1 5679:1 5728:1 5731:1 5734:1 5766:1 5771:1 5819:1 6034:1 6120:1 6233:1 
0 10 0 
0.05152153658651436 0.02230134478573837 0.06905975691337726 308:1 325:1 333:1 336:1 482:1 610:1 816:1 978:1 999:1 1017:1 1273:1 1281:1 1308:1 1643:1 1714:1 1736:1 1764:1 2634:1 2645:1 2646:1 2651:1 2673:1 2856:1 3066:1 3067:1 3117:1 3206:1 3246:1 3272:1 3515:1 3516:1 3519:1 3521:1 3633:1 3818:1 3819:1 3845:1 3988:1 4015:1 4221:1 4317:1 4319:1 4528:1 4529:1 4778:1 4975:1 5080:1 5081:1 5368:1 5370:1 5618:1 5619:1 5639:1 5734:1 5852:1 5925:1 5975:1 
0.01812826037442989 0.05488565572010823 0 46:1 57:1 71:1 112:1 208:1 234:1 482:1 586:1 593:1 645:1 646:1 647:1 816:1 1308:1 1310:1 1470:1 1471:1 1643:1 1736:1 1783:1 1784:1 1794:1 1811:1 1929:1 1956:1 1957:1 2176:1 2177:1 2407:1 2408:1 2627:1 2651:1 2968:1 3066:1 3067:1 3075:1 3193:1 3633:1 3634:1 3643:1 3845:1 4015:1 4463:1 4464:1 4474:1 4528:1 4529:1 4610:1 4778:1 4975:1 5007:1 5368:1 5411:1 5734:1 5819:1 5852:1 5853:1 5925:1 5936:1 5972:1 5973:1 6231:1 
0.02095912820880652 0.1416006068801358 0.1486268891327631 816:1 925:1 1308:1 1643:1 1674:1 1677:1 1736:1 1746:1 1794:1 2176:1 2384:1 2407:1 2549:1 2596:1 2843:1 2848:1 2968:1 2988:1 3032:1 3066:1 3272:1 3509:1 3633:1 3670:1 3845:1 3858:1 3862:1 4015:1 4528:1 4759:1 4778:1 5193:1 5368:1 5852:1 5878:1 5896:1 5908:1 6034:1 6090:1 6091:1 
0.2998180067459345 10 1.594951128165109 4528:1 4763:1 5368:1 
0 0.07211115554589449 0.02455795858814913 112:1 1308:1 1470:1 1483:1 1643:1 1736:1 1746:1 1764:1 1811:1 2651:1 3066:1 3257:1 3633:1 3670:1 3819:1 3845:1 4528:1 4680:1 4681:1 4778:1 5283:1 5309:1 5368:1 5370:1 5734:1 5852:1 5878:1 5888:1 5890:1 5893:1 
0.008040681032569377 0 0.06092500670017903 183:1 190:1 425:1 447:1 455:1 456:1 816:1 1308:1 1452:1 1596:1 1643:1 1714:1 1736:1 1746:1 1860:1 1881:1 1901:1 1929:1 1950:1 2407:1 2408:1 2433:1 2549:1 2843:1 2848:1 2856:1 2968:1 3066:1 3117:1 3272:1 3274:1 3358:1 3370:1 3372:1 3633:1 3670:1 3672:1 3845:1 3970:1 3988:1 3990:1 4015:1 4528:1 4714:1 4778:1 5193:1 5248:1 5253:1 5368:1 5734:1 5789:1 5819:1 5852:1 5853:1 5857:1 5878:1 5888:1 5889:1 6034:1 6128:1 6145:1 6153:1 6230:1 
0.06307555196560131 0 0.001110754111690041 35:1 112:1 183:1 482:1 610:1 623:1 706:1 708:1 816:1 1308:1 1394:1 1408:1 1616:1 1643:1 1655:1 1702:1 1736:1 1788:1 1794:1 1852:1 1929:1 1945:1 2176:1 2208:1 2220:1 2227:1 2338:1 2407:1 2514:1 2634:1 2673:1 2793:1 2893:1 2968:1 3032:1 3045:1 3064:1 3066:1 3153:1 3193:1 3206:1 3633:1 3634:1 3636:1 3818:1 3845:1 3899:1 3937:1 3941:1 3970:1 3979:1 4015:1 4189:1 4191:1 4528:1 4529:1 4558:1 4778:1 5193:1 5223:1 5368:1 5411:1 5447:1 5453:1 5734:1 5813:1 5814:1 5852:1 5878:1 5896:1 5910:1 5912:1 6034:1 6035:1 6038:1 6039:1 6128:1 6275:1 6297:1 
0 10 0.2286235941029691 
0 4.23250687125572 0 482:1 1643:1 1929:1 1978:1 3845:1 3970:1 4528:1 4778:1 5193:1 5248:1 5253:1 5368:1 
0.1586783513465705 0.2326058931221829 0 482:1 757:1 766:1 1643:1 1736:1 1764:1 2176:1 2407:1 2596:1 3272:1 3400:1 3408:1 3515:1 3538:1 3539:1 3633:1 3819:1 3845:1 3892:1 3911:1 3915:1 3988:1 4528:1 4731:1 4752:1 5368:1 5734:1 5746:1 
0.09067950144227353 0.108485990275799 0.0426866807768729 112:1 369:1 384:1 482:1 483:1 537:1 754:1 755:1 775:1 776:1 816:1 817:1 890:1 1055:1 1059:1 1308:1 1470:1 1643:1 2176:1 3272:1 3274:1 3347:1 3349:1 3633:1 3845:1 3911:1 3915:1 4015:1 4017:1 4528:1 4562:1 4565:1 4719:1 4763:1 5368:1 5542:1 5563:1 5615:1 5617:1 5734:1 5739:1 6034:1 6233:1 
0.2855323585956345 0.3512775341532786 0.1587576378400525 183:1 275:1 816:1 1273:1 1300:1 1301:1 1308:1 1470:1 1514:1 1643:1 1794:1 2176:1 2407:1 2408:1 2439:1 2448:1 2772:1 3633:1 3672:1 4528:1 4778:1 4949:1 4952:1 5368:1 5411:1 5734:1 5819:1 6232:1 
0.2451242052664426 0.3163377164514294 0.1555611888832197 482:1 645:1 662:1 1308:1 1451:1 1616:1 1630:1 1643:1 1852:1 2856:1 3066:1 3153:1 3272:1 3601:1 4528:1 5368:1 5679:1 5734:1 5766:1 
0.03507836378758402 0.04757413249594555 0.1000005727811614 183:1 379:1 816:1 1183:1 1308:1 1454:1 1462:1 1463:1 1643:1 1794:1 1811:1 1842:1 1852:1 1929:1 2002:1 2176:1 2285:1 2893:1 2918:1 3066:1 3206:1 3845:1 3903:1 3937:1 3988:1 4015:1 4017:1 4528:1 4529:1 4778:1 5193:1 5368:1 5411:1 5479:1 5734:1 5852:1 5983:1 6020:1 6027:1 
0 0.06904631250619296 0.02232528979634573 308:1 325:1 482:1 548:1 549:1 576:1 1308:1 1310:1 1326:1 1331:1 1643:1 1666:1 1702:1 1736:1 2176:1 2208:1 2223:1 2672:1 2893:1 2894:1 2930:1 2968:1 3064:1 3066:1 3153:1 3272:1 3443:1 3466:1 3467:1 3633:1 3845:1 3896:1 4015:1 4317:1 5368:1 6034:1 6128:1 
0.04858129462229434 0 0 46:1 57:1 112:1 308:1 325:1 333:1 482:1 586:1 591:1 645:1 657:1 658:1 816:1 925:1 1308:1 1423:1 1643:1 1658:1 1736:1 1794:1 1852:1 2176:1 2208:1 2227:1 2229:1 2407:1 2518:1 2549:1 2596:1 2843:1 2844:1 2878:1 3066:1 3117:1 3146:1 3257:1 3633:1 3672:1 3845:1 3903:1 4015:1 4017:1 4022:1 4221:1 4317:1 4319:1 4321:1 4329:1 4337:1 4528:1 4585:1 4778:1 5193:1 5194:1 5368:1 5370:1 5372:1 5373:1 5374:1 5411:1 5479:1 5852:1 5983:1 6007:1 6034:1 6096:1 
0 0.3355814860075488 0.04989940128693448 46:1 112:1 482:1 586:1 591:1 1308:1 1643:1 1736:1 1794:1 2176:1 2208:1 2227:1 2229:1 2407:1 2549:1 2843:1 2844:1 3066:1 3257:1 3633:1 3672:1 3845:1 3903:1 4015:1 4017:1 4022:1 4528:1 5368:1 
0 0 0.06160274971152813 308:1 309:1 402:1 406:1 407:1 816:1 817:1 925:1 932:1 1308:1 1310:1 1643:1 1811:1 1838:1 1929:1 2002:1 2020:1 2064:1 2066:1 2407:1 2408:1 2634:1 2673:1 2730:1 2753:1 2756:1 2856:1 2873:1 3066:1 3272:1 3633:1 3670:1 3725:1 3845:1 3869:1 4015:1 4017:1 4189:1 4210:1 4528:1 4529:1 4729:1 4778:1 4975:1 5193:1 5368:1 5370:1 5542:1 5543:1 5544:1 5563:1 5852:1 5853:1 5925:1 5972:1 
0.5166094277957969 4.206054818507174 0.7693505941855804 1643:1 2407:1 2549:1 2843:1 2848:1 3633:1 3845:1 3970:1 4015:1 4528:1 4778:1 5193:1 5248:1 5253:1 5368:1 
0.03904420941260092 0 0.07685500935477206 275:1 276:1 482:1 599:1 816:1 925:1 970:1 972:1 1643:1 1674:1 1702:1 1811:1 1842:1 2176:1 2208:1 2407:1 2594:1 2873:1 3066:1 3272:1 3274:1 3515:1 3558:1 3633:1 3845:1 3970:1 4528:1 4778:1 5193:1 5368:1 5618:1 5648:1 5649:1 
0.0476623187200807 0.2651472900974531 0.4383421276568664 482:1 599:1 816:1 894:1 925:1 943:1 948:1 1306:1 1308:1 1358:1 1643:1 1674:1 1794:1 1811:1 1842:1 1929:1 2000:1 2407:1 2489:1 2634:1 2637:1 2968:1 3027:1 3066:1 3272:1 3515:1 3558:1 3633:1 3672:1 3682:1 3845:1 3874:1 3970:1 4015:1 4321:1 4365:1 4528:1 4778:1 5193:1 5368:1 6233:1 
0.1213955226447047 0.2989280780448202 0.0347852659860086 482:1 599:1 816:1 925:1 943:1 948:1 1180:1 1643:1 1794:1 1811:1 1842:1 1927:1 2407:1 2489:1 2545:1 2968:1 3272:1 3633:1 3845:1 3983:1 4528:1 4778:1 4975:1 5025:1 5026:1 5193:1 5368:1 5411:1 5734:1 5750:1 5751:1 5852:1 5878:1 6034:1 6233:1 6260:1 
0.02166997907737476 0.6075497296987498 0.08077706911198151 71:1 369:1 447:1 455:1 816:1 999:1 1643:1 1702:1 1712:1 1811:1 1852:1 2407:1 2408:1 2469:1 2497:1 2500:1 2893:1 2894:1 2896:1 2968:1 2988:1 3066:1 3193:1 3201:1 3206:1 3272:1 3421:1 3515:1 3558:1 3570:1 3572:1 3577:1 3845:1 3970:1 4528:1 4778:1 4949:1 4975:1 5025:1 5026:1 5368:1 5411:1 5852:1 5878:1 6233:1 
0.03770760344168829 0 0 112:1 131:1 816:1 978:1 1055:1 1074:1 1109:1 1308:1 1643:1 1693:1 1860:1 2627:1 2634:1 2645:1 2651:1 2766:1 3272:1 3439:1 3633:1 3670:1 3730:1 3845:1 3911:1 4015:1 4470:1 4528:1 4621:1 5368:1 5370:1 5734:1 
0.09691629779863165 0.1182023496777993 0 482:1 775:1 808:1 816:1 1267:1 1308:1 1616:1 1643:1 1674:1 1702:1 1714:1 1721:1 1929:1 2117:1 2123:1 2125:1 2407:1 2507:1 2518:1 2795:1 2843:1 2893:1 2918:1 2926:1 2927:1 3066:1 3272:1 3515:1 3558:1 3633:1 3818:1 3845:1 3869:1 3970:1 4015:1 4321:1 4384:1 4394:1 4396:1 4397:1 4528:1 4731:1 4764:1 4778:1 4949:1 4958:1 5193:1 5368:1 5618:1 5672:1 5734:1 5739:1 6034:1 6233:1 
0.08392480000088395 0 0.0812588137788625 308:1 816:1 925:1 943:1 944:1 1308:1 1310:1 1349:1 1643:1 1674:1 1702:1 1714:1 1721:1 1794:1 1800:1 1929:1 2117:1 2123:1 2125:1 2151:1 2152:1 2407:1 2507:1 2518:1 2843:1 3066:1 3272:1 3845:1 3869:1 4015:1 4528:1 4778:1 4949:1 4958:1 5368:1 5581:1 5582:1 5583:1 5734:1 5852:1 5878:1 5896:1 5906:1 6233:1 
0.0999780982951988 0.1926010116514218 0.1210114539949039 482:1 706:1 708:1 816:1 925:1 1308:1 1570:1 1643:1 1655:1 1929:1 2146:1 2176:1 2312:1 2313:1 2407:1 2634:1 2968:1 3066:1 3272:1 3443:1 3451:1 3452:1 3453:1 3454:1 3633:1 3672:1 3845:1 3890:1 3899:1 3903:1 3926:1 3937:1 3941:1 3979:1 4015:1 4114:1 4528:1 4731:1 4778:1 5092:1 5104:1 5106:1 5368:1 5734:1 6034:1 6166:1 6180:1 
0 0.0405623866433415 0 71:1 103:1 107:1 108:1 150:1 232:1 262:1 295:1 379:1 382:1 816:1 1267:1 1308:1 1310:1 1326:1 1643:1 1736:1 1746:1 1929:1 2002:1 2023:1 2117:1 2118:1 2119:1 2176:1 2312:1 2313:1 2318:1 3066:1 3117:1 3153:1 3633:1 3670:1 3819:1 3845:1 3890:1 3937:1 4015:1 4017:1 4044:1 4134:1 4135:1 4528:1 4529:1 5368:1 5682:1 5734:1 5852:1 
0.05005729372125339 0.2834268623576748 0.1529520163800118 308:1 325:1 333:1 816:1 1643:1 2176:1 2287:1 2289:1 2312:1 2313:1 2634:1 2841:1 3066:1 3272:1 3622:1 3633:1 3672:1 3845:1 3890:1 3937:1 4015:1 4221:1 4317:1 4319:1 4778:1 4975:1 5734:1 5789:1 
0.008117123076389786 0.2688049017328893 0 71:1 112:1 234:1 308:1 379:1 392:1 393:1 394:1 396:1 402:1 404:1 482:1 483:1 514:1 522:1 645:1 816:1 817:1 834:1 843:1 999:1 1004:1 1122:1 1308:1 1310:1 1349:1 1643:1 1666:1 1852:1 1929:1 2002:1 2176:1 2312:1 2313:1 2407:1 2549:1 2571:1 2627:1 2968:1 2988:1 3066:1 3067:1 3193:1 3272:1 3274:1 3341:1 3342:1 3633:1 3725:1 3845:1 3869:1 3890:1 3937:1 4015:1 4528:1 4731:1 4745:1 4778:1 4864:1 4939:1 4975:1 5368:1 5581:1 5582:1 5583:1 6233:1 6252:1 
0 0.002908571755490766 0 71:1 112:1 113:1 392:1 393:1 394:1 402:1 447:1 459:1 816:1 999:1 1004:1 1243:1 1244:1 1246:1 1247:1 1308:1 1310:1 1349:1 1580:1 1643:1 1666:1 1929:1 2002:1 2176:1 2312:1 2313:1 2407:1 2486:1 2627:1 2730:1 3066:1 3067:1 3272:1 3443:1 3479:1 3633:1 3670:1 3845:1 3869:1 3890:1 3937:1 3979:1 4528:1 4778:1 4864:1 4975:1 5368:1 5542:1 5581:1 5582:1 5583:1 5852:1 5925:1 6233:1 
0 0.02561527121152629 0 35:1 157:1 482:1 610:1 623:1 645:1 661:1 1308:1 1310:1 1339:1 1470:1 1486:1 1643:1 1674:1 1676:1 1702:1 1736:1 1794:1 1852:1 2176:1 2312:1 2313:1 2672:1 2893:1 2918:1 2968:1 2972:1 3066:1 3117:1 3146:1 3153:1 3193:1 3272:1 3633:1 3845:1 3890:1 3911:1 3937:1 3947:1 4015:1 4528:1 4529:1 4778:1 4975:1 5025:1 5026:1 5193:1 5223:1 5227:1 5368:1 5411:1 5447:1 5453:1 5852:1 5853:1 5874:1 6025:1 6034:1 6035:1 6038:1 6063:1 6094:1 
0 0.09930491818481159 0 417:1 816:1 925:1 1643:1 1674:1 1794:1 1929:1 2117:1 2123:1 2125:1 2176:1 2312:1 2313:1 2407:1 3066:1 3272:1 3274:1 3353:1 3357:1 3633:1 3672:1 3845:1 3890:1 3937:1 4015:1 4528:1 4567:1 4763:1 4778:1 5142:1 5158:1 5368:1 5411:1 5479:1 5679:1 5709:1 5713:1 5715:1 6034:1 6128:1 6163:1 
0 9.755166732127359 0 265:1 816:1 894:1 925:1 1243:1 1308:1 1596:1 1607:1 1643:1 2176:1 2312:1 2313:1 2407:1 2634:1 2637:1 2643:1 2651:1 3066:1 3633:1 3670:1 3845:1 3890:1 3937:1 4528:1 4731:1 4740:1 4778:1 4780:1 4814:1 4816:1 6034:1 6128:1 
0 10 0 208:1 473:1 1643:1 1881:1 2176:1 2177:1 2185:1 2312:1 2313:1 3066:1 3067:1 3633:1 3672:1 3721:1 3845:1 3890:1 3937:1 5734:1 6233:1 
0.03924686323234585 0.244326881927683 0.1451562227339934 201:1 816:1 1210:1 1643:1 1674:1 1702:1 1794:1 1929:1 1963:1 1964:1 2002:1 2010:1 2117:1 2123:1 2125:1 2176:1 2312:1 2313:1 2407:1 2408:1 2497:1 2499:1 2518:1 2596:1 2672:1 2673:1 2890:1 2968:1 2988:1 3005:1 3066:1 3117:1 3118:1 3193:1 3272:1 3633:1 3730:1 3845:1 3890:1 3899:1 3937:1 3979:1 4015:1 4177:1 4251:1 4266:1 4528:1 4759:1 4778:1 5193:1 5368:1 5734:1 5800:1 5852:1 5878:1 5896:1 6034:1 6128:1 6139:1 
0 0.2931973572836709 0 71:1 79:1 89:1 482:1 610:1 612:1 816:1 890:1 1215:1 1308:1 1643:1 1852:1 1927:1 2176:1 2312:1 2313:1 2651:1 2893:1 2932:1 2968:1 3066:1 3272:1 3443:1 3502:1 3515:1 3542:1 3545:1 3633:1 3672:1 3699:1 3703:1 3819:1 3845:1 3890:1 3926:1 3937:1 3947:1 3979:1 3988:1 3992:1 4015:1 4251:1 4321:1 4384:1 4424:1 4429:1 4528:1 4731:1 4763:1 4778:1 5283:1 5288:1 5368:1 5734:1 5819:1 6034:1 6166:1 6185:1 6233:1 
0 0.07010125368625628 0.1334234128006998 391:1 402:1 425:1 426:1 482:1 645:1 665:1 816:1 817:1 867:1 894:1 925:1 1243:1 1308:1 1643:1 1736:1 1764:1 1794:1 1852:1 1866:1 1867:1 2176:1 2208:1 2312:1 2313:1 2407:1 2518:1 2634:1 2637:1 2643:1 2651:1 2893:1 2918:1 2925:1 3066:1 3067:1 3100:1 3206:1 3215:1 3633:1 3670:1 3819:1 3845:1 3890:1 3937:1 4015:1 4321:1 4384:1 4528:1 4731:1 4778:1 4780:1 4814:1 4816:1 4839:1 4864:1 4906:1 4975:1 4978:1 5368:1 5411:1 5479:1 5734:1 5739:1 5741:1 5807:1 5852:1 5878:1 6034:1 6128:1 6130:1 6132:1 6227:1 6275:1 
0 0.165661478433041 0 265:1 816:1 978:1 980:1 1308:1 1354:1 1466:1 1470:1 1596:1 1607:1 1616:1 1643:1 1736:1 1881:1 1927:1 1928:1 2176:1 2312:1 2313:1 2651:1 2672:1 2673:1 2856:1 2860:1 2968:1 3066:1 3153:1 3272:1 3274:1 3633:1 3670:1 3672:1 3721:1 3730:1 3845:1 3890:1 3903:1 3909:1 3937:1 4528:1 4728:1 4731:1 4740:1 4778:1 5283:1 5319:1 5734:1 5749:1 5819:1 5820:1 6222:1 6224:1 6233:1 6239:1 6247:1 6268:1 
0 0.1435281746396672 0.06224295208080468 71:1 94:1 482:1 609:1 706:1 708:1 709:1 757:1 816:1 817:1 894:1 1243:1 1244:1 1308:1 1441:1 1643:1 1702:1 1794:1 1811:1 1827:1 1929:1 2002:1 2023:1 2176:1 2177:1 2312:1 2313:1 2748:1 2749:1 2841:1 2856:1 2880:1 2968:1 3066:1 3153:1 3155:1 3156:1 3159:1 3633:1 3725:1 3730:1 3845:1 3890:1 3899:1 3937:1 3941:1 4015:1 4221:1 4528:1 4731:1 4763:1 4778:1 4975:1 5025:1 5027:1 5142:1 5368:1 5542:1 5682:1 5734:1 5852:1 5925:1 5955:1 5983:1 6034:1 6073:1 6076:1 
0 0.01885105663587302 0.1499003158929174 275:1 367:1 816:1 925:1 1308:1 1423:1 1643:1 1644:1 1693:1 1696:1 1702:1 1794:1 1852:1 2176:1 2208:1 2312:1 2313:1 2384:1 2407:1 2968:1 2988:1 3066:1 3067:1 3082:1 3085:1 3086:1 3206:1 3215:1 3257:1 3272:1 3274:1 3341:1 3342:1 3633:1 3845:1 3869:1 3890:1 3937:1 4528:1 4759:1 4763:1 4778:1 4839:1 4864:1 4865:1 4870:1 4916:1 4920:1 5186:1 5368:1 5581:1 5734:1 5834:1 5836:1 5852:1 5878:1 5896:1 5914:1 5983:1 6007:1 
0 0.07863818622098311 0 183:1 482:1 610:1 2176:1 2287:1 2288:1 2312:1 2313:1 2673:1 3066:1 3272:1 3274:1 3295:1 3296:1 3515:1 3516:1 3519:1 3845:1 3890:1 3937:1 
0 0.09484852367043951 0 112:1 253:1 260:1 363:1 816:1 978:1 1267:1 1308:1 1310:1 1313:1 1379:1 1616:1 1643:1 1666:1 1736:1 1811:1 1929:1 2176:1 2255:1 2299:1 2312:1 2313:1 2651:1 2765:1 2841:1 2873:1 3066:1 3206:1 3257:1 3270:1 3633:1 3634:1 3802:1 3805:1 3845:1 3890:1 3903:1 3937:1 4015:1 4017:1 4056:1 4057:1 4251:1 4293:1 4528:1 4529:1 4616:1 4617:1 4618:1 4680:1 4681:1 4778:1 5036:1 5188:1 5193:1 5283:1 5284:1 5309:1 5368:1 5370:1 5618:1 5619:1 5627:1 5734:1 5739:1 5841:1 5852:1 5878:1 6233:1 
0 0.5749888275500619 0.2003203868547128 208:1 264:1 265:1 473:1 816:1 1308:1 1470:1 1533:1 1596:1 1607:1 1643:1 1881:1 2176:1 2177:1 2183:1 2312:1 2313:1 2407:1 2408:1 2439:1 2441:1 2443:1 2474:1 2495:1 2634:1 2651:1 2968:1 3066:1 3067:1 3115:1 3272:1 3443:1 3502:1 3633:1 3670:1 3672:1 3709:1 3716:1 3718:1 3721:1 3845:1 3890:1 3937:1 4015:1 4221:1 4222:1 4238:1 4528:1 4731:1 4740:1 4778:1 5142:1 5193:1 5242:1 5368:1 5542:1 5543:1 5734:1 6034:1 6233:1 
0 0.7050205425135834 0 2176:1 2312:1 2313:1 3066:1 3845:1 3890:1 3937:1 
0.007714359343051765 0.1656810413764699 0.02922956906151301 482:1 771:1 816:1 925:1 943:1 948:1 1183:1 1308:1 1643:1 1674:1 1676:1 1702:1 1736:1 1929:1 2176:1 2312:1 2313:1 2407:1 2489:1 2549:1 2651:1 2968:1 2988:1 3066:1 3153:1 3162:1 3272:1 3443:1 3491:1 3492:1 3493:1 3633:1 3755:1 3821:1 3837:1 3845:1 3890:1 3903:1 3931:1 3932:1 3937:1 3947:1 4015:1 4528:1 4567:1 4778:1 4949:1 4963:1 5368:1 5411:1 5734:1 5852:1 5925:1 5936:1 5938:1 6034:1 6073:1 6084:1 6087:1 6128:1 6145:1 6153:1 
0 0.2514761443833635 0.02579612647084902 157:1 164:1 482:1 609:1 775:1 779:1 816:1 817:1 828:1 1643:1 1736:1 1764:1 1794:1 1800:1 1881:1 1901:1 1907:1 1909:1 2176:1 2312:1 2313:1 2678:1 2684:1 3066:1 3067:1 3117:1 3193:1 3199:1 3272:1 3400:1 3408:1 3626:1 3633:1 3819:1 3845:1 3890:1 3937:1 4015:1 4528:1 4717:1 5368:1 5734:1 5852:1 5853:1 6034:1 6073:1 6076:1 6230:1 6233:1 
0 0.03009602234112368 0 263:1 295:1 816:1 894:1 925:1 1243:1 1308:1 1354:1 1596:1 1616:1 1633:1 1643:1 1702:1 1703:1 1714:1 1736:1 1764:1 1866:1 1867:1 1868:1 2176:1 2312:1 2313:1 2407:1 2549:1 2554:1 2634:1 2637:1 2643:1 2893:1 2918:1 3066:1 3067:1 3272:1 3633:1 3670:1 3819:1 3845:1 3890:1 3937:1 4528:1 4529:1 4542:1 4693:1 4694:1 4731:1 4740:1 4778:1 4780:1 4814:1 4816:1 5368:1 5734:1 5766:1 5819:1 5852:1 5878:1 5884:1 6034:1 6128:1 
0 0.01190749518927767 0 35:1 265:1 384:1 482:1 483:1 816:1 925:1 1308:1 1596:1 1607:1 1643:1 1644:1 1648:1 1794:1 1929:1 2176:1 2312:1 2313:1 2407:1 2596:1 2634:1 2643:1 2651:1 3066:1 3633:1 3670:1 3821:1 3822:1 3845:1 3890:1 3937:1 3947:1 4015:1 4321:1 4329:1 4528:1 4731:1 4740:1 4759:1 4763:1 4778:1 5142:1 5368:1 5406:1 5728:1 5729:1 5734:1 5852:1 5878:1 5896:1 6233:1 6275:1 6291:1 
0.01647709163000532 0 0.01777527699536726 183:1 187:1 189:1 482:1 706:1 708:1 816:1 1055:1 1074:1 1104:1 1107:1 1243:1 1308:1 1643:1 1655:1 1702:1 1736:1 1811:1 1838:1 1929:1 2176:1 2312:1 2313:1 2407:1 2408:1 2439:1 2440:1 2968:1 3066:1 3272:1 3274:1 3295:1 3297:1 3299:1 3317:1 3334:1 3633:1 3669:1 3819:1 3821:1 3845:1 3890:1 3899:1 3911:1 3937:1 3941:1 4015:1 4114:1 4321:1 4329:1 4354:1 4528:1 4778:1 4839:1 4857:1 4860:1 5368:1 5411:1 5734:1 6034:1 
0.0600873575581973 0.7208383741373247 0 208:1 425:1 438:1 440:1 473:1 1643:1 1881:1 1929:1 2064:1 2071:1 2176:1 2177:1 2183:1 2312:1 2313:1 3066:1 3067:1 3193:1 3201:1 3206:1 3253:1 3633:1 3672:1 3721:1 3845:1 3890:1 3903:1 3937:1 4778:1 5190:1 5191:1 5283:1 5319:1 5368:1 5734:1 6034:1 
0.03751952822267521 0.006493235688762358 0 112:1 183:1 308:1 413:1 482:1 483:1 610:1 816:1 1308:1 1353:1 1643:1 1666:1 1702:1 1714:1 1929:1 1945:1 2176:1 2312:1 2313:1 2634:1 2673:1 2893:1 2918:1 3066:1 3272:1 3443:1 3515:1 3516:1 3519:1 3633:1 3634:1 3650:1 3672:1 3680:1 3845:1 3890:1 3911:1 3937:1 3979:1 4015:1 4321:1 4384:1 4417:1 4528:1 4731:1 4743:1 4778:1 4780:1 4791:1 5190:1 5191:1 5193:1 5248:1 5283:1 5319:1 5368:1 5411:1 5447:1 5734:1 6275:1 6280:1 
0 5.939555520865331 0 208:1 265:1 473:1 1308:1 1596:1 1607:1 1643:1 1881:1 2176:1 2177:1 2183:1 2312:1 2313:1 2651:1 3066:1 3067:1 3633:1 3670:1 3672:1 3721:1 3845:1 3890:1 3937:1 4528:1 4731:1 4740:1 5734:1 
0 0.03212179269673428 0.009139915678546601 112:1 265:1 482:1 816:1 894:1 925:1 1122:1 1128:1 1129:1 1243:1 1308:1 1433:1 1470:1 1534:1 1536:1 1537:1 1596:1 1607:1 1643:1 1736:1 1746:1 1794:1 1811:1 1929:1 2002:1 2042:1 2176:1 2208:1 2240:1 2255:1 2264:1 2265:1 2312:1 2313:1 2407:1 2634:1 2637:1 2643:1 2651:1 2856:1 2861:1 3066:1 3206:1 3272:1 3274:1 3633:1 3670:1 3725:1 3845:1 3869:1 3890:1 3937:1 3979:1 4015:1 4251:1 4302:1 4474:1 4484:1 4495:1 4528:1 4562:1 4729:1 4731:1 4740:1 4778:1 4780:1 4814:1 4816:1 4975:1 5025:1 5142:1 5368:1 5411:1 5465:1 5542:1 5581:1 5585:1 5734:1 5852:1 5983:1 6034:1 6128:1 
0 0.09093673728723531 0.0779806356984904 201:1 417:1 1308:1 1643:1 1674:1 1676:1 1736:1 1764:1 1794:1 1869:1 1929:1 2002:1 2039:1 2176:1 2312:1 2313:1 2651:1 2672:1 2673:1 2856:1 2893:1 2946:1 2954:1 2968:1 3005:1 3066:1 3067:1 3115:1 3117:1 3118:1 3257:1 3272:1 3612:1 3614:1 3633:1 3672:1 3819:1 3845:1 3890:1 3937:1 3988:1 4015:1 4017:1 4221:1 4222:1 4238:1 4321:1 4384:1 4436:1 4528:1 4731:1 5368:1 5411:1 5439:1 5542:1 5603:1 5611:1 5612:1 5679:1 5734:1 5819:1 5852:1 5878:1 5896:1 5925:1 5936:1 6034:1 6128:1 6139:1 6233:1 
0 0.01306567717607858 0.1047602447522831 201:1 413:1 1308:1 1402:1 1643:1 1679:1 1682:1 1683:1 1714:1 1811:1 1838:1 1881:1 1929:1 2000:1 2064:1 2176:1 2255:1 2312:1 2313:1 2407:1 2408:1 2549:1 2556:1 2557:1 2672:1 2673:1 2856:1 2968:1 3005:1 3017:1 3066:1 3117:1 3118:1 3272:1 3633:1 3672:1 3709:1 3845:1 3890:1 3903:1 3904:1 3937:1 4474:1 4484:1 4514:1 4528:1 4529:1 4657:1 4763:1 4778:1 4864:1 5193:1 5261:1 5262:1 5368:1 5411:1 5497:1 5596:1 5618:1 5619:1 5682:1 5693:1 5734:1 5753:1 5819:1 5834:1 6034:1 6128:1 6139:1 
0 0 0.05340306829406304 71:1 95:1 265:1 482:1 599:1 610:1 816:1 894:1 925:1 1243:1 1308:1 1310:1 1402:1 1596:1 1607:1 1643:1 1714:1 1811:1 1842:1 1881:1 1929:1 2050:1 2057:1 2176:1 2312:1 2313:1 2384:1 2407:1 2474:1 2634:1 2637:1 2643:1 2651:1 2843:1 3066:1 3153:1 3272:1 3515:1 3516:1 3518:1 3633:1 3634:1 3638:1 3639:1 3670:1 3672:1 3721:1 3845:1 3890:1 3937:1 4015:1 4528:1 4731:1 4740:1 4778:1 4780:1 4814:1 4816:1 5190:1 5193:1 5283:1 5319:1 5368:1 5542:1 5551:1 5554:1 5734:1 6034:1 6128:1 
0 0.1584163639584981 0.1499771815308629 208:1 234:1 265:1 473:1 816:1 894:1 925:1 1243:1 1308:1 1596:1 1607:1 1643:1 1702:1 1736:1 1746:1 1748:1 1881:1 1929:1 2000:1 2002:1 2176:1 2177:1 2183:1 2312:1 2313:1 2407:1 2634:1 2637:1 2643:1 2651:1 3066:1 3067:1 3117:1 3153:1 3193:1 3272:1 3443:1 3502:1 3633:1 3670:1 3672:1 3721:1 3845:1 3881:1 3882:1 3890:1 3937:1 4528:1 4731:1 4740:1 4778:1 4780:1 4814:1 4816:1 5368:1 5734:1 5766:1 5852:1 5925:1 5936:1 5938:1 6034:1 6128:1 6275:1 6308:1 6312:1 
0 0.1343519092142641 0 482:1 775:1 810:1 816:1 2176:1 2312:1 2313:1 2634:1 2893:1 2946:1 2949:1 2951:1 2968:1 3066:1 3845:1 3890:1 3937:1 5734:1 5753:1 5754:1 5851:1 6275:1 
0 10 0 2176:1 2312:1 2313:1 3066:1 3845:1 3890:1 3937:1 
0 0.1796668445275564 0 196:1 208:1 265:1 447:1 473:1 816:1 1265:1 1266:1 1308:1 1310:1 1596:1 1607:1 1643:1 1881:1 1929:1 2117:1 2134:1 2137:1 2176:1 2177:1 2183:1 2312:1 2313:1 2634:1 2651:1 2673:1 2841:1 2893:1 3066:1 3067:1 3272:1 3633:1 3634:1 3670:1 3672:1 3721:1 3845:1 3890:1 3937:1 4015:1 4251:1 4293:1 4298:1 4462:1 4528:1 4719:1 4731:1 4740:1 4763:1 4778:1 5054:1 5142:1 5174:1 5368:1 5734:1 5852:1 
0 0.02058184050427946 0.02143329668859908 71:1 392:1 393:1 394:1 402:1 482:1 610:1 640:1 816:1 894:1 999:1 1004:1 1113:1 1273:1 1290:1 1308:1 1310:1 1349:1 1366:1 1643:1 1666:1 1736:1 1794:1 1860:1 1861:1 1862:1 1929:1 2002:1 2176:1 2312:1 2313:1 2338:1 2369:1 2379:1 2384:1 2407:1 2627:1 2968:1 3066:1 3067:1 3206:1 3232:1 3633:1 3845:1 3869:1 3890:1 3899:1 3921:1 3937:1 3941:1 3947:1 3988:1 3999:1 4002:1 4015:1 4528:1 4731:1 4755:1 4778:1 4975:1 5193:1 5265:1 5267:1 5368:1 5581:1 5582:1 5583:1 5618:1 5648:1 5734:1 5819:1 6034:1 6213:1 6233:1 6275:1 
0.01471392607622043 0 0.02525473912990599 71:1 112:1 392:1 393:1 394:1 402:1 482:1 610:1 640:1 775:1 804:1 805:1 816:1 978:1 993:1 994:1 999:1 1004:1 1308:1 1310:1 1349:1 1643:1 1666:1 1674:1 1811:1 1838:1 1929:1 2000:1 2002:1 2018:1 2176:1 2312:1 2313:1 2338:1 2369:1 2375:1 2379:1 2407:1 2627:1 2634:1 2673:1 2843:1 2968:1 3066:1 3067:1 3117:1 3118:1 3119:1 3153:1 3633:1 3672:1 3845:1 3869:1 3876:1 3890:1 3937:1 3988:1 4015:1 4221:1 4528:1 4721:1 4731:1 4755:1 4778:1 4780:1 4837:1 4975:1 5007:1 5368:1 5542:1 5551:1 5581:1 5582:1 5583:1 5618:1 5652:1 5657:1 5658:1 5734:1 6034:1 6090:1 6213:1 6233:1 6275:1 
0 0.04541740933715798 0 71:1 369:1 384:1 392:1 393:1 394:1 402:1 482:1 610:1 640:1 816:1 999:1 1004:1 1308:1 1310:1 1349:1 1470:1 1471:1 1643:1 1666:1 1794:1 1860:1 1927:1 1928:1 1929:1 2002:1 2176:1 2312:1 2313:1 2407:1 2408:1 2453:1 2512:1 2518:1 2523:1 2524:1 2627:1 2730:1 2733:1 2734:1 2735:1 3066:1 3067:1 3272:1 3515:1 3570:1 3572:1 3575:1 3633:1 3670:1 3845:1 3858:1 3869:1 3890:1 3937:1 4015:1 4528:1 4691:1 4731:1 4763:1 4778:1 4949:1 4953:1 4975:1 5193:1 5194:1 5208:1 5211:1 5368:1 5370:1 5411:1 5479:1 5581:1 5582:1 5583:1 5734:1 6233:1 6239:1 6275:1 
0.04066579106067218 0.3215626425363685 0 157:1 158:1 159:1 172:1 482:1 610:1 631:1 816:1 1643:1 1644:1 1647:1 1736:1 1794:1 1807:1 1811:1 1838:1 2176:1 2208:1 2227:1 2312:1 2313:1 2407:1 2549:1 2571:1 3066:1 3117:1 3118:1 3123:1 3145:1 3633:1 3845:1 3890:1 3937:1 4015:1 4528:1 4764:1 4771:1 4778:1 4864:1 4916:1 4920:1 4926:1 5113:1 5734:1 6233:1 6234:1 6237:1 
0 10 0 208:1 265:1 473:1 816:1 1308:1 1596:1 1607:1 1643:1 1881:1 2176:1 2177:1 2183:1 2185:1 2312:1 2313:1 2634:1 2651:1 3066:1 3067:1 3633:1 3670:1 3672:1 3721:1 3845:1 3890:1 3937:1 4528:1 4731:1 4740:1 4778:1 5190:1 5191:1 5283:1 5319:1 5734:1 6233:1 
0 0.371084428617862 0.1963494323194142 46:1 57:1 265:1 482:1 645:1 657:1 816:1 894:1 925:1 1243:1 1308:1 1596:1 1607:1 1643:1 1674:1 1736:1 1764:1 1794:1 1811:1 1824:1 1852:1 2176:1 2208:1 2239:1 2312:1 2313:1 2407:1 2634:1 2637:1 2643:1 2651:1 3066:1 3117:1 3146:1 3633:1 3670:1 3819:1 3845:1 3890:1 3937:1 4015:1 4321:1 4329:1 4344:1 4528:1 4731:1 4740:1 4778:1 4780:1 4814:1 4816:1 4864:1 4906:1 4912:1 5368:1 5370:1 5372:1 5373:1 5374:1 5411:1 6034:1 6128:1 
0 10 0 208:1 473:1 1643:1 1881:1 2176:1 2177:1 2183:1 2312:1 2313:1 3066:1 3067:1 3633:1 3672:1 3721:1 3845:1 3890:1 3937:1 5734:1 
0.06144178774860354 0.104186204520059 0.02099997512383917 71:1 183:1 482:1 816:1 978:1 996:1 1643:1 1702:1 1714:1 1715:1 1794:1 1929:1 1978:1 2176:1 2287:1 2288:1 2312:1 2313:1 2407:1 2408:1 2422:1 2425:1 2673:1 2968:1 2988:1 3066:1 3153:1 3162:1 3193:1 3272:1 3274:1 3295:1 3296:1 3633:1 3845:1 3890:1 3937:1 4015:1 4321:1 4381:1 4528:1 4764:1 4768:1 4778:1 4864:1 4901:1 5368:1 5618:1 5652:1 5734:1 5753:1 5852:1 5853:1 
0 0.2677051506924843 0.05156704728491737 71:1 482:1 706:1 708:1 816:1 894:1 978:1 989:1 1308:1 1470:1 1616:1 1636:1 1643:1 1655:1 1714:1 1721:1 1794:1 1852:1 1929:1 1933:1 1934:1 2176:1 2255:1 2267:1 2268:1 2312:1 2313:1 2407:1 2596:1 2599:1 2600:1 2671:1 2841:1 2968:1 3066:1 3206:1 3272:1 3633:1 3845:1 3890:1 3899:1 3937:1 3941:1 4015:1 4189:1 4528:1 4763:1 5368:1 5411:1 5456:1 5460:1 5461:1 5479:1 5542:1 5679:1 5709:1 5713:1 5715:1 5734:1 5819:1 5852:1 5853:1 5862:1 6034:1 6128:1 6163:1 
0.3703781658671549 1.47780111614943 0 265:1 816:1 894:1 925:1 1243:1 1308:1 1596:1 1607:1 1643:1 2176:1 2312:1 2313:1 2407:1 2634:1 2637:1 2643:1 2651:1 3066:1 3633:1 3670:1 3845:1 3890:1 3937:1 4528:1 4731:1 4740:1 4778:1 4780:1 4814:1 4816:1 5190:1 5191:1 5283:1 5319:1 5734:1 6034:1 6128:1 
0.04211306042995502 0.004853576817034359 0.04181908285232009 208:1 473:1 816:1 925:1 1308:1 1310:1 1643:1 1881:1 1929:1 2064:1 2176:1 2177:1 2183:1 2312:1 2313:1 2407:1 2634:1 2643:1 2673:1 2674:1 2893:1 2894:1 3066:1 3067:1 3193:1 3633:1 3672:1 3721:1 3845:1 3890:1 3937:1 4528:1 4763:1 4778:1 5091:1 5190:1 5191:1 5283:1 5319:1 5368:1 5734:1 6034:1 6128:1 6142:1 
0 0.09009198603748668 0 248:1 249:1 384:1 816:1 925:1 1643:1 1644:1 1648:1 1794:1 2176:1 2312:1 2313:1 2407:1 2408:1 2893:1 3066:1 3067:1 3153:1 3181:1 3257:1 3261:1 3272:1 3393:1 3633:1 3634:1 3655:1 3658:1 3821:1 3845:1 3890:1 3937:1 4528:1 4763:1 5368:1 5370:1 5389:1 5411:1 5479:1 5542:1 5569:1 5618:1 5648:1 5734:1 5739:1 5741:1 5850:1 5852:1 5853:1 
0 0.007911749148821715 0 71:1 155:1 183:1 187:1 392:1 393:1 394:1 402:1 482:1 610:1 640:1 816:1 999:1 1004:1 1308:1 1310:1 1349:1 1593:1 1643:1 1661:1 1666:1 1794:1 1860:1 1861:1 1881:1 1927:1 1928:1 1929:1 2002:1 2064:1 2095:1 2146:1 2176:1 2284:1 2312:1 2313:1 2627:1 2651:1 3066:1 3067:1 3206:1 3272:1 3274:1 3633:1 3818:1 3845:1 3869:1 3890:1 3937:1 3970:1 4015:1 4017:1 4028:1 4030:1 4528:1 4594:1 4691:1 4731:1 4778:1 4975:1 5142:1 5143:1 5145:1 5368:1 5411:1 5479:1 5581:1 5582:1 5583:1 5734:1 5819:1 5852:1 6034:1 6233:1 6239:1 6275:1 
0.05940073412300578 0.0134715050752022 0.03080681944240964 71:1 112:1 253:1 308:1 392:1 393:1 394:1 402:1 482:1 645:1 669:1 816:1 817:1 836:1 978:1 999:1 1004:1 1055:1 1074:1 1092:1 1097:1 1308:1 1310:1 1349:1 1643:1 1666:1 1929:1 2002:1 2146:1 2176:1 2312:1 2313:1 2407:1 2627:1 2856:1 3066:1 3067:1 3117:1 3153:1 3206:1 3272:1 3362:1 3515:1 3542:1 3549:1 3633:1 3634:1 3643:1 3845:1 3869:1 3890:1 3903:1 3911:1 3937:1 3947:1 4015:1 4189:1 4209:1 4221:1 4251:1 4268:1 4528:1 4529:1 4764:1 4769:1 4778:1 4975:1 5092:1 5094:1 5345:1 5368:1 5581:1 5582:1 5583:1 5734:1 6034:1 6035:1 6051:1 6117:1 6233:1 
0.004405613103663664 0.1445059367307458 0 71:1 112:1 183:1 392:1 393:1 394:1 402:1 482:1 699:1 701:1 816:1 999:1 1004:1 1308:1 1310:1 1349:1 1643:1 1666:1 1702:1 1714:1 1794:1 1929:1 2000:1 2002:1 2176:1 2312:1 2313:1 2627:1 2673:1 2674:1 2678:1 2684:1 2841:1 2968:1 3066:1 3067:1 3153:1 3182:1 3193:1 3272:1 3274:1 3443:1 3474:1 3475:1 3633:1 3670:1 3845:1 3869:1 3874:1 3890:1 3937:1 4528:1 4529:1 4538:1 4778:1 4864:1 4975:1 5193:1 5257:1 5368:1 5411:1 5447:1 5456:1 5457:1 5458:1 5542:1 5558:1 5559:1 5581:1 5582:1 5583:1 5618:1 5619:1 6233:1 
0.1241932981801259 0 0.01913592951834402 71:1 103:1 482:1 706:1 708:1 816:1 1267:1 1308:1 1643:1 1655:1 1929:1 1939:1 2176:1 2312:1 2313:1 2968:1 3066:1 3845:1 3890:1 3899:1 3937:1 3941:1 4015:1 4114:1 4528:1 4778:1 5283:1 5333:1 5335:1 5336:1 5368:1 5734:1 5819:1 
0.06977442717879488 0.09007726454045394 0.1366348056291303 482:1 816:1 925:1 1643:1 2176:1 2255:1 2264:1 2266:1 2312:1 2313:1 2338:1 2407:1 2634:1 2643:1 3066:1 3633:1 3672:1 3709:1 3719:1 3720:1 3845:1 3890:1 3937:1 3988:1 4528:1 4711:1 5368:1 5682:1 5734:1 6034:1 6233:1 6266:1 6267:1 
0.07517621806568699 0.258641204599934 0.1189611732712362 482:1 684:1 687:1 1643:1 1794:1 2176:1 2312:1 2313:1 2407:1 2408:1 2453:1 2458:1 3066:1 3845:1 3890:1 3937:1 3988:1 4015:1 4528:1 5368:1 5682:1 5734:1 6233:1 6266:1 6267:1 
0 0.2750811742953382 0.046306952094708 279:1 482:1 483:1 505:1 512:1 1643:1 1811:1 2176:1 2312:1 2313:1 2407:1 2968:1 2988:1 3066:1 3272:1 3610:1 3611:1 3633:1 3730:1 3845:1 3890:1 3937:1 3988:1 4778:1 4949:1 5368:1 5682:1 5734:1 5761:1 6233:1 6266:1 6267:1 
0 0 0.007315888483039693 112:1 208:1 234:1 295:1 302:1 303:1 473:1 816:1 894:1 925:1 978:1 1243:1 1308:1 1310:1 1643:1 1736:1 1764:1 1881:1 1929:1 2002:1 2176:1 2177:1 2183:1 2184:1 2185:1 2312:1 2313:1 2407:1 2627:1 2634:1 2637:1 2643:1 2645:1 3066:1 3067:1 3193:1 3272:1 3400:1 3408:1 3633:1 3670:1 3672:1 3721:1 3819:1 3821:1 3833:1 3845:1 3884:1 3886:1 3890:1 3937:1 4015:1 4017:1 4049:1 4050:1 4460:1 4528:1 4778:1 4780:1 4814:1 4816:1 5368:1 5370:1 5387:1 5734:1 6034:1 6128:1 6233:1 
0 0.7611874472153786 0 2176:1 2312:1 2313:1 3066:1 3067:1 3272:1 3515:1 3570:1 3572:1 3578:1 3845:1 3890:1 3903:1 3937:1 4528:1 4731:1 4763:1 5368:1 
0 0.7885380569856012 0 265:1 816:1 999:1 1308:1 1596:1 1607:1 1643:1 1659:1 2176:1 2312:1 2313:1 2651:1 2843:1 2968:1 3066:1 3153:1 3633:1 3670:1 3845:1 3890:1 3937:1 4015:1 4442:1 4528:1 4731:1 4740:1 4778:1 4863:1 
0 0.01933295902274107 0 71:1 79:1 86:1 201:1 208:1 265:1 473:1 482:1 745:1 816:1 890:1 978:1 1308:1 1394:1 1408:1 1596:1 1607:1 1643:1 1702:1 1736:1 1764:1 1881:1 1929:1 2002:1 2022:1 2064:1 2110:1 2176:1 2177:1 2183:1 2185:1 2312:1 2313:1 2651:1 2673:1 2968:1 3066:1 3067:1 3257:1 3272:1 3400:1 3408:1 3633:1 3670:1 3672:1 3709:1 3716:1 3721:1 3819:1 3845:1 3890:1 3937:1 4528:1 4529:1 4731:1 4740:1 4763:1 4778:1 5190:1 5191:1 5283:1 5319:1 5368:1 5370:1 5618:1 5619:1 5734:1 6034:1 6233:1 
0 0.1598007015804433 0.006807056972189783 208:1 391:1 473:1 482:1 645:1 665:1 816:1 817:1 867:1 925:1 1308:1 1470:1 1486:1 1643:1 1794:1 1881:1 2176:1 2177:1 2183:1 2312:1 2313:1 2407:1 2518:1 2594:1 2651:1 2873:1 3066:1 3067:1 3153:1 3206:1 3215:1 3633:1 3672:1 3721:1 3755:1 3845:1 3890:1 3931:1 3932:1 3937:1 4528:1 4778:1 4839:1 4864:1 4893:1 4920:1 5193:1 5368:1 5411:1 5413:1 5414:1 5734:1 5750:1 5752:1 5852:1 5925:1 5936:1 5938:1 
0 0.03111193638640725 0.03087834909526331 482:1 610:1 618:1 1308:1 1596:1 1643:1 1702:1 2176:1 2286:1 2312:1 2313:1 2384:1 2672:1 2968:1 2988:1 3066:1 3117:1 3149:1 3153:1 3159:1 3170:1 3206:1 3223:1 3257:1 3633:1 3670:1 3845:1 3890:1 3903:1 3937:1 4528:1 4529:1 4763:1 4778:1 4780:1 4814:1 4815:1 5368:1 5682:1 5734:1 5852:1 5878:1 5884:1 
0 0.5502732161854187 0.3153041654413475 208:1 265:1 384:1 473:1 816:1 894:1 925:1 1141:1 1243:1 1308:1 1596:1 1607:1 1643:1 1811:1 1877:1 1881:1 2176:1 2177:1 2185:1 2312:1 2313:1 2407:1 2549:1 2634:1 2637:1 2639:1 2640:1 2643:1 2651:1 3066:1 3067:1 3272:1 3274:1 3347:1 3633:1 3670:1 3672:1 3721:1 3821:1 3828:1 3845:1 3858:1 3890:1 3937:1 4015:1 4528:1 4731:1 4740:1 4763:1 4778:1 4780:1 4814:1 4816:1 5054:1 5057:1 5060:1 5190:1 5191:1 5283:1 5319:1 5368:1 5734:1 5852:1 5983:1 6034:1 6128:1 6233:1 
0.04097785634452369 0.5510455115060098 0.3158818118489449 482:1 610:1 618:1 1643:1 2176:1 2286:1 2312:1 2313:1 2672:1 2968:1 2988:1 3066:1 3153:1 3159:1 3170:1 3845:1 3890:1 3937:1 5368:1 5682:1 5734:1 
0 0 0.07970247242792962 384:1 447:1 455:1 458:1 1308:1 1470:1 1534:1 1536:1 1643:1 1644:1 1648:1 1811:1 1838:1 1839:1 1840:1 1929:1 2117:1 2176:1 2312:1 2313:1 2407:1 3066:1 3845:1 3890:1 3937:1 3979:1 3988:1 4015:1 4251:1 4321:1 4384:1 4528:1 4731:1 4763:1 4778:1 4780:1 4837:1 5142:1 5368:1 5734:1 5852:1 5878:1 5923:1 5983:1 6020:1 6233:1 6275:1 
0 0.02001359838322062 0.06842761305652069 183:1 208:1 265:1 473:1 816:1 894:1 925:1 1243:1 1308:1 1596:1 1607:1 1643:1 1736:1 1751:1 1881:1 1929:1 1950:1 2002:1 2023:1 2176:1 2177:1 2184:1 2202:1 2312:1 2313:1 2407:1 2634:1 2637:1 2643:1 2651:1 2673:1 3066:1 3067:1 3633:1 3670:1 3672:1 3721:1 3725:1 3845:1 3890:1 3937:1 4528:1 4731:1 4740:1 4778:1 4780:1 4814:1 4816:1 5368:1 5734:1 5852:1 5983:1 5989:1 5995:1 6034:1 6128:1 6233:1 
0.01133110026799787 0.1552258530852615 0.05061262374768089 46:1 62:1 71:1 295:1 308:1 325:1 333:1 358:1 482:1 706:1 708:1 816:1 817:1 894:1 978:1 1265:1 1308:1 1643:1 1655:1 1666:1 1794:1 1800:1 1801:1 1802:1 1929:1 1931:1 1932:1 1933:1 1934:1 2176:1 2312:1 2313:1 2338:1 2627:1 2634:1 2673:1 2800:1 2801:1 2968:1 3066:1 3067:1 3117:1 3206:1 3633:1 3730:1 3819:1 3845:1 3858:1 3890:1 3899:1 3930:1 3937:1 3941:1 4015:1 4221:1 4317:1 4319:1 4528:1 4529:1 4598:1 4599:1 4709:1 4778:1 5083:1 5084:1 5113:1 5115:1 5190:1 5191:1 5283:1 5319:1 5368:1 5370:1 5411:1 5479:1 5679:1 5709:1 5713:1 5715:1 5734:1 5852:1 5925:1 5947:1 5948:1 6034:1 6128:1 6163:1 
0 0.3935681532992132 0.739146652835724 482:1 775:1 810:1 2176:1 2312:1 2313:1 2384:1 3066:1 3845:1 3890:1 3937:1 5368:1 5734:1 5851:1 6275:1 
0 0.5389993126102687 0 1643:1 1736:1 1764:1 2176:1 2312:1 2313:1 2678:1 3066:1 3272:1 3443:1 3633:1 3819:1 3845:1 3890:1 3937:1 4778:1 4864:1 4883:1 4906:1 4912:1 4914:1 5368:1 5542:1 5558:1 
0.01902415724368086 0.381878473558509 0.06374028923947075 283:1 288:1 308:1 309:1 447:1 455:1 482:1 610:1 611:1 645:1 816:1 1201:1 1202:1 1267:1 1308:1 1385:1 1643:1 1929:1 2064:1 2101:1 2103:1 2176:1 2312:1 2313:1 2338:1 2407:1 2408:1 2469:1 2518:1 2841:1 2893:1 2941:1 2944:1 2945:1 2968:1 3029:1 3030:1 3066:1 3117:1 3153:1 3272:1 3274:1 3353:1 3633:1 3845:1 3890:1 3937:1 3988:1 4015:1 4017:1 4528:1 4529:1 4729:1 4763:1 4778:1 5193:1 5281:1 5368:1 5728:1 5734:1 5819:1 5852:1 5878:1 6034:1 6233:1 
0 0.3797402326024192 0.04574785184513527 144:1 265:1 816:1 894:1 925:1 1243:1 1308:1 1310:1 1596:1 1607:1 1643:1 1714:1 1794:1 1811:1 1929:1 2064:1 2109:1 2176:1 2312:1 2313:1 2407:1 2634:1 2637:1 2639:1 2640:1 2643:1 2651:1 2968:1 3066:1 3117:1 3272:1 3443:1 3458:1 3633:1 3670:1 3845:1 3890:1 3937:1 4015:1 4017:1 4087:1 4474:1 4484:1 4495:1 4514:1 4519:1 4528:1 4529:1 4731:1 4740:1 4778:1 4780:1 4814:1 4816:1 5368:1 5370:1 5618:1 5619:1 5629:1 5734:1 5753:1 6034:1 6128:1 6145:1 6153:1 
0 0.06616530159323544 0 1643:1 1644:1 2176:1 2312:1 2313:1 3066:1 3633:1 3845:1 3890:1 3937:1 4015:1 4115:1 4118:1 4119:1 4528:1 4759:1 4778:1 5113:1 
0.03254154536864704 0 0 71:1 482:1 706:1 708:1 816:1 894:1 1643:1 1655:1 1674:1 1736:1 1929:1 1933:1 1934:1 1978:1 2117:1 2123:1 2125:1 2176:1 2312:1 2313:1 2320:1 2672:1 2843:1 2968:1 2988:1 3032:1 3045:1 3046:1 3047:1 3066:1 3117:1 3153:1 3170:1 3206:1 3633:1 3755:1 3845:1 3890:1 3899:1 3937:1 3941:1 3979:1 4015:1 4221:1 4246:1 4317:1 4528:1 4778:1 5193:1 5223:1 5368:1 5411:1 5542:1 5565:1 5566:1 5734:1 
0 0.2824776212426831 0 183:1 187:1 305:1 816:1 1055:1 1074:1 1092:1 1643:1 1794:1 1797:1 1881:1 1901:1 1911:1 1912:1 2176:1 2312:1 2313:1 2407:1 2510:1 2968:1 3005:1 3017:1 3066:1 3067:1 3202:1 3206:1 3223:1 3232:1 3234:1 3272:1 3274:1 3633:1 3845:1 3858:1 3890:1 3899:1 3901:1 3903:1 3911:1 3937:1 3941:1 4015:1 4221:1 4222:1 4528:1 4731:1 5368:1 5411:1 5479:1 5580:1 5679:1 5682:1 5709:1 5713:1 5715:1 5721:1 5734:1 6034:1 6128:1 6163:1 6230:1 
0 0 0.08978878264239781 208:1 283:1 287:1 473:1 482:1 699:1 816:1 978:1 1308:1 1616:1 1643:1 1794:1 1881:1 2176:1 2177:1 2185:1 2312:1 2313:1 2384:1 2634:1 2645:1 3066:1 3067:1 3272:1 3633:1 3672:1 3721:1 3845:1 3890:1 3921:1 3937:1 4528:1 4763:1 4778:1 5283:1 5310:1 5368:1 5618:1 5734:1 5766:1 5852:1 5878:1 5896:1 5983:1 5989:1 5990:1 5993:1 6233:1 
0 0.04435626544296044 0.04513693581655061 112:1 482:1 757:1 1308:1 1643:1 2176:1 2290:1 2291:1 2300:1 2312:1 2313:1 2407:1 2408:1 2426:1 2480:1 3066:1 3257:1 3272:1 3633:1 3821:1 3845:1 3890:1 3911:1 3915:1 3937:1 3947:1 4015:1 4189:1 4528:1 4731:1 5368:1 5734:1 5852:1 5925:1 5928:1 
0 10 2.396406099528124 265:1 816:1 894:1 925:1 1243:1 1308:1 1596:1 1607:1 1643:1 2176:1 2312:1 2313:1 2407:1 2634:1 2637:1 2643:1 2651:1 3066:1 3633:1 3670:1 3845:1 3890:1 3937:1 4528:1 4731:1 4740:1 4778:1 4780:1 4814:1 4816:1 6034:1 6128:1 
0 3.5019642468803 0.001110894691583917 308:1 325:1 333:1 2176:1 2312:1 2313:1 3066:1 3845:1 3890:1 3937:1 4015:1 4221:1 4317:1 4319:1 
0 0.1392365044521782 0.01782326051927638 157:1 482:1 706:1 708:1 775:1 804:1 816:1 890:1 894:1 925:1 1308:1 1643:1 1655:1 1811:1 1838:1 1929:1 2176:1 2312:1 2313:1 2407:1 2408:1 2453:1 2460:1 2549:1 2571:1 2856:1 2968:1 3066:1 3845:1 3890:1 3899:1 3903:1 3937:1 3941:1 4015:1 4114:1 4528:1 4529:1 4775:1 4778:1 4839:1 4848:1 4975:1 5193:1 5248:1 5255:1 5283:1 5292:1 5368:1 5734:1 5739:1 5852:1 5853:1 5869:1 5925:1 5954:1 
0.05226942315536657 0.2212687961365267 0 112:1 413:1 482:1 706:1 708:1 1308:1 1423:1 1643:1 1655:1 1794:1 1929:1 2176:1 2255:1 2312:1 2313:1 2407:1 2518:1 2843:1 2968:1 3066:1 3117:1 3118:1 3119:1 3120:1 3121:1 3845:1 3890:1 3899:1 3937:1 3941:1 4015:1 4114:1 4528:1 4529:1 4759:1 4778:1 4949:1 4958:1 5193:1 5261:1 5262:1 5368:1 5411:1 5618:1 5619:1 
0 0.3449136055432736 0.1734529085639065 308:1 1308:1 1643:1 1666:1 1674:1 1702:1 1707:1 1811:1 1838:1 1881:1 1929:1 2117:1 2123:1 2125:1 2176:1 2312:1 2313:1 2338:1 2407:1 3066:1 3117:1 3118:1 3124:1 3633:1 3672:1 3680:1 3721:1 3845:1 3890:1 3926:1 3937:1 4015:1 4321:1 4329:1 4354:1 4528:1 4529:1 4624:1 4778:1 4975:1 5025:1 5026:1 5368:1 5411:1 5447:1 5449:1 5452:1 5734:1 
0 0.5743452392309442 0 1308:1 1596:1 1603:1 2176:1 2312:1 2313:1 2841:1 3066:1 3067:1 3272:1 3515:1 3570:1 3572:1 3578:1 3845:1 3869:1 3890:1 3903:1 3937:1 4528:1 4529:1 4556:1 4720:1 4731:1 5368:1 6275:1 
0 1.841825408696333 3.10094707159985 265:1 1308:1 1596:1 1607:1 1643:1 1714:1 2176:1 2312:1 2313:1 2651:1 2673:1 3066:1 3117:1 3272:1 3443:1 3633:1 3670:1 3845:1 3890:1 3937:1 4528:1 4731:1 4740:1 4778:1 5054:1 5066:1 
0 0.1562752999026012 0 208:1 265:1 473:1 1308:1 1470:1 1471:1 1596:1 1607:1 1643:1 1666:1 1881:1 2176:1 2177:1 2183:1 2312:1 2313:1 2627:1 2651:1 2879:1 3066:1 3067:1 3272:1 3377:1 3378:1 3633:1 3670:1 3672:1 3721:1 3845:1 3890:1 3937:1 4528:1 4731:1 4740:1 4778:1 5190:1 5191:1 5283:1 5319:1 5368:1 5734:1 
0 0 0.04137247941404681 208:1 264:1 384:1 473:1 482:1 610:1 816:1 894:1 925:1 978:1 1243:1 1308:1 1454:1 1456:1 1470:1 1643:1 1702:1 1736:1 1764:1 1881:1 1929:1 2002:1 2176:1 2177:1 2185:1 2312:1 2313:1 2407:1 2549:1 2627:1 2634:1 2637:1 2643:1 2645:1 3066:1 3067:1 3272:1 3274:1 3347:1 3400:1 3408:1 3633:1 3670:1 3672:1 3721:1 3819:1 3845:1 3884:1 3886:1 3890:1 3937:1 4015:1 4528:1 4763:1 4764:1 4766:1 4778:1 4780:1 4814:1 4816:1 5054:1 5057:1 5060:1 5190:1 5191:1 5283:1 5319:1 5368:1 5734:1 5852:1 5878:1 5884:1 6034:1 6128:1 6233:1 
0 0 0.07676056523351785 265:1 482:1 576:1 580:1 816:1 894:1 925:1 1243:1 1308:1 1470:1 1543:1 1596:1 1607:1 1643:1 1736:1 1746:1 2176:1 2312:1 2313:1 2407:1 2634:1 2637:1 2643:1 2651:1 2880:1 2893:1 2933:1 3066:1 3633:1 3670:1 3845:1 3869:1 3890:1 3937:1 4528:1 4731:1 4740:1 4778:1 4780:1 4814:1 4816:1 4864:1 4865:1 5368:1 6034:1 6128:1 
0 0.2711585731813499 0.04081665407326565 816:1 925:1 943:1 948:1 1308:1 1470:1 1483:1 1643:1 1644:1 1666:1 1702:1 1929:1 2000:1 2176:1 2304:1 2312:1 2313:1 2407:1 2489:1 2651:1 2730:1 2893:1 2918:1 2926:1 2968:1 3066:1 3153:1 3178:1 3272:1 3377:1 3380:1 3443:1 3479:1 3633:1 3670:1 3730:1 3845:1 3869:1 3890:1 3911:1 3915:1 3937:1 4474:1 4484:1 4528:1 4778:1 4975:1 5109:1 5193:1 5279:1 5346:1 5368:1 5411:1 5415:1 5425:1 5682:1 5734:1 5744:1 6034:1 
0 0.6523966146272846 0.2841348831996476 112:1 208:1 265:1 473:1 816:1 894:1 925:1 1243:1 1308:1 1310:1 1596:1 1607:1 1643:1 1702:1 1811:1 1881:1 2176:1 2177:1 2183:1 2312:1 2313:1 2407:1 2634:1 2637:1 2639:1 2640:1 2643:1 2651:1 3066:1 3067:1 3633:1 3634:1 3643:1 3670:1 3672:1 3677:1 3721:1 3845:1 3890:1 3937:1 4528:1 4731:1 4740:1 4778:1 4780:1 4814:1 4816:1 4975:1 5025:1 5190:1 5191:1 5283:1 5319:1 5368:1 5370:1 5734:1 6034:1 6128:1 6233:1 
0.001819436316518749 0 0 144:1 172:1 183:1 187:1 188:1 308:1 317:1 816:1 1201:1 1308:1 1310:1 1643:1 1687:1 1811:1 2176:1 2312:1 2313:1 2407:1 2408:1 2730:1 2889:1 3066:1 3633:1 3670:1 3845:1 3890:1 3937:1 4015:1 4528:1 4778:1 4780:1 5368:1 5411:1 5682:1 5684:1 5734:1 5750:1 
0 0.1225835173208478 0.0299601296700039 482:1 775:1 787:1 1308:1 1643:1 1736:1 2176:1 2312:1 2313:1 2407:1 2518:1 2531:1 2673:1 2968:1 3032:1 3045:1 3046:1 3061:1 3066:1 3153:1 3178:1 3179:1 3206:1 3633:1 3755:1 3845:1 3890:1 3937:1 3979:1 4528:1 4778:1 5193:1 5223:1 5368:1 5411:1 5734:1 5753:1 5819:1 6034:1 
0 9.376937152715429 9.865344753384694 2176:1 2312:1 2313:1 3066:1 3845:1 3890:1 3937:1 
0.2110140503878838 0.3564125256074436 0.0688904420167208 201:1 369:1 447:1 455:1 816:1 817:1 849:1 856:1 1308:1 1358:1 1359:1 1643:1 1714:1 1794:1 1881:1 1929:1 2064:1 2176:1 2312:1 2313:1 2407:1 2408:1 2469:1 2549:1 2556:1 2672:1 2673:1 2968:1 3005:1 3066:1 3117:1 3118:1 3257:1 3272:1 3845:1 3890:1 3903:1 3904:1 3937:1 4015:1 4150:1 4528:1 4729:1 4778:1 4864:1 5368:1 5411:1 5497:1 5734:1 5834:1 5852:1 5878:1 6034:1 6128:1 6139:1 
0 0.09245698929962871 0.003580591856095235 201:1 816:1 894:1 905:1 906:1 1308:1 1643:1 1736:1 1764:1 1768:1 1794:1 1852:1 1929:1 2002:1 2046:1 2176:1 2312:1 2313:1 2407:1 2549:1 2672:1 2673:1 2968:1 2988:1 3005:1 3066:1 3117:1 3118:1 3272:1 3427:1 3432:1 3633:1 3819:1 3845:1 3869:1 3890:1 3899:1 3937:1 4015:1 4251:1 4266:1 4267:1 4321:1 4384:1 4400:1 4405:1 4528:1 4731:1 4759:1 4778:1 4975:1 5025:1 5193:1 5194:1 5208:1 5368:1 5370:1 5411:1 5479:1 5525:1 6034:1 6128:1 6139:1 
0 0.101060248761926 0 71:1 112:1 201:1 482:1 816:1 925:1 943:1 945:1 1267:1 1308:1 1310:1 1339:1 1402:1 1592:1 1643:1 1714:1 1794:1 1811:1 1842:1 1881:1 1929:1 2050:1 2062:1 2176:1 2177:1 2312:1 2313:1 2407:1 2408:1 2422:1 2549:1 2556:1 2557:1 2621:1 2622:1 2672:1 2673:1 2968:1 2988:1 3005:1 3066:1 3117:1 3118:1 3153:1 3178:1 3206:1 3207:1 3272:1 3633:1 3672:1 3709:1 3711:1 3728:1 3755:1 3845:1 3847:1 3858:1 3863:1 3864:1 3890:1 3899:1 3903:1 3904:1 3937:1 4015:1 4251:1 4266:1 4528:1 4728:1 4778:1 5193:1 5368:1 5411:1 5497:1 5734:1 5812:1 5819:1 5852:1 6034:1 6112:1 6128:1 6139:1 6233:1 6275:1 6315:1 
0 0.06711072885077402 0 183:1 187:1 201:1 283:1 285:1 816:1 1308:1 1565:1 1616:1 1624:1 1643:1 1702:1 1714:1 1736:1 1764:1 1794:1 1811:1 1838:1 1842:1 1881:1 2176:1 2177:1 2182:1 2312:1 2313:1 2407:1 2549:1 2556:1 2562:1 2564:1 2672:1 2673:1 2841:1 2968:1 2988:1 3005:1 3066:1 3117:1 3118:1 3272:1 3633:1 3672:1 3730:1 3819:1 3845:1 3890:1 3899:1 3903:1 3904:1 3906:1 3911:1 3915:1 3937:1 3988:1 4015:1 4251:1 4266:1 4528:1 4778:1 5193:1 5368:1 5411:1 5497:1 5603:1 5611:1 5612:1 5734:1 5761:1 5819:1 5852:1 5925:1 5952:1 6034:1 6128:1 6139:1 6233:1 6265:1 
0 0 0.07616916894507436 816:1 1643:1 1736:1 1794:1 1795:1 1797:1 1869:1 2176:1 2177:1 2208:1 2227:1 2254:1 2312:1 2313:1 2634:1 2841:1 2968:1 2972:1 3066:1 3117:1 3150:1 3633:1 3728:1 3845:1 3890:1 3937:1 4528:1 4529:1 4778:1 4975:1 4986:1 5036:1 5852:1 5878:1 5896:1 
0.01978413033759969 0 0 208:1 402:1 425:1 428:1 473:1 1308:1 1470:1 1533:1 1643:1 1693:1 1694:1 1702:1 1714:1 1794:1 1811:1 1827:1 1852:1 1881:1 1929:1 2176:1 2177:1 2185:1 2312:1 2313:1 2407:1 2474:1 2549:1 2712:1 2873:1 2968:1 3051:1 3066:1 3067:1 3115:1 3117:1 3272:1 3274:1 3633:1 3634:1 3672:1 3693:1 3721:1 3845:1 3890:1 3903:1 3906:1 3926:1 3937:1 4015:1 4181:1 4221:1 4222:1 4238:1 4528:1 4529:1 4669:1 4672:1 4685:1 4778:1 5142:1 5190:1 5191:1 5193:1 5283:1 5319:1 5323:1 5368:1 5510:1 5542:1 5563:1 5734:1 5766:1 5852:1 5925:1 5941:1 5942:1 6233:1 6275:1 6308:1 6312:1 
0 0.04609666433253139 0.1320498005182573 208:1 308:1 325:1 331:1 332:1 473:1 816:1 894:1 925:1 978:1 1055:1 1062:1 1243:1 1308:1 1470:1 1643:1 1736:1 1764:1 1811:1 1824:1 1881:1 1929:1 2002:1 2023:1 2037:1 2176:1 2177:1 2185:1 2255:1 2312:1 2313:1 2407:1 2408:1 2627:1 2634:1 2637:1 2643:1 2678:1 2841:1 3066:1 3067:1 3153:1 3206:1 3272:1 3443:1 3444:1 3510:1 3633:1 3634:1 3670:1 3672:1 3721:1 3730:1 3819:1 3845:1 3890:1 3911:1 3937:1 4015:1 4134:1 4317:1 4321:1 4329:1 4344:1 4345:1 4350:1 4528:1 4778:1 4780:1 4814:1 4816:1 4839:1 4852:1 4864:1 4906:1 4912:1 5368:1 5370:1 5734:1 5819:1 5820:1 5821:1 5852:1 5983:1 5988:1 6034:1 6128:1 6233:1 6275:1 
0 0.005407970377447785 0.003471641840274394 183:1 402:1 447:1 449:1 455:1 456:1 816:1 925:1 1213:1 1643:1 1811:1 1842:1 1852:1 1860:1 2176:1 2312:1 2313:1 2407:1 2515:1 2634:1 2856:1 2893:1 2931:1 3066:1 3117:1 3272:1 3515:1 3535:1 3557:1 3845:1 3890:1 3937:1 3988:1 3991:1 4015:1 4017:1 4096:1 4474:1 4484:1 4514:1 4528:1 4529:1 4778:1 5134:1 5139:1 5193:1 5368:1 5411:1 5618:1 5734:1 5739:1 5741:1 5753:1 5819:1 5852:1 5853:1 5857:1 5878:1 5925:1 5969:1 
0 0.2509891815915423 0 265:1 1308:1 1596:1 1607:1 1643:1 1702:1 1736:1 1764:1 1794:1 1866:1 1867:1 1868:1 2176:1 2312:1 2313:1 2651:1 2712:1 3066:1 3272:1 3443:1 3633:1 3634:1 3670:1 3819:1 3845:1 3890:1 3937:1 4528:1 4729:1 4731:1 4740:1 4778:1 5190:1 5191:1 5283:1 5319:1 5368:1 5411:1 5479:1 5481:1 5482:1 5483:1 5734:1 5852:1 5878:1 6233:1 
0 0.5489532564872378 0.2724640611445743 265:1 478:1 1308:1 1596:1 1607:1 1643:1 1794:1 1800:1 1881:1 1929:1 1982:1 1983:1 2176:1 2312:1 2313:1 2651:1 3066:1 3633:1 3670:1 3672:1 3721:1 3725:1 3845:1 3890:1 3937:1 4528:1 4731:1 4740:1 4745:1 4778:1 5193:1 5269:1 5368:1 5618:1 5662:1 5664:1 5682:1 5734:1 5819:1 5852:1 5878:1 5896:1 5906:1 6275:1 
0 0.4539944210865607 0 71:1 816:1 1055:1 1059:1 1308:1 1643:1 1702:1 1736:1 1746:1 1794:1 1811:1 1838:1 1852:1 1929:1 2064:1 2071:1 2117:1 2134:1 2135:1 2176:1 2312:1 2313:1 2407:1 2408:1 2439:1 2549:1 2968:1 3066:1 3193:1 3201:1 3206:1 3253:1 3272:1 3427:1 3435:1 3632:1 3633:1 3670:1 3672:1 3709:1 3845:1 3890:1 3903:1 3911:1 3915:1 3937:1 3988:1 4015:1 4017:1 4321:1 4329:1 4354:1 4528:1 4778:1 4949:1 4968:1 4969:1 5142:1 5143:1 5368:1 5411:1 5479:1 5501:1 5503:1 5601:1 5603:1 5613:1 5679:1 5709:1 5713:1 5715:1 5734:1 6034:1 6098:1 6099:1 6100:1 6128:1 6163:1 6166:1 6180:1 6183:1 6233:1 
0 0.1511133107944523 0 265:1 1308:1 1596:1 1607:1 2176:1 2312:1 2313:1 2327:1 2328:1 2651:1 3066:1 3633:1 3670:1 3845:1 3890:1 3937:1 3979:1 4528:1 4731:1 4740:1 4778:1 5193:1 5194:1 5205:1 5368:1 5370:1 5389:1 
0 0.05229155657960811 0 157:1 164:1 447:1 455:1 456:1 816:1 925:1 1055:1 1074:1 1104:1 1108:1 1643:1 1881:1 2176:1 2312:1 2313:1 2407:1 2518:1 2673:1 2678:1 2773:1 3066:1 3272:1 3633:1 3672:1 3721:1 3723:1 3802:1 3845:1 3858:1 3862:1 3890:1 3911:1 3937:1 3988:1 4015:1 4017:1 4321:1 4367:1 4528:1 4717:1 4778:1 5142:1 5368:1 5370:1 5378:1 5379:1 5603:1 5613:1 5734:1 5852:1 5878:1 
0 0.4324585672812349 0.1274432715622622 208:1 265:1 384:1 473:1 816:1 894:1 925:1 1055:1 1074:1 1077:1 1080:1 1081:1 1243:1 1308:1 1596:1 1607:1 1643:1 1736:1 1764:1 1811:1 1881:1 1929:1 2176:1 2177:1 2185:1 2312:1 2313:1 2407:1 2627:1 2634:1 2637:1 2639:1 2640:1 2643:1 2651:1 2673:1 3066:1 3067:1 3272:1 3633:1 3670:1 3672:1 3721:1 3725:1 3726:1 3819:1 3845:1 3890:1 3911:1 3937:1 4015:1 4017:1 4056:1 4079:1 4528:1 4731:1 4740:1 4763:1 4778:1 4780:1 4814:1 4816:1 5190:1 5191:1 5283:1 5319:1 5368:1 5542:1 5555:1 5734:1 5852:1 5925:1 6034:1 6128:1 6233:1 
0 0.1464513050556001 0 265:1 816:1 1308:1 1310:1 1596:1 1607:1 1643:1 1666:1 1736:1 1746:1 1747:1 1755:1 1852:1 2176:1 2312:1 2313:1 2407:1 2514:1 2634:1 2651:1 2968:1 3066:1 3272:1 3377:1 3633:1 3670:1 3845:1 3890:1 3937:1 4528:1 4729:1 4731:1 4740:1 4778:1 5030:1 5193:1 5368:1 
0 0.1042538390320379 0.09019697790876519 816:1 1055:1 1074:1 1092:1 1095:1 1215:1 1643:1 1736:1 1743:1 1794:1 1808:1 1811:1 1842:1 1852:1 2176:1 2312:1 2313:1 3066:1 3117:1 3146:1 3272:1 3633:1 3819:1 3845:1 3890:1 3911:1 3937:1 3988:1 3992:1 4015:1 4221:1 4474:1 4484:1 4495:1 4528:1 4656:1 4731:1 4776:1 4778:1 4864:1 4920:1 4927:1 4928:1 5193:1 5368:1 5734:1 5819:1 5852:1 5878:1 5896:1 6233:1 6261:1 
2.13344514999492 4.478754251151686 2.534953684142321 71:1 482:1 706:1 708:1 816:1 894:1 1643:1 1655:1 1929:1 1933:1 1934:1 2176:1 2312:1 2313:1 2968:1 3066:1 3845:1 3890:1 3899:1 3937:1 3941:1 
0 0 0.08237669837665727 157:1 158:1 160:1 265:1 369:1 816:1 894:1 925:1 1160:1 1163:1 1243:1 1308:1 1310:1 1596:1 1607:1 1643:1 1736:1 1746:1 1811:1 1842:1 1843:1 2176:1 2208:1 2227:1 2312:1 2313:1 2407:1 2549:1 2634:1 2637:1 2643:1 2651:1 2730:1 3066:1 3633:1 3670:1 3672:1 3819:1 3845:1 3890:1 3926:1 3937:1 4015:1 4017:1 4056:1 4063:1 4064:1 4065:1 4181:1 4528:1 4731:1 4740:1 4778:1 4780:1 4814:1 4816:1 5193:1 5194:1 5368:1 5370:1 6034:1 6128:1 6145:1 6146:1 
0 0.01725119037917436 0 71:1 447:1 455:1 456:1 482:1 610:1 706:1 708:1 816:1 894:1 1055:1 1063:1 1265:1 1643:1 1655:1 1794:1 1800:1 1801:1 1803:1 1860:1 1881:1 1929:1 1933:1 1934:1 2176:1 2312:1 2313:1 2338:1 2348:1 2349:1 2634:1 2673:1 2678:1 2841:1 2856:1 2893:1 2941:1 2944:1 2968:1 3066:1 3117:1 3153:1 3272:1 3443:1 3498:1 3510:1 3633:1 3672:1 3721:1 3723:1 3730:1 3845:1 3890:1 3899:1 3911:1 3930:1 3937:1 3941:1 3979:1 3988:1 4015:1 4173:1 4251:1 4303:1 4321:1 4367:1 4528:1 4529:1 4717:1 4778:1 4864:1 4975:1 5113:1 5115:1 5142:1 5368:1 5542:1 5734:1 5819:1 5852:1 5878:1 5983:1 5989:1 5997:1 
0 0.1493649831847765 0 208:1 265:1 272:1 473:1 1308:1 1596:1 1607:1 1643:1 1881:1 2176:1 2177:1 2183:1 2185:1 2312:1 2313:1 2651:1 2893:1 3066:1 3067:1 3633:1 3670:1 3672:1 3721:1 3845:1 3890:1 3937:1 4015:1 4528:1 4731:1 4740:1 4778:1 5190:1 5191:1 5283:1 5319:1 5734:1 6233:1 
0.01790441556717625 0.02350203341709204 0.08499449943948609 71:1 103:1 308:1 325:1 333:1 343:1 344:1 816:1 1139:1 1160:1 1161:1 1267:1 1308:1 1470:1 1643:1 1666:1 1702:1 1736:1 1751:1 1794:1 1811:1 1881:1 1929:1 2002:1 2023:1 2176:1 2312:1 2313:1 2338:1 2634:1 2678:1 2968:1 2988:1 3066:1 3117:1 3153:1 3178:1 3180:1 3272:1 3633:1 3672:1 3721:1 3723:1 3725:1 3799:1 3801:1 3819:1 3845:1 3890:1 3937:1 3988:1 4015:1 4221:1 4317:1 4319:1 4321:1 4367:1 4528:1 4717:1 4778:1 5113:1 5118:1 5142:1 5368:1 5370:1 5411:1 5479:1 5679:1 5709:1 5713:1 5715:1 5734:1 5852:1 5878:1 5884:1 6034:1 6128:1 6163:1 
0 0.1052969937283478 0.1036409945593178 208:1 265:1 308:1 325:1 473:1 816:1 894:1 905:1 925:1 1243:1 1308:1 1470:1 1532:1 1596:1 1607:1 1643:1 1736:1 1764:1 1794:1 1881:1 2176:1 2177:1 2183:1 2312:1 2313:1 2407:1 2634:1 2637:1 2643:1 2651:1 2856:1 3066:1 3067:1 3633:1 3670:1 3672:1 3721:1 3818:1 3819:1 3845:1 3890:1 3937:1 4015:1 4134:1 4317:1 4321:1 4322:1 4326:1 4528:1 4529:1 4731:1 4740:1 4778:1 4780:1 4814:1 4816:1 5142:1 5368:1 5411:1 5479:1 5480:1 5542:1 5543:1 5734:1 6034:1 6128:1 
0 0.09160904389493661 0.320164569335149 208:1 473:1 816:1 1643:1 1881:1 2176:1 2177:1 2183:1 2312:1 2313:1 2634:1 3066:1 3067:1 3633:1 3672:1 3721:1 3845:1 3890:1 3937:1 4778:1 5190:1 5191:1 5283:1 5319:1 5734:1 
0 0.4188046720616278 0.1237122209509272 208:1 473:1 816:1 817:1 894:1 913:1 925:1 1243:1 1308:1 1643:1 1714:1 1794:1 1795:1 1811:1 1881:1 1929:1 2064:1 2110:1 2176:1 2177:1 2185:1 2312:1 2313:1 2407:1 2634:1 2637:1 2639:1 2640:1 2643:1 2873:1 3066:1 3067:1 3272:1 3274:1 3443:1 3445:1 3633:1 3634:1 3670:1 3672:1 3721:1 3845:1 3890:1 3937:1 4015:1 4017:1 4046:1 4528:1 4529:1 4778:1 4780:1 4814:1 4816:1 4975:1 5023:1 5190:1 5191:1 5193:1 5223:1 5283:1 5319:1 5368:1 5411:1 5456:1 5457:1 5734:1 6034:1 6128:1 6233:1 
0 0.1592316790371281 0.01409318684533656 157:1 482:1 610:1 1643:1 1794:1 1881:1 2176:1 2312:1 2313:1 2673:1 2678:1 3066:1 3117:1 3153:1 3272:1 3633:1 3672:1 3721:1 3723:1 3845:1 3890:1 3937:1 3979:1 4015:1 4163:1 4166:1 4251:1 4303:1 4321:1 4367:1 4528:1 4717:1 4759:1 4778:1 4975:1 5113:1 5142:1 5368:1 5370:1 5378:1 5380:1 5734:1 
0.04011228797013953 0.3836004286180915 0 265:1 308:1 316:1 325:1 447:1 455:1 456:1 482:1 610:1 613:1 816:1 1267:1 1308:1 1470:1 1517:1 1596:1 1607:1 1643:1 1736:1 1794:1 1881:1 2176:1 2312:1 2313:1 2407:1 2549:1 2582:1 2651:1 2678:1 2856:1 3066:1 3272:1 3633:1 3670:1 3672:1 3721:1 3723:1 3845:1 3890:1 3937:1 4015:1 4134:1 4183:1 4317:1 4321:1 4367:1 4528:1 4644:1 4647:1 4717:1 4731:1 4740:1 4778:1 5142:1 5368:1 5734:1 5852:1 5878:1 
0 0 0.01802518976952991 816:1 925:1 1643:1 1736:1 1811:1 1838:1 1929:1 2117:1 2123:1 2130:1 2176:1 2312:1 2313:1 2407:1 2627:1 2678:1 2705:1 3066:1 3206:1 3249:1 3272:1 3633:1 3845:1 3890:1 3937:1 4015:1 4017:1 4056:1 4071:1 4321:1 4329:1 4354:1 4528:1 4778:1 4975:1 5852:1 5878:1 
0 0.09697293279311323 0.02257310969614608 146:1 147:1 157:1 308:1 325:1 326:1 327:1 369:1 816:1 925:1 1183:1 1643:1 1736:1 1764:1 1811:1 1842:1 1881:1 1929:1 2000:1 2002:1 2176:1 2312:1 2313:1 2407:1 2408:1 2453:1 2549:1 2582:1 2634:1 2643:1 2673:1 2678:1 2808:1 3066:1 3272:1 3633:1 3672:1 3721:1 3723:1 3819:1 3845:1 3890:1 3903:1 3937:1 4015:1 4017:1 4056:1 4183:1 4317:1 4321:1 4367:1 4528:1 4717:1 4778:1 4949:1 4953:1 5142:1 5193:1 5283:1 5333:1 5368:1 5411:1 5734:1 5819:1 
0 0 0.04677609748636134 308:1 325:1 360:1 447:1 463:1 482:1 610:1 613:1 816:1 925:1 933:1 1055:1 1057:1 1267:1 1308:1 1310:1 1339:1 1340:1 1643:1 1736:1 1852:1 1881:1 2176:1 2312:1 2313:1 2407:1 2408:1 2673:1 2678:1 2841:1 2856:1 3066:1 3117:1 3127:1 3153:1 3272:1 3362:1 3633:1 3672:1 3721:1 3723:1 3845:1 3869:1 3890:1 3911:1 3937:1 3979:1 3988:1 4015:1 4251:1 4303:1 4308:1 4317:1 4321:1 4367:1 4474:1 4484:1 4528:1 4717:1 4720:1 4778:1 4780:1 4835:1 4975:1 5142:1 5368:1 5370:1 5542:1 5555:1 5734:1 5789:1 5819:1 5842:1 5843:1 5852:1 5983:1 5989:1 5997:1 
0 0.05384503293068951 0.02783476806750163 112:1 157:1 183:1 208:1 308:1 322:1 363:1 473:1 816:1 817:1 894:1 925:1 1243:1 1308:1 1310:1 1313:1 1315:1 1339:1 1340:1 1643:1 1811:1 1881:1 1929:1 1990:1 2176:1 2177:1 2185:1 2312:1 2313:1 2407:1 2634:1 2637:1 2639:1 2640:1 2643:1 2880:1 3066:1 3067:1 3153:1 3272:1 3274:1 3295:1 3515:1 3542:1 3547:1 3548:1 3633:1 3634:1 3643:1 3670:1 3672:1 3721:1 3730:1 3845:1 3890:1 3930:1 3937:1 4015:1 4017:1 4056:1 4057:1 4221:1 4528:1 4529:1 4778:1 4780:1 4814:1 4816:1 5190:1 5191:1 5283:1 5319:1 5368:1 5370:1 5542:1 5618:1 5734:1 5823:1 5826:1 5852:1 5983:1 6034:1 6128:1 6233:1 
0 0 0.1003702584027703 146:1 308:1 325:1 346:1 349:1 447:1 455:1 456:1 816:1 925:1 1149:1 1308:1 1310:1 1326:1 1339:1 1340:1 1643:1 1881:1 1929:1 2000:1 2002:1 2173:1 2176:1 2312:1 2313:1 2407:1 2634:1 2643:1 2678:1 3066:1 3067:1 3117:1 3272:1 3510:1 3633:1 3672:1 3721:1 3723:1 3818:1 3845:1 3890:1 3911:1 3937:1 4015:1 4017:1 4056:1 4317:1 4321:1 4367:1 4384:1 4437:1 4528:1 4717:1 4731:1 4778:1 5142:1 5368:1 5370:1 5618:1 5648:1 5682:1 5734:1 5789:1 5819:1 5852:1 5878:1 
0 0 0.02974825333723633 369:1 467:1 482:1 483:1 514:1 515:1 816:1 925:1 1643:1 1794:1 1811:1 1842:1 1852:1 1881:1 1929:1 2160:1 2169:1 2170:1 2176:1 2312:1 2313:1 2407:1 2518:1 2549:1 2571:1 2613:1 2856:1 2968:1 3066:1 3067:1 3111:1 3112:1 3114:1 3117:1 3272:1 3515:1 3633:1 3672:1 3699:1 3730:1 3737:1 3845:1 3890:1 3903:1 3937:1 4528:1 4529:1 4541:1 4763:1 4778:1 4780:1 4805:1 4839:1 4848:1 4949:1 4959:1 5193:1 5283:1 5340:1 5368:1 5677:1 5734:1 5766:1 6034:1 6233:1 6239:1 
0 0.03558461014274313 0 183:1 265:1 295:1 308:1 325:1 333:1 425:1 816:1 894:1 897:1 898:1 923:1 925:1 1243:1 1308:1 1596:1 1607:1 1616:1 1643:1 1702:1 1703:1 1736:1 1794:1 1795:1 1811:1 1827:1 1852:1 2176:1 2312:1 2313:1 2407:1 2634:1 2637:1 2639:1 2640:1 2643:1 2651:1 2678:1 2893:1 2941:1 2944:1 3066:1 3067:1 3117:1 3272:1 3443:1 3498:1 3612:1 3633:1 3670:1 3799:1 3800:1 3819:1 3845:1 3890:1 3937:1 3988:1 4015:1 4221:1 4222:1 4226:1 4251:1 4275:1 4317:1 4319:1 4474:1 4484:1 4495:1 4528:1 4529:1 4542:1 4731:1 4740:1 4778:1 4780:1 4814:1 4816:1 4864:1 5142:1 5193:1 5247:1 5368:1 5542:1 5558:1 5618:1 5679:1 5734:1 5819:1 5852:1 5878:1 5879:1 6034:1 6128:1 
0 0 0.01881202027651064 425:1 434:1 1308:1 1470:1 1512:1 1643:1 1666:1 1736:1 1852:1 1881:1 2176:1 2208:1 2312:1 2313:1 2651:1 2678:1 2684:1 2841:1 3066:1 3272:1 3400:1 3633:1 3672:1 3721:1 3723:1 3818:1 3845:1 3890:1 3937:1 4015:1 4321:1 4367:1 4528:1 4598:1 4604:1 4717:1 4763:1 4778:1 4975:1 5017:1 5142:1 5368:1 5734:1 6034:1 6128:1 6130:1 6132:1 
0.07394837013118963 0.2471049957611612 0.1939369242355699 71:1 157:1 158:1 201:1 234:1 236:1 425:1 482:1 483:1 526:1 816:1 978:1 1308:1 1353:1 1643:1 1666:1 1674:1 1736:1 1794:1 1797:1 1811:1 1842:1 1929:1 1985:1 1986:1 2000:1 2002:1 2176:1 2208:1 2312:1 2313:1 2407:1 2510:1 2634:1 2645:1 2968:1 2988:1 3066:1 3153:1 3193:1 3272:1 3274:1 3306:1 3515:1 3583:1 3633:1 3818:1 3845:1 3876:1 3878:1 3890:1 3899:1 3900:1 3937:1 4528:1 4567:1 4571:1 4778:1 4780:1 4797:1 4833:1 4864:1 4906:1 4910:1 5193:1 5368:1 5734:1 5823:1 5826:1 5852:1 5878:1 6233:1 
0 0.02632489884501851 0.02449215831706602 183:1 187:1 189:1 482:1 706:1 708:1 1308:1 1643:1 1655:1 1714:1 1736:1 1764:1 1852:1 1929:1 2000:1 2176:1 2312:1 2313:1 2784:1 2843:1 2968:1 3066:1 3067:1 3117:1 3257:1 3272:1 3400:1 3408:1 3612:1 3614:1 3617:1 3633:1 3818:1 3819:1 3845:1 3890:1 3899:1 3903:1 3906:1 3937:1 3941:1 4015:1 4114:1 4221:1 4222:1 4225:1 4528:1 4731:1 4741:1 4778:1 4864:1 4939:1 4941:1 4942:1 5108:1 5368:1 5542:1 5565:1 5679:1 5734:1 5852:1 
0 0.00925093104611102 0 816:1 1267:1 1308:1 1437:1 1643:1 1811:1 1842:1 1881:1 1929:1 2064:1 2081:1 2176:1 2312:1 2313:1 2678:1 2841:1 2968:1 3066:1 3272:1 3633:1 3672:1 3721:1 3723:1 3845:1 3890:1 3921:1 3937:1 3947:1 4015:1 4017:1 4321:1 4367:1 4474:1 4484:1 4495:1 4528:1 4656:1 4717:1 4778:1 4975:1 5025:1 5026:1 5030:1 5142:1 5193:1 5355:1 5358:1 5368:1 5411:1 5542:1 5618:1 5734:1 6233:1 6255:1 
0.06963551403913373 0.1721430112681031 0.1476814296438515 71:1 183:1 265:1 482:1 645:1 816:1 978:1 1138:1 1308:1 1365:1 1596:1 1607:1 1643:1 1661:1 1663:1 1714:1 1929:1 1937:1 2176:1 2312:1 2313:1 2407:1 2549:1 2627:1 2651:1 2673:1 2856:1 3066:1 3117:1 3206:1 3272:1 3443:1 3633:1 3634:1 3670:1 3672:1 3845:1 3890:1 3926:1 3937:1 4015:1 4181:1 4251:1 4264:1 4474:1 4484:1 4528:1 4590:1 4731:1 4740:1 4778:1 5054:1 5066:1 5368:1 5590:1 5734:1 
0.02493879275152911 0 0 71:1 112:1 265:1 482:1 816:1 978:1 1308:1 1408:1 1596:1 1607:1 1643:1 1666:1 1736:1 1764:1 1794:1 1797:1 1811:1 1824:1 1877:1 2176:1 2312:1 2313:1 2396:1 2651:1 2811:1 2856:1 3066:1 3067:1 3206:1 3633:1 3670:1 3819:1 3821:1 3828:1 3845:1 3890:1 3937:1 4015:1 4321:1 4329:1 4344:1 4345:1 4346:1 4455:1 4456:1 4457:1 4528:1 4731:1 4740:1 4778:1 4780:1 4791:1 4864:1 4883:1 4884:1 4885:1 4887:1 4906:1 4912:1 5080:1 5190:1 5191:1 5193:1 5265:1 5283:1 5319:1 5368:1 5370:1 5411:1 5479:1 5618:1 5648:1 5734:1 5753:1 5852:1 5983:1 
0.1141787768679465 0.4622814571173336 0.2350039679486365 71:1 369:1 425:1 482:1 706:1 708:1 816:1 817:1 883:1 894:1 978:1 1643:1 1655:1 1852:1 1929:1 1933:1 1934:1 2176:1 2312:1 2313:1 2407:1 2408:1 2453:1 2627:1 2841:1 2968:1 3066:1 3633:1 3672:1 3699:1 3703:1 3845:1 3858:1 3890:1 3899:1 3937:1 3941:1 3988:1 4528:1 4778:1 4864:1 4949:1 4953:1 5083:1 5084:1 5368:1 5542:1 5734:1 5834:1 6034:1 6166:1 6185:1 6233:1 6265:1 
0 0.04811276142962284 0.09122955343112958 482:1 645:1 816:1 1243:1 1255:1 1308:1 1422:1 1643:1 1674:1 1676:1 1736:1 1881:1 1929:1 2176:1 2312:1 2313:1 2678:1 2968:1 3066:1 3117:1 3206:1 3212:1 3213:1 3272:1 3633:1 3672:1 3721:1 3723:1 3792:1 3819:1 3845:1 3858:1 3890:1 3937:1 4015:1 4321:1 4367:1 4528:1 4717:1 4763:1 4778:1 4839:1 4857:1 4858:1 4975:1 5113:1 5118:1 5142:1 5368:1 5542:1 5734:1 5753:1 5852:1 5925:1 5959:1 5960:1 
0 0 0.02819896093975816 295:1 482:1 610:1 816:1 1055:1 1063:1 1303:1 1643:1 1736:1 1881:1 1929:1 2176:1 2208:1 2227:1 2312:1 2313:1 2673:1 2678:1 2843:1 3066:1 3117:1 3153:1 3272:1 3510:1 3633:1 3672:1 3721:1 3723:1 3763:1 3792:1 3819:1 3845:1 3890:1 3911:1 3937:1 3979:1 4015:1 4017:1 4049:1 4251:1 4303:1 4317:1 4321:1 4367:1 4528:1 4717:1 4763:1 4778:1 4975:1 5142:1 5283:1 5331:1 5333:1 5349:1 5368:1 5542:1 5734:1 5819:1 6034:1 6128:1 6233:1 6234:1 
0.1058143223990621 0.08444843507661266 0 112:1 308:1 325:1 352:1 816:1 1308:1 1310:1 1643:1 1929:1 2146:1 2634:1 2843:1 2844:1 2846:1 2968:1 3272:1 3443:1 3451:1 3452:1 3453:1 3454:1 3586:1 3845:1 3979:1 4015:1 4017:1 4022:1 4317:1 4528:1 4731:1 4778:1 5092:1 5368:1 5411:1 6275:1 6282:1 
0.09783945626099316 0.007986732988965316 0.004948986140385161 183:1 187:1 189:1 816:1 1308:1 1470:1 1514:1 1588:1 1589:1 1590:1 1643:1 1794:1 1929:1 2146:1 2176:1 2407:1 2634:1 2772:1 3272:1 3443:1 3451:1 3452:1 3453:1 3454:1 3633:1 3672:1 3819:1 3821:1 3837:1 3845:1 3979:1 3988:1 4015:1 4112:1 4528:1 4731:1 4755:1 4778:1 4780:1 4799:1 4802:1 5092:1 5368:1 5734:1 5746:1 6034:1 
0 0.0547082856702326 0 71:1 112:1 816:1 1055:1 1073:1 1308:1 1643:1 1794:1 1811:1 1838:1 1860:1 1929:1 2002:1 2007:1 2064:1 2067:1 2146:1 2634:1 2678:1 2705:1 2706:1 2707:1 2841:1 3066:1 3272:1 3274:1 3280:1 3439:1 3443:1 3451:1 3452:1 3453:1 3454:1 3515:1 3633:1 3634:1 3845:1 3869:1 3911:1 3979:1 4015:1 4321:1 4329:1 4354:1 4474:1 4484:1 4485:1 4488:1 4495:1 4507:1 4528:1 4731:1 4778:1 4975:1 5017:1 5092:1 5094:1 5368:1 5734:1 6034:1 6035:1 6051:1 
0 2.692242722191875 0.255603144486226 816:1 925:1 1643:1 1929:1 2146:1 2176:1 2407:1 2634:1 3066:1 3206:1 3215:1 3272:1 3443:1 3451:1 3452:1 3453:1 3454:1 3633:1 3672:1 3709:1 3845:1 3890:1 3903:1 3979:1 4528:1 4731:1 4778:1 5092:1 5368:1 5411:1 5415:1 5427:1 5428:1 6034:1 
0 0.09396540145141974 0 816:1 1150:1 1153:1 1191:1 1308:1 1596:1 1606:1 1643:1 1702:1 1736:1 1811:1 1842:1 1929:1 2146:1 2634:1 2651:1 2730:1 2841:1 3066:1 3153:1 3206:1 3272:1 3443:1 3451:1 3452:1 3453:1 3454:1 3515:1 3542:1 3549:1 3550:1 3633:1 3670:1 3818:1 3845:1 3903:1 3947:1 3979:1 4015:1 4251:1 4268:1 4528:1 4529:1 4729:1 4731:1 4764:1 4778:1 5092:1 5193:1 5368:1 5618:1 5734:1 5753:1 6034:1 6128:1 6145:1 6146:1 6275:1 
0.05911528526599556 0 0 816:1 1929:1 2146:1 2634:1 3272:1 3443:1 3451:1 3452:1 3453:1 3454:1 3845:1 3979:1 4528:1 4731:1 4778:1 5092:1 5368:1 
0.08999784646511559 0.3435072755537799 0.02509870821819217 71:1 157:1 234:1 384:1 482:1 610:1 640:1 816:1 1034:1 1035:1 1233:1 1273:1 1296:1 1308:1 1643:1 1736:1 1752:1 1929:1 2146:1 2176:1 2177:1 2407:1 2549:1 2634:1 2968:1 3066:1 3193:1 3272:1 3274:1 3309:1 3314:1 3347:1 3362:1 3443:1 3451:1 3452:1 3453:1 3454:1 3633:1 3728:1 3845:1 3869:1 3911:1 3979:1 3988:1 4015:1 4474:1 4482:1 4528:1 4529:1 4731:1 4763:1 4778:1 4864:1 5054:1 5055:1 5056:1 5057:1 5060:1 5063:1 5092:1 5193:1 5248:1 5368:1 5588:1 5734:1 5819:1 5834:1 5839:1 6233:1 6261:1 6275:1 
0.02020187719861605 0.1503970189947923 0.05379601905806098 71:1 275:1 816:1 925:1 1308:1 1470:1 1475:1 1478:1 1643:1 1736:1 1794:1 1881:1 1922:1 1929:1 2002:1 2043:1 2146:1 2176:1 2407:1 2634:1 2643:1 2673:1 2674:1 2814:1 2856:1 3066:1 3067:1 3082:1 3085:1 3193:1 3272:1 3443:1 3451:1 3452:1 3453:1 3454:1 3633:1 3730:1 3818:1 3819:1 3845:1 3979:1 4528:1 4729:1 4731:1 4778:1 5092:1 5193:1 5245:1 5368:1 5411:1 5479:1 5542:1 5555:1 5557:1 5734:1 5743:1 5766:1 5798:1 6034:1 6035:1 6051:1 
0.006432461427108004 0 0.02136612731780539 112:1 482:1 610:1 625:1 627:1 816:1 1308:1 1470:1 1515:1 1643:1 1702:1 1703:1 1929:1 2146:1 2176:1 2177:1 2255:1 2627:1 2634:1 2673:1 2674:1 2841:1 2856:1 2859:1 3066:1 3067:1 3193:1 3206:1 3215:1 3272:1 3443:1 3451:1 3452:1 3453:1 3454:1 3633:1 3634:1 3845:1 3869:1 3871:1 3890:1 3903:1 3979:1 4015:1 4124:1 4129:1 4130:1 4131:1 4189:1 4528:1 4708:1 4731:1 4778:1 5092:1 5368:1 5411:1 5434:1 5435:1 5436:1 5734:1 5773:1 
0 0.3220012602124075 0 112:1 247:1 816:1 817:1 894:1 917:1 918:1 919:1 978:1 992:1 1308:1 1643:1 1736:1 1764:1 1792:1 1794:1 1929:1 2002:1 2146:1 2634:1 2843:1 2851:1 3066:1 3257:1 3272:1 3443:1 3451:1 3452:1 3453:1 3454:1 3633:1 3819:1 3845:1 3979:1 4015:1 4251:1 4293:1 4474:1 4484:1 4514:1 4528:1 4731:1 4763:1 4778:1 4839:1 5092:1 5368:1 5411:1 5542:1 5734:1 5753:1 
0 0 0.06684025044309641 482:1 610:1 816:1 817:1 1243:1 1244:1 1245:1 1308:1 1470:1 1500:1 1501:1 1643:1 1644:1 1666:1 1929:1 2002:1 2045:1 2146:1 2176:1 2255:1 2627:1 2634:1 2673:1 2726:1 2727:1 2769:1 3066:1 3067:1 3272:1 3443:1 3451:1 3452:1 3453:1 3454:1 3633:1 3730:1 3819:1 3845:1 3979:1 4015:1 4251:1 4283:1 4528:1 4529:1 4598:1 4731:1 4778:1 4975:1 4977:1 5092:1 5368:1 5370:1 5618:1 5619:1 6275:1 
0.1967675832536862 0.1514586592872808 0.1638134235559538 816:1 1273:1 1643:1 1736:1 1764:1 1811:1 1838:1 1841:1 1929:1 2146:1 2176:1 2384:1 2634:1 3272:1 3443:1 3451:1 3452:1 3453:1 3454:1 3633:1 3819:1 3845:1 3979:1 4528:1 4731:1 4778:1 4864:1 4873:1 4879:1 4906:1 4912:1 5092:1 5368:1 5542:1 5734:1 5819:1 
0.1044614236143565 0.5475015514764551 0.1170112071127435 482:1 775:1 787:1 816:1 1243:1 1244:1 1246:1 1267:1 1270:1 1308:1 1643:1 1794:1 1797:1 1929:1 2146:1 2176:1 2302:1 2407:1 2510:1 2634:1 2673:1 3066:1 3270:1 3272:1 3443:1 3451:1 3452:1 3453:1 3454:1 3633:1 3672:1 3845:1 3926:1 3979:1 4015:1 4528:1 4731:1 4749:1 4778:1 5036:1 5092:1 5368:1 5728:1 5731:1 5732:1 5734:1 5753:1 6233:1 
0.0006542441630603472 0.1607151687514939 0.05451242021997216 112:1 137:1 139:1 157:1 295:1 376:1 816:1 894:1 1055:1 1308:1 1470:1 1643:1 1736:1 1764:1 1768:1 1769:1 1794:1 1807:1 1881:1 1901:1 1919:1 1929:1 2146:1 2176:1 2407:1 2549:1 2580:1 2634:1 2843:1 2847:1 2968:1 3272:1 3443:1 3451:1 3452:1 3453:1 3454:1 3590:1 3593:1 3594:1 3633:1 3672:1 3709:1 3819:1 3845:1 3911:1 3979:1 4015:1 4112:1 4251:1 4293:1 4298:1 4317:1 4321:1 4528:1 4731:1 4763:1 4778:1 4947:1 4975:1 5018:1 5092:1 5193:1 5283:1 5327:1 5368:1 5370:1 5378:1 5411:1 5479:1 5734:1 5739:1 5740:1 5742:1 5852:1 5853:1 5865:1 6034:1 6230:1 
0 0.01954730008790688 0.04492189468886112 816:1 978:1 1308:1 1454:1 1460:1 1470:1 1545:1 1643:1 1702:1 1736:1 1764:1 1929:1 2000:1 2002:1 2146:1 2634:1 2645:1 2968:1 3065:1 3066:1 3272:1 3443:1 3451:1 3452:1 3453:1 3454:1 3633:1 3672:1 3819:1 3845:1 3876:1 3878:1 3880:1 3979:1 4015:1 4528:1 4731:1 4778:1 5030:1 5035:1 5092:1 5368:1 5734:1 5789:1 5852:1 5925:1 5941:1 5943:1 6233:1 
0.1014122521212686 0.2363864726846207 0 482:1 816:1 925:1 943:1 948:1 1308:1 1643:1 1666:1 1674:1 1702:1 1929:1 2146:1 2407:1 2489:1 2502:1 2634:1 2893:1 2937:1 2968:1 3066:1 3272:1 3274:1 3360:1 3443:1 3451:1 3452:1 3453:1 3454:1 3515:1 3558:1 3633:1 3672:1 3682:1 3684:1 3845:1 3970:1 3979:1 4015:1 4221:1 4317:1 4319:1 4528:1 4731:1 4778:1 4975:1 5025:1 5026:1 5092:1 5368:1 5411:1 6233:1 
0 0.06614551918996243 0.02261829699043034 253:1 363:1 482:1 699:1 703:1 816:1 894:1 897:1 901:1 1308:1 1310:1 1339:1 1643:1 1666:1 1667:1 1702:1 1794:1 1811:1 1929:1 2064:1 2091:1 2146:1 2176:1 2634:1 2730:1 2880:1 2968:1 2988:1 3066:1 3193:1 3206:1 3272:1 3443:1 3451:1 3452:1 3453:1 3454:1 3626:1 3633:1 3634:1 3670:1 3730:1 3845:1 3930:1 3979:1 4015:1 4017:1 4041:1 4056:1 4057:1 4160:1 4528:1 4529:1 4731:1 4778:1 4780:1 5092:1 5355:1 5360:1 5368:1 5734:1 5812:1 5823:1 5830:1 5831:1 6034:1 6128:1 6145:1 6146:1 6233:1 
0.0501057121011846 0 0.009902980286688253 112:1 295:1 296:1 298:1 363:1 413:1 482:1 610:1 625:1 626:1 816:1 817:1 871:1 999:1 1267:1 1308:1 1368:1 1373:1 1374:1 1643:1 1702:1 1794:1 1929:1 2146:1 2176:1 2177:1 2201:1 2634:1 2673:1 2674:1 3066:1 3067:1 3193:1 3194:1 3272:1 3443:1 3451:1 3452:1 3453:1 3454:1 3633:1 3802:1 3806:1 3819:1 3845:1 3979:1 4015:1 4148:1 4251:1 4293:1 4528:1 4529:1 4731:1 4778:1 5092:1 5368:1 5411:1 5542:1 5551:1 5734:1 5852:1 5878:1 5884:1 6034:1 6166:1 6180:1 6182:1 
0.02067218158150898 0.210898898796917 0 112:1 295:1 296:1 298:1 363:1 413:1 482:1 610:1 625:1 816:1 817:1 871:1 999:1 1160:1 1172:1 1267:1 1308:1 1368:1 1373:1 1374:1 1643:1 1794:1 1929:1 2146:1 2176:1 2177:1 2201:1 2634:1 2673:1 2674:1 2841:1 3066:1 3067:1 3153:1 3193:1 3194:1 3272:1 3443:1 3451:1 3452:1 3453:1 3454:1 3515:1 3542:1 3549:1 3550:1 3633:1 3819:1 3845:1 3903:1 3947:1 3979:1 4015:1 4148:1 4251:1 4268:1 4293:1 4528:1 4529:1 4731:1 4778:1 5092:1 5368:1 5411:1 5542:1 5551:1 5618:1 5619:1 5734:1 6034:1 6166:1 6180:1 6182:1 
0.007497086475167217 0 0 275:1 816:1 1643:1 1702:1 1736:1 1929:1 2146:1 2176:1 2407:1 2408:1 2453:1 2504:1 2634:1 2968:1 3050:1 3066:1 3257:1 3272:1 3274:1 3317:1 3326:1 3443:1 3451:1 3452:1 3453:1 3454:1 3633:1 3634:1 3655:1 3672:1 3821:1 3845:1 3979:1 4015:1 4317:1 4320:1 4528:1 4529:1 4731:1 4778:1 5092:1 5368:1 5734:1 
0.05481205333487862 0.4212843858867827 0 183:1 185:1 234:1 253:1 261:1 265:1 482:1 483:1 501:1 502:1 816:1 894:1 912:1 1308:1 1596:1 1607:1 1643:1 1794:1 1929:1 2146:1 2634:1 2651:1 2671:1 3066:1 3193:1 3272:1 3443:1 3451:1 3452:1 3453:1 3454:1 3633:1 3634:1 3655:1 3670:1 3845:1 3979:1 4528:1 4731:1 4740:1 4778:1 4975:1 5092:1 5193:1 5223:1 5233:1 5368:1 5411:1 5682:1 5734:1 5852:1 5878:1 
0 0.07155709205738413 0 816:1 978:1 1643:1 1929:1 2002:1 2146:1 2634:1 2645:1 2841:1 2968:1 3065:1 3066:1 3067:1 3082:1 3089:1 3272:1 3443:1 3451:1 3452:1 3453:1 3454:1 3633:1 3845:1 3884:1 3979:1 4015:1 4528:1 4731:1 4778:1 4975:1 5025:1 5027:1 5030:1 5035:1 5092:1 5368:1 5542:1 6233:1 6275:1 
0 0.06172308599211813 0 157:1 473:1 482:1 816:1 894:1 905:1 906:1 925:1 1308:1 1310:1 1349:1 1643:1 1736:1 1752:1 1764:1 1768:1 1794:1 1811:1 1824:1 1929:1 2146:1 2176:1 2177:1 2338:1 2357:1 2407:1 2634:1 2856:1 2864:1 2893:1 2932:1 2968:1 3032:1 3034:1 3272:1 3443:1 3451:1 3452:1 3453:1 3454:1 3633:1 3728:1 3819:1 3845:1 3869:1 3979:1 4015:1 4321:1 4329:1 4344:1 4528:1 4731:1 4778:1 4864:1 4906:1 4912:1 5092:1 5368:1 5411:1 5415:1 5479:1 5581:1 5582:1 5583:1 5852:1 5925:1 6233:1 
0 0.005918923384933846 0 46:1 56:1 112:1 234:1 265:1 482:1 483:1 501:1 502:1 610:1 816:1 817:1 894:1 912:1 1258:1 1259:1 1308:1 1310:1 1313:1 1596:1 1607:1 1643:1 1794:1 1929:1 2146:1 2176:1 2255:1 2627:1 2634:1 2651:1 2673:1 2730:1 3066:1 3153:1 3193:1 3206:1 3215:1 3272:1 3443:1 3451:1 3452:1 3453:1 3454:1 3633:1 3670:1 3845:1 3890:1 3903:1 3979:1 4528:1 4731:1 4740:1 4778:1 4780:1 4783:1 5092:1 5193:1 5223:1 5233:1 5368:1 5411:1 5434:1 5435:1 5436:1 5542:1 5543:1 5544:1 5734:1 5823:1 5824:1 5852:1 5878:1 6034:1 6128:1 6145:1 6146:1 
0 0.008035314993483308 0 360:1 412:1 816:1 1643:1 1736:1 1794:1 1797:1 1811:1 1929:1 2117:1 2134:1 2146:1 2176:1 2634:1 2658:1 2673:1 2674:1 2841:1 2856:1 3066:1 3193:1 3201:1 3206:1 3272:1 3274:1 3309:1 3316:1 3443:1 3451:1 3452:1 3453:1 3454:1 3476:1 3633:1 3845:1 3979:1 4474:1 4484:1 4528:1 4731:1 4778:1 5092:1 5283:1 5284:1 5302:1 5368:1 5370:1 5734:1 5805:1 5841:1 6034:1 6035:1 6051:1 
0.02077244092212888 0 0 46:1 112:1 172:1 180:1 308:1 325:1 333:1 482:1 816:1 1055:1 1074:1 1104:1 1105:1 1273:1 1308:1 1310:1 1326:1 1566:1 1643:1 1702:1 1794:1 1811:1 1929:1 2146:1 2407:1 2408:1 2410:1 2549:1 2575:1 2634:1 2841:1 3066:1 3272:1 3443:1 3451:1 3452:1 3453:1 3454:1 3485:1 3633:1 3730:1 3845:1 3911:1 3979:1 4015:1 4221:1 4317:1 4319:1 4321:1 4322:1 4455:1 4474:1 4484:1 4495:1 4528:1 4529:1 4596:1 4731:1 4763:1 4778:1 4864:1 5092:1 5368:1 5618:1 5619:1 5734:1 
0 0.001225697354195062 0 816:1 978:1 1199:1 1200:1 1308:1 1470:1 1471:1 1643:1 1702:1 1736:1 1764:1 1794:1 1797:1 1929:1 1968:1 1970:1 2146:1 2407:1 2549:1 2554:1 2627:1 2634:1 2651:1 2730:1 2733:1 2742:1 2893:1 2918:1 2968:1 3065:1 3066:1 3206:1 3272:1 3400:1 3408:1 3443:1 3451:1 3452:1 3453:1 3454:1 3633:1 3670:1 3819:1 3845:1 3873:1 3979:1 4015:1 4129:1 4133:1 4134:1 4251:1 4293:1 4528:1 4529:1 4567:1 4573:1 4731:1 4778:1 4864:1 4920:1 4927:1 4930:1 5030:1 5035:1 5092:1 5142:1 5368:1 5542:1 5852:1 5878:1 5884:1 5925:1 5983:1 6233:1 
0 1.37981372012218 0 816:1 1929:1 2146:1 2634:1 3272:1 3443:1 3451:1 3452:1 3453:1 3454:1 3845:1 3979:1 4528:1 4731:1 4778:1 5092:1 5368:1 
0.01369164298726284 0.008767532046905731 0 112:1 136:1 157:1 158:1 232:1 253:1 283:1 284:1 413:1 482:1 562:1 816:1 925:1 1308:1 1643:1 1687:1 1689:1 1692:1 1714:1 1736:1 1764:1 1794:1 1800:1 1929:1 2146:1 2176:1 2208:1 2227:1 2234:1 2235:1 2240:1 2407:1 2596:1 2634:1 2643:1 2673:1 2856:1 2968:1 3066:1 3153:1 3272:1 3274:1 3309:1 3317:1 3318:1 3319:1 3443:1 3451:1 3452:1 3453:1 3454:1 3633:1 3634:1 3672:1 3709:1 3725:1 3727:1 3730:1 3733:1 3819:1 3845:1 3979:1 4015:1 4189:1 4211:1 4528:1 4529:1 4731:1 4764:1 4778:1 5092:1 5193:1 5194:1 5199:1 5223:1 5226:1 5368:1 5370:1 5411:1 5542:1 5551:1 5563:1 5618:1 5734:1 5761:1 5766:1 6034:1 6035:1 6051:1 6057:1 6128:1 6275:1 6308:1 6311:1 
0 0.4038987319591467 0.01012740037819213 71:1 369:1 379:1 482:1 548:1 550:1 551:1 816:1 817:1 849:1 863:1 1308:1 1596:1 1643:1 1666:1 1702:1 1736:1 1753:1 1929:1 2002:1 2146:1 2176:1 2255:1 2634:1 2893:1 3066:1 3272:1 3443:1 3451:1 3452:1 3453:1 3454:1 3633:1 3845:1 3979:1 4015:1 4321:1 4384:1 4400:1 4528:1 4731:1 4778:1 5092:1 5142:1 5368:1 5682:1 5734:1 5819:1 5852:1 5853:1 5854:1 5978:1 6034:1 6035:1 6051:1 6052:1 
0.1515103988934993 0.1301188726868239 0.1463245467921568 482:1 775:1 816:1 1308:1 1421:1 1470:1 1542:1 1546:1 1570:1 1643:1 1666:1 1794:1 1929:1 2146:1 2176:1 2255:1 2273:1 2407:1 2549:1 2562:1 2563:1 2634:1 2730:1 2873:1 2890:1 2893:1 2932:1 3066:1 3272:1 3377:1 3443:1 3451:1 3452:1 3453:1 3454:1 3515:1 3558:1 3633:1 3670:1 3672:1 3845:1 3903:1 3911:1 3915:1 3926:1 3937:1 3947:1 3970:1 3979:1 4015:1 4251:1 4317:1 4528:1 4731:1 4778:1 4949:1 4963:1 4964:1 5092:1 5142:1 5193:1 5368:1 5596:1 5618:1 5652:1 5655:1 5734:1 5852:1 5878:1 5978:1 5979:1 6034:1 6128:1 6145:1 6146:1 6151:1 6233:1 
0.004113475146905994 0 0 71:1 112:1 253:1 482:1 586:1 593:1 645:1 646:1 647:1 775:1 810:1 811:1 816:1 817:1 838:1 1308:1 1310:1 1408:1 1643:1 1714:1 1736:1 1764:1 1794:1 1811:1 1827:1 1828:1 1929:1 2146:1 2407:1 2634:1 2968:1 3065:1 3066:1 3067:1 3075:1 3272:1 3274:1 3317:1 3443:1 3451:1 3452:1 3453:1 3454:1 3633:1 3634:1 3670:1 3672:1 3819:1 3845:1 3903:1 3979:1 4015:1 4017:1 4087:1 4088:1 4528:1 4731:1 4763:1 4778:1 4780:1 4791:1 4864:1 4902:1 4903:1 5030:1 5035:1 5092:1 5142:1 5143:1 5193:1 5194:1 5208:1 5209:1 5368:1 5370:1 5411:1 5456:1 5457:1 5734:1 5739:1 5851:1 6034:1 6166:1 6198:1 6233:1 6239:1 6275:1 
0 0.07263017020153625 0.004375774841016192 172:1 482:1 737:1 816:1 925:1 943:1 953:1 1308:1 1408:1 1616:1 1643:1 1702:1 1736:1 1794:1 1797:1 1929:1 2002:1 2046:1 2146:1 2407:1 2408:1 2453:1 2454:1 2456:1 2634:1 2643:1 2968:1 3066:1 3272:1 3443:1 3451:1 3452:1 3453:1 3454:1 3633:1 3845:1 3869:1 3979:1 4015:1 4189:1 4321:1 4384:1 4394:1 4399:1 4400:1 4405:1 4406:1 4528:1 4731:1 4763:1 4778:1 4975:1 4982:1 5092:1 5094:1 5142:1 5164:1 5165:1 5368:1 5542:1 5734:1 5761:1 5852:1 5983:1 6007:1 6011:1 6015:1 6034:1 6035:1 6051:1 6219:1 6275:1 6278:1 
0 0.007812281891820324 0 71:1 79:1 84:1 85:1 482:1 610:1 816:1 890:1 894:1 1308:1 1423:1 1424:1 1643:1 1736:1 1746:1 1764:1 1794:1 1811:1 1838:1 1929:1 2146:1 2176:1 2255:1 2269:1 2338:1 2355:1 2634:1 2673:1 2968:1 2988:1 3066:1 3067:1 3153:1 3272:1 3274:1 3345:1 3443:1 3451:1 3452:1 3453:1 3454:1 3633:1 3670:1 3672:1 3709:1 3730:1 3737:1 3819:1 3845:1 3858:1 3911:1 3975:1 3979:1 3988:1 3997:1 4015:1 4321:1 4329:1 4339:1 4474:1 4484:1 4528:1 4529:1 4558:1 4731:1 4778:1 4975:1 5092:1 5193:1 5261:1 5368:1 5542:1 5555:1 5588:1 5618:1 5619:1 5679:1 5709:1 5713:1 5725:1 5734:1 5842:1 5852:1 5878:1 5896:1 6034:1 6128:1 6163:1 
0.0486633213316256 0.63462008656411 0 265:1 268:1 482:1 816:1 925:1 1308:1 1596:1 1607:1 1643:1 1929:1 2146:1 2407:1 2634:1 2651:1 3272:1 3443:1 3451:1 3452:1 3453:1 3454:1 3633:1 3670:1 3845:1 3979:1 4528:1 4731:1 4740:1 4778:1 5092:1 5368:1 5411:1 5415:1 5416:1 6034:1 6073:1 
0 0 0.06589009667460488 46:1 279:1 425:1 481:1 482:1 816:1 978:1 999:1 1017:1 1267:1 1308:1 1470:1 1564:1 1643:1 1929:1 2146:1 2407:1 2596:1 2599:1 2634:1 2968:1 3005:1 3014:1 3066:1 3067:1 3072:1 3206:1 3246:1 3272:1 3274:1 3317:1 3328:1 3353:1 3443:1 3451:1 3452:1 3453:1 3454:1 3633:1 3672:1 3730:1 3845:1 3911:1 3979:1 3988:1 4015:1 4017:1 4056:1 4076:1 4321:1 4382:1 4528:1 4731:1 4763:1 4778:1 4863:1 4975:1 5054:1 5062:1 5092:1 5113:1 5117:1 5283:1 5368:1 5618:1 5652:1 5679:1 5734:1 5819:1 5852:1 5853:1 5875:1 6034:1 6073:1 6080:1 6275:1 6308:1 
0.01007526888425636 0.06026738334066171 0.03582166416689034 35:1 71:1 95:1 378:1 482:1 645:1 660:1 816:1 925:1 978:1 1308:1 1310:1 1311:1 1312:1 1339:1 1423:1 1555:1 1558:1 1643:1 1679:1 1736:1 1794:1 1852:1 1929:1 1998:1 2000:1 2146:1 2176:1 2407:1 2596:1 2634:1 2730:1 2893:1 2894:1 2930:1 2968:1 3066:1 3153:1 3262:1 3272:1 3443:1 3451:1 3452:1 3453:1 3454:1 3515:1 3555:1 3633:1 3670:1 3845:1 3937:1 3979:1 4004:1 4528:1 4558:1 4729:1 4731:1 4763:1 4778:1 5092:1 5368:1 5542:1 5563:1 5618:1 5648:1 5734:1 5739:1 5852:1 5853:1 5865:1 5878:1 5896:1 5917:1 5919:1 6034:1 6035:1 6038:1 6040:1 
0.03694837229866012 0.004409754404353471 0 35:1 39:1 40:1 482:1 562:1 563:1 610:1 748:1 816:1 1308:1 1408:1 1643:1 1666:1 1736:1 1746:1 1929:1 2146:1 2634:1 2651:1 2968:1 2988:1 3066:1 3153:1 3181:1 3272:1 3443:1 3451:1 3452:1 3453:1 3454:1 3633:1 3669:1 3670:1 3821:1 3845:1 3979:1 4528:1 4731:1 4778:1 5092:1 5368:1 5734:1 5850:1 
0 0.1755622501655609 0 1:1 21:1 482:1 610:1 613:1 737:1 816:1 1308:1 1643:1 1661:1 1663:1 1736:1 1794:1 1929:1 2146:1 2176:1 2208:1 2227:1 2229:1 2634:1 3066:1 3206:1 3221:1 3272:1 3443:1 3451:1 3452:1 3453:1 3454:1 3515:1 3633:1 3670:1 3672:1 3730:1 3845:1 3930:1 3979:1 3988:1 4015:1 4221:1 4246:1 4251:1 4308:1 4474:1 4484:1 4495:1 4528:1 4731:1 4778:1 4864:1 4873:1 4875:1 5092:1 5098:1 5113:1 5115:1 5116:1 5368:1 5618:1 5734:1 5789:1 5819:1 6219:1 6220:1 
0 0.03239980219076059 0.04466035360862404 35:1 482:1 756:1 816:1 1308:1 1467:1 1643:1 1674:1 1676:1 1702:1 1736:1 1811:1 1838:1 1852:1 1929:1 2064:1 2088:1 2146:1 2407:1 2626:1 2634:1 2672:1 2771:1 2893:1 2918:1 2968:1 3059:1 3060:1 3066:1 3117:1 3146:1 3193:1 3272:1 3427:1 3443:1 3451:1 3452:1 3453:1 3454:1 3633:1 3634:1 3636:1 3819:1 3845:1 3899:1 3937:1 3941:1 3979:1 4015:1 4129:1 4528:1 4731:1 4778:1 5092:1 5142:1 5160:1 5368:1 5734:1 5852:1 5878:1 6034:1 6128:1 6145:1 6154:1 6233:1 6275:1 6294:1 6295:1 
0.02503619171953622 0 0 71:1 201:1 265:1 282:1 308:1 325:1 816:1 1308:1 1470:1 1596:1 1607:1 1643:1 1702:1 1736:1 1811:1 1827:1 1929:1 2146:1 2176:1 2208:1 2227:1 2236:1 2634:1 2651:1 2893:1 2894:1 2913:1 2915:1 2967:1 2968:1 2988:1 2993:1 3032:1 3066:1 3153:1 3192:1 3272:1 3274:1 3280:1 3400:1 3404:1 3443:1 3451:1 3452:1 3453:1 3454:1 3633:1 3670:1 3840:1 3845:1 3979:1 3988:1 4015:1 4017:1 4051:1 4317:1 4528:1 4669:1 4731:1 4740:1 4763:1 4778:1 5092:1 5142:1 5368:1 5734:1 6034:1 6035:1 6233:1 6239:1 
0.02749379261970479 0 0 9:1 20:1 71:1 201:1 265:1 282:1 308:1 325:1 816:1 1308:1 1470:1 1596:1 1607:1 1643:1 1702:1 1736:1 1811:1 1827:1 1929:1 2146:1 2176:1 2208:1 2227:1 2236:1 2634:1 2651:1 2893:1 2894:1 2913:1 2915:1 2967:1 2968:1 2988:1 2993:1 3032:1 3066:1 3153:1 3192:1 3272:1 3274:1 3280:1 3317:1 3335:1 3400:1 3404:1 3443:1 3451:1 3452:1 3453:1 3454:1 3633:1 3670:1 3730:1 3840:1 3845:1 3979:1 3988:1 4015:1 4017:1 4051:1 4189:1 4317:1 4528:1 4669:1 4731:1 4740:1 4778:1 5092:1 5142:1 5368:1 5734:1 5852:1 5925:1 5946:1 6034:1 6035:1 6233:1 6239:1 6275:1 
0 0 0.01777356406562431 367:1 482:1 816:1 925:1 1160:1 1175:1 1267:1 1269:1 1308:1 1470:1 1534:1 1536:1 1537:1 1643:1 1644:1 1702:1 1811:1 1824:1 1929:1 2146:1 2407:1 2634:1 2673:1 3066:1 3067:1 3272:1 3443:1 3451:1 3452:1 3453:1 3454:1 3633:1 3819:1 3845:1 3903:1 3979:1 4015:1 4251:1 4302:1 4528:1 4658:1 4731:1 4778:1 4864:1 4865:1 4870:1 4975:1 5025:1 5080:1 5092:1 5142:1 5368:1 5542:1 5555:1 5618:1 5662:1 5852:1 5925:1 5959:1 5983:1 
0 0.04906579817601293 0 46:1 56:1 112:1 208:1 482:1 610:1 816:1 817:1 999:1 1011:1 1308:1 1310:1 1313:1 1339:1 1344:1 1596:1 1643:1 1736:1 1746:1 1764:1 1811:1 1812:1 1881:1 1901:1 1902:1 1929:1 2050:1 2055:1 2064:1 2101:1 2146:1 2634:1 2651:1 2673:1 3066:1 3067:1 3072:1 3117:1 3153:1 3159:1 3160:1 3206:1 3272:1 3274:1 3443:1 3451:1 3452:1 3453:1 3454:1 3633:1 3670:1 3819:1 3845:1 3979:1 4015:1 4017:1 4221:1 4222:1 4234:1 4528:1 4729:1 4731:1 4778:1 4839:1 5092:1 5283:1 5368:1 5370:1 5411:1 5465:1 5734:1 6230:1 
0.001820474872371067 0 0 46:1 295:1 482:1 483:1 505:1 513:1 684:1 685:1 816:1 1308:1 1408:1 1423:1 1643:1 1674:1 1685:1 1702:1 1714:1 1736:1 1794:1 1929:1 2146:1 2176:1 2208:1 2213:1 2333:1 2338:1 2341:1 2343:1 2407:1 2518:1 2549:1 2634:1 2673:1 2843:1 2968:1 3032:1 3066:1 3153:1 3272:1 3443:1 3451:1 3452:1 3453:1 3454:1 3633:1 3670:1 3672:1 3693:1 3757:1 3819:1 3845:1 3899:1 3923:1 3924:1 3937:1 3941:1 3945:1 3947:1 3979:1 3988:1 4015:1 4177:1 4178:1 4528:1 4529:1 4530:1 4542:1 4731:1 4763:1 4778:1 4949:1 4963:1 5092:1 5368:1 5525:1 5527:1 5542:1 5565:1 5590:1 5679:1 5734:1 5852:1 5878:1 5896:1 5909:1 6034:1 6166:1 6185:1 6189:1 
0.3256094016730834 0.04208873498274715 0.06679004671948247 112:1 308:1 325:1 333:1 384:1 386:1 816:1 890:1 894:1 897:1 999:1 1273:1 1308:1 1643:1 1659:1 1702:1 1736:1 1764:1 1881:1 1883:1 1884:1 1929:1 2146:1 2634:1 2843:1 3066:1 3117:1 3153:1 3206:1 3272:1 3443:1 3451:1 3452:1 3453:1 3454:1 3633:1 3819:1 3845:1 3979:1 4015:1 4221:1 4317:1 4319:1 4442:1 4528:1 4562:1 4731:1 4763:1 4778:1 5092:1 5368:1 5542:1 5543:1 5734:1 
0 0.01925426269622449 0.06846371425220786 71:1 79:1 88:1 467:1 816:1 890:1 1192:1 1197:1 1308:1 1643:1 1736:1 1764:1 1794:1 1929:1 2146:1 2634:1 2678:1 2684:1 2834:1 2878:1 3066:1 3067:1 3111:1 3113:1 3272:1 3443:1 3451:1 3452:1 3453:1 3454:1 3515:1 3564:1 3633:1 3672:1 3819:1 3845:1 3979:1 4474:1 4484:1 4528:1 4724:1 4731:1 4745:1 4778:1 5092:1 5183:1 5283:1 5305:1 5368:1 5411:1 5479:1 5542:1 5558:1 5559:1 5734:1 5753:1 5757:1 5852:1 5878:1 6034:1 6208:1 6209:1 
0.001682321705480438 0 0.0002761369985833964 283:1 816:1 894:1 923:1 999:1 1011:1 1308:1 1616:1 1643:1 1714:1 1721:1 1736:1 1742:1 1764:1 1794:1 1852:1 1860:1 1929:1 2146:1 2634:1 2673:1 2674:1 3066:1 3117:1 3153:1 3159:1 3160:1 3193:1 3272:1 3389:1 3443:1 3451:1 3452:1 3453:1 3454:1 3633:1 3819:1 3845:1 3979:1 4015:1 4251:1 4293:1 4298:1 4321:1 4383:1 4528:1 4637:1 4731:1 4763:1 4778:1 4864:1 4920:1 4927:1 4930:1 4931:1 5092:1 5368:1 5679:1 5734:1 5819:1 5852:1 5925:1 5929:1 
0 0.01071145903863286 0 183:1 187:1 482:1 645:1 665:1 666:1 816:1 925:1 978:1 1144:1 1308:1 1310:1 1326:1 1402:1 1403:1 1643:1 1702:1 1713:1 1714:1 1929:1 2146:1 2176:1 2407:1 2518:1 2523:1 2634:1 2678:1 2695:1 2698:1 2841:1 2880:1 3066:1 3117:1 3153:1 3205:1 3206:1 3215:1 3219:1 3272:1 3274:1 3295:1 3297:1 3443:1 3451:1 3452:1 3453:1 3454:1 3633:1 3819:1 3845:1 3858:1 3890:1 3911:1 3947:1 3979:1 4015:1 4017:1 4056:1 4221:1 4317:1 4474:1 4484:1 4528:1 4731:1 4778:1 5089:1 5092:1 5283:1 5333:1 5368:1 5411:1 5415:1 5588:1 5709:1 5711:1 5734:1 5819:1 5852:1 5878:1 5884:1 5886:1 6034:1 6128:1 6163:1 
0 0.04181020513606116 0 112:1 124:1 125:1 131:1 369:1 370:1 816:1 1308:1 1548:1 1643:1 1702:1 1736:1 1929:1 2146:1 2634:1 2873:1 3066:1 3272:1 3443:1 3451:1 3452:1 3453:1 3454:1 3485:1 3633:1 3730:1 3802:1 3803:1 3845:1 3979:1 4528:1 4529:1 4643:1 4731:1 4778:1 5092:1 5193:1 5368:1 5370:1 5398:1 5618:1 5619:1 5852:1 5853:1 5869:1 
0 0.01753074153849806 0 157:1 158:1 232:1 482:1 722:1 816:1 925:1 978:1 995:1 1308:1 1310:1 1317:1 1318:1 1408:1 1643:1 1674:1 1676:1 1736:1 1746:1 1794:1 1929:1 2002:1 2146:1 2176:1 2208:1 2227:1 2338:1 2369:1 2370:1 2407:1 2518:1 2523:1 2627:1 2634:1 2673:1 2843:1 2851:1 2873:1 2893:1 2918:1 2968:1 3066:1 3153:1 3184:1 3272:1 3443:1 3451:1 3452:1 3453:1 3454:1 3633:1 3669:1 3670:1 3730:1 3845:1 3979:1 4015:1 4251:1 4321:1 4384:1 4400:1 4403:1 4528:1 4731:1 4778:1 4839:1 5092:1 5142:1 5152:1 5153:1 5193:1 5368:1 5411:1 5415:1 5426:1 5618:1 5652:1 5734:1 5753:1 5757:1 5759:1 6034:1 6110:1 6275:1 6297:1 6299:1 
0 0 0.01619705907320002 35:1 232:1 369:1 482:1 816:1 978:1 1308:1 1423:1 1643:1 1674:1 1676:1 1736:1 1794:1 1852:1 1929:1 2146:1 2176:1 2177:1 2180:1 2208:1 2227:1 2338:1 2369:1 2373:1 2407:1 2408:1 2453:1 2514:1 2627:1 2634:1 2873:1 2968:1 3066:1 3153:1 3184:1 3272:1 3443:1 3451:1 3452:1 3453:1 3454:1 3633:1 3730:1 3819:1 3845:1 3911:1 3930:1 3979:1 3988:1 4015:1 4251:1 4263:1 4293:1 4298:1 4299:1 4528:1 4558:1 4644:1 4731:1 4745:1 4763:1 4778:1 4949:1 4953:1 4954:1 5092:1 5142:1 5152:1 5153:1 5193:1 5368:1 5370:1 5406:1 5734:1 5753:1 5757:1 5758:1 5852:1 5853:1 5865:1 5878:1 5896:1 5901:1 6034:1 6110:1 
0.02944033206217157 0.1879157541120096 0.0339917632705054 234:1 253:1 259:1 482:1 483:1 501:1 502:1 610:1 631:1 645:1 665:1 816:1 1308:1 1310:1 1352:1 1643:1 1687:1 1693:1 1794:1 1929:1 2146:1 2173:1 2176:1 2407:1 2634:1 2673:1 2674:1 3066:1 3193:1 3206:1 3215:1 3257:1 3270:1 3272:1 3390:1 3443:1 3451:1 3452:1 3453:1 3454:1 3633:1 3634:1 3845:1 3890:1 3979:1 3988:1 4528:1 4731:1 4778:1 4975:1 4982:1 4983:1 5092:1 5193:1 5245:1 5368:1 5542:1 5555:1 5557:1 5603:1 5613:1 5682:1 5734:1 5819:1 6034:1 6035:1 6051:1 6054:1 6233:1 6275:1 6308:1 
0 0 0.0005651155736447503 71:1 112:1 183:1 816:1 925:1 978:1 1055:1 1073:1 1267:1 1308:1 1310:1 1313:1 1643:1 1702:1 1714:1 1736:1 1881:1 1901:1 1903:1 1904:1 1929:1 2000:1 2146:1 2407:1 2408:1 2634:1 2651:1 2673:1 2841:1 3066:1 3067:1 3082:1 3117:1 3272:1 3443:1 3451:1 3452:1 3453:1 3454:1 3515:1 3602:1 3633:1 3634:1 3642:1 3672:1 3693:1 3845:1 3911:1 3979:1 4015:1 4017:1 4028:1 4221:1 4222:1 4227:1 4321:1 4376:1 4474:1 4484:1 4528:1 4731:1 4778:1 5054:1 5066:1 5092:1 5368:1 5370:1 5411:1 5468:1 5734:1 5739:1 5741:1 5744:1 6230:1 
0 0.02772249497066738 0.06968047113576159 157:1 425:1 482:1 571:1 816:1 925:1 943:1 1308:1 1470:1 1515:1 1643:1 1702:1 1852:1 1929:1 2146:1 2176:1 2407:1 2634:1 2841:1 3066:1 3117:1 3153:1 3159:1 3193:1 3272:1 3274:1 3294:1 3443:1 3451:1 3452:1 3453:1 3454:1 3845:1 3979:1 4528:1 4731:1 4778:1 5054:1 5062:1 5092:1 5368:1 5679:1 5734:1 
0.408984861981106 0 0 816:1 1643:1 1811:1 1929:1 2146:1 2634:1 2968:1 3065:1 3272:1 3443:1 3451:1 3452:1 3453:1 3454:1 3845:1 3979:1 4015:1 4528:1 4731:1 4763:1 4778:1 5030:1 5035:1 5092:1 5368:1 6233:1 6234:1 
0 0.09228880183422318 0.004382732864711862 112:1 379:1 481:1 482:1 483:1 524:1 816:1 894:1 905:1 907:1 909:1 978:1 1243:1 1244:1 1245:1 1308:1 1310:1 1428:1 1643:1 1644:1 1736:1 1764:1 1776:1 1781:1 1811:1 1852:1 1929:1 2146:1 2176:1 2208:1 2634:1 2841:1 3066:1 3193:1 3201:1 3206:1 3272:1 3443:1 3451:1 3452:1 3453:1 3454:1 3633:1 3819:1 3845:1 3890:1 3903:1 3979:1 4528:1 4731:1 4742:1 4778:1 4780:1 4791:1 5092:1 5097:1 5104:1 5105:1 5368:1 5542:1 5618:1 5662:1 5734:1 5739:1 5819:1 6275:1 6308:1 
0.03054558421967175 0.04847450726362871 0 35:1 71:1 95:1 97:1 234:1 265:1 482:1 483:1 501:1 816:1 925:1 1308:1 1596:1 1607:1 1643:1 1658:1 1666:1 1794:1 1929:1 2050:1 2146:1 2176:1 2208:1 2247:1 2407:1 2408:1 2409:1 2549:1 2551:1 2596:1 2634:1 2651:1 3066:1 3193:1 3257:1 3272:1 3443:1 3451:1 3452:1 3453:1 3454:1 3633:1 3634:1 3636:1 3670:1 3845:1 3979:1 4528:1 4731:1 4740:1 4750:1 4778:1 5092:1 5193:1 5223:1 5233:1 5236:1 5368:1 5411:1 5479:1 5499:1 5734:1 5753:1 5757:1 5852:1 5878:1 
0.05856032668476967 0.8666923390739096 0.1043486969971558 234:1 265:1 482:1 483:1 501:1 502:1 816:1 894:1 913:1 1308:1 1596:1 1607:1 1643:1 1794:1 1795:1 1929:1 2146:1 2634:1 2637:1 2651:1 2841:1 2968:1 3032:1 3036:1 3066:1 3153:1 3193:1 3272:1 3443:1 3451:1 3452:1 3453:1 3454:1 3633:1 3670:1 3845:1 3911:1 3979:1 4015:1 4221:1 4528:1 4529:1 4731:1 4740:1 4778:1 5092:1 5193:1 5223:1 5233:1 5368:1 5411:1 5679:1 5852:1 5878:1 6034:1 6204:1 6205:1 
0 1.478054311194277 0 816:1 925:1 1929:1 2146:1 2407:1 2634:1 2880:1 2881:1 3066:1 3067:1 3082:1 3089:1 3272:1 3443:1 3451:1 3452:1 3453:1 3454:1 3633:1 3730:1 3845:1 3911:1 3918:1 3919:1 3979:1 3988:1 3991:1 4528:1 4731:1 4778:1 5092:1 5368:1 5603:1 5604:1 5734:1 5739:1 5741:1 6275:1 
0 0.08450414485335001 0 71:1 392:1 417:1 816:1 978:1 1160:1 1164:1 1308:1 1470:1 1486:1 1487:1 1643:1 1929:1 2064:1 2101:1 2146:1 2176:1 2338:1 2354:1 2627:1 2634:1 2753:1 2756:1 2759:1 2841:1 3066:1 3272:1 3274:1 3443:1 3451:1 3452:1 3453:1 3454:1 3515:1 3542:1 3544:1 3633:1 3670:1 3725:1 3819:1 3845:1 3979:1 4015:1 4463:1 4466:1 4474:1 4484:1 4485:1 4489:1 4490:1 4528:1 4529:1 4729:1 4731:1 4778:1 4975:1 5092:1 5283:1 5309:1 5368:1 5370:1 5679:1 5734:1 5819:1 5852:1 6032:1 6275:1 
0.03178833874602148 0 0.1004547719949997 71:1 482:1 586:1 816:1 1308:1 1643:1 1687:1 1794:1 1929:1 2146:1 2407:1 2408:1 2422:1 2594:1 2634:1 2730:1 2968:1 3032:1 3040:1 3066:1 3272:1 3388:1 3443:1 3451:1 3452:1 3453:1 3454:1 3633:1 3670:1 3819:1 3845:1 3903:1 3979:1 4528:1 4731:1 4763:1 4778:1 5092:1 5368:1 5618:1 5652:1 5656:1 5662:1 6034:1 6128:1 6145:1 6146:1 
0.002658128560042022 0.04260368681899869 0 149:1 265:1 425:1 816:1 1116:1 1273:1 1308:1 1596:1 1607:1 1643:1 1736:1 1852:1 1866:1 1929:1 2050:1 2056:1 2146:1 2176:1 2208:1 2248:1 2407:1 2514:1 2549:1 2634:1 2651:1 2730:1 2893:1 2918:1 2968:1 2983:1 3066:1 3153:1 3178:1 3272:1 3443:1 3451:1 3452:1 3453:1 3454:1 3633:1 3634:1 3661:1 3670:1 3845:1 3921:1 3947:1 3979:1 4015:1 4528:1 4731:1 4740:1 4778:1 5092:1 5142:1 5368:1 5734:1 5819:1 5852:1 5878:1 6034:1 6128:1 6145:1 6146:1 6151:1 
0 0.1468558181503412 0.0428702873473276 71:1 112:1 131:1 265:1 379:1 816:1 894:1 1055:1 1073:1 1308:1 1426:1 1427:1 1596:1 1607:1 1643:1 1666:1 1794:1 1811:1 1825:1 1842:1 1852:1 1853:1 1929:1 2146:1 2159:1 2407:1 2408:1 2420:1 2421:1 2634:1 2651:1 2841:1 3066:1 3067:1 3082:1 3193:1 3194:1 3206:1 3272:1 3443:1 3451:1 3452:1 3453:1 3454:1 3515:1 3633:1 3670:1 3672:1 3699:1 3845:1 3869:1 3903:1 3911:1 3979:1 4015:1 4221:1 4222:1 4227:1 4228:1 4229:1 4455:1 4456:1 4528:1 4731:1 4740:1 4742:1 4778:1 4780:1 5092:1 5193:1 5283:1 5284:1 5368:1 5370:1 5581:1 5585:1 5734:1 5841:1 
0 0.0294691092678848 0 816:1 1308:1 1643:1 1736:1 1929:1 2146:1 2176:1 2177:1 2634:1 2678:1 2692:1 2730:1 2893:1 3066:1 3206:1 3257:1 3260:1 3266:1 3272:1 3393:1 3443:1 3451:1 3452:1 3453:1 3454:1 3515:1 3633:1 3670:1 3730:1 3736:1 3845:1 3869:1 3979:1 4528:1 4731:1 4778:1 5092:1 5368:1 5542:1 5558:1 5581:1 5585:1 5734:1 6034:1 6128:1 6145:1 6146:1 
0 0.01260366813098129 0 71:1 308:1 320:1 363:1 482:1 586:1 593:1 645:1 646:1 647:1 816:1 817:1 978:1 1643:1 1794:1 1929:1 2002:1 2146:1 2176:1 2255:1 2627:1 2634:1 2968:1 3066:1 3067:1 3075:1 3082:1 3089:1 3153:1 3206:1 3215:1 3272:1 3443:1 3451:1 3452:1 3453:1 3454:1 3633:1 3845:1 3890:1 3903:1 3979:1 4015:1 4017:1 4056:1 4057:1 4221:1 4251:1 4528:1 4529:1 4731:1 4778:1 5092:1 5142:1 5175:1 5176:1 5368:1 5411:1 5434:1 5435:1 5436:1 5542:1 6034:1 6073:1 6275:1 
0 0.04045787422079949 0 816:1 817:1 1122:1 1125:1 1308:1 1643:1 1929:1 2002:1 2064:1 2101:1 2146:1 2176:1 2255:1 2338:1 2382:1 2627:1 2634:1 2651:1 2730:1 3066:1 3067:1 3153:1 3191:1 3206:1 3215:1 3272:1 3274:1 3443:1 3451:1 3452:1 3453:1 3454:1 3633:1 3670:1 3725:1 3845:1 3858:1 3890:1 3903:1 3979:1 4015:1 4221:1 4222:1 4234:1 4251:1 4293:1 4528:1 4729:1 4731:1 4764:1 4778:1 5092:1 5094:1 5368:1 5370:1 5411:1 5434:1 5435:1 5436:1 5618:1 5662:1 5663:1 5734:1 5852:1 6034:1 6035:1 6051:1 6128:1 6145:1 6146:1 
0.1117694138363021 0.1085438311458991 0 71:1 816:1 999:1 1011:1 1012:1 1308:1 1470:1 1643:1 1736:1 1764:1 1794:1 1811:1 1824:1 1929:1 2146:1 2627:1 2634:1 2673:1 2841:1 3066:1 3153:1 3159:1 3160:1 3272:1 3443:1 3451:1 3452:1 3453:1 3454:1 3633:1 3819:1 3845:1 3979:1 4015:1 4189:1 4190:1 4321:1 4329:1 4344:1 4528:1 4731:1 4778:1 4864:1 4906:1 4912:1 4920:1 4927:1 4930:1 4935:1 5092:1 5283:1 5368:1 5411:1 5479:1 5542:1 5679:1 5709:1 5713:1 5715:1 5734:1 5852:1 5925:1 6034:1 6128:1 6163:1 6275:1 
0.08346083686253762 0.2104559072425761 0.006887890577223867 183:1 308:1 357:1 482:1 483:1 504:1 690:1 691:1 816:1 925:1 1308:1 1310:1 1339:1 1643:1 1658:1 1674:1 1676:1 1736:1 1794:1 1852:1 1929:1 1945:1 2146:1 2407:1 2514:1 2596:1 2634:1 2673:1 2873:1 2968:1 3066:1 3206:1 3227:1 3272:1 3443:1 3451:1 3452:1 3453:1 3454:1 3633:1 3634:1 3730:1 3737:1 3739:1 3821:1 3845:1 3899:1 3911:1 3937:1 3941:1 3979:1 4015:1 4528:1 4731:1 4778:1 5069:1 5070:1 5092:1 5193:1 5223:1 5368:1 5411:1 5734:1 6034:1 6113:1 6128:1 6162:1 
0.07968612243826727 0.3243569387818419 0 232:1 482:1 816:1 978:1 1267:1 1308:1 1643:1 1674:1 1687:1 1714:1 1716:1 1736:1 1794:1 1929:1 2117:1 2146:1 2176:1 2255:1 2267:1 2407:1 2627:1 2634:1 2763:1 2841:1 2873:1 2968:1 3066:1 3153:1 3184:1 3272:1 3362:1 3443:1 3451:1 3452:1 3453:1 3454:1 3633:1 3725:1 3730:1 3845:1 3979:1 4015:1 4528:1 4529:1 4614:1 4731:1 4764:1 4778:1 4864:1 4906:1 4909:1 5092:1 5142:1 5152:1 5153:1 5193:1 5223:1 5230:1 5272:1 5355:1 5364:1 5365:1 5368:1 5411:1 5479:1 5618:1 5672:1 5682:1 5734:1 5739:1 5819:1 6034:1 6110:1 6233:1 
0 0.03225347475063967 0.03110918231946687 71:1 95:1 96:1 144:1 308:1 309:1 314:1 384:1 482:1 610:1 816:1 817:1 822:1 823:1 824:1 925:1 1308:1 1643:1 1674:1 1702:1 1703:1 1794:1 1811:1 1817:1 1842:1 1929:1 2146:1 2176:1 2208:1 2214:1 2407:1 2408:1 2439:1 2441:1 2634:1 2968:1 3066:1 3067:1 3272:1 3274:1 3291:1 3443:1 3451:1 3452:1 3453:1 3454:1 3633:1 3670:1 3802:1 3806:1 3807:1 3845:1 3979:1 4015:1 4017:1 4056:1 4474:1 4484:1 4495:1 4528:1 4731:1 4763:1 4778:1 4839:1 4864:1 4920:1 5092:1 5193:1 5368:1 5406:1 5407:1 5618:1 5662:1 5734:1 5852:1 5878:1 5884:1 
