svm_type c_svc
kernel_type linear
nr_class 4
total_sv 1720
rho -1.00031 0.00387677 -1.00021 0.999861 0.999864 -0.999613
label 3 1 2 0
nr_sv 453 227 810 230
SV
0 0.3162691874598104 0 482:1 542:1 816:1 894:1 905:1 906:1 1308:1 1310:1 1326:1 1327:1 1643:1 1644:1 1736:1 1764:1 1768:1 1794:1 3067:1 3154:1 3175:1 3634:1 3820:1 3846:1 3904:1 3971:1 4528:1 4778:1 5193:1 5248:1 5253:1 5368:1 5411:1 5479:1 
0.0524223001113537 0 0 71:1 79:1 234:1 308:1 325:1 816:1 817:1 820:1 821:1 890:1 925:1 943:1 1054:1 1308:1 1310:1 1394:1 1470:1 1643:1 1702:1 1714:1 1736:1 1746:1 1794:1 1929:1 2002:1 2160:1 2171:1 2407:1 2408:1 2464:1 2519:1 2550:1 2635:1 2842:1 2844:1 2849:1 2874:1 3067:1 3194:1 3273:1 3275:1 3415:1 3634:1 3635:1 3671:1 3793:1 3794:1 3795:1 3846:1 3904:1 4015:1 4017:1 4035:1 4038:1 4317:1 4528:1 4778:1 4780:1 4823:1 4864:1 4906:1 4907:1 4975:1 5023:1 5193:1 5223:1 5248:1 5368:1 5411:1 5456:1 5457:1 5542:1 5734:1 6034:1 6116:1 6275:1 
0 0.1034918667714536 0 183:1 190:1 816:1 894:1 1055:1 1063:1 1138:1 1201:1 1202:1 1203:1 1267:1 1308:1 1310:1 1326:1 1643:1 1794:1 1852:1 1860:1 1929:1 1948:1 2117:1 2118:1 2176:1 2338:1 2348:1 2349:1 2842:1 2857:1 3067:1 3118:1 3273:1 3275:1 3296:1 3444:1 3460:1 3511:1 3516:1 3571:1 3634:1 3635:1 3673:1 3846:1 3912:1 3948:1 3980:1 4015:1 4017:1 4173:1 4174:1 4251:1 4321:1 4384:1 4424:1 4429:1 4528:1 4529:1 4731:1 4778:1 5368:1 5411:1 5479:1 5496:1 5542:1 5571:1 5618:1 5648:1 5679:1 5709:1 5713:1 5715:1 5734:1 5819:1 5850:1 6034:1 6128:1 6163:1 
0.2304045017038535 1.377232591757557 0.2442556757772907 157:1 816:1 925:1 959:1 1643:1 1811:1 1838:1 1839:1 2176:1 2407:1 2519:1 2674:1 2675:1 2679:1 2685:1 2686:1 3067:1 3194:1 3207:1 3224:1 3273:1 3424:1 3425:1 3846:1 3904:1 4528:1 4763:1 4778:1 4780:1 5368:1 
0.2618652129822289 0.7341779311592231 0.1272620228051582 279:1 482:1 645:1 651:1 816:1 1055:1 1074:1 1075:1 1643:1 1794:1 2407:1 2519:1 2969:1 3030:1 3031:1 3067:1 3068:1 3273:1 3634:1 3731:1 3846:1 3912:1 4015:1 4017:1 4528:1 4778:1 5193:1 5368:1 5411:1 5479:1 5679:1 5709:1 5713:1 5715:1 6034:1 6120:1 6128:1 6163:1 
0.1558900584951969 0.3335251835242249 0.09379252778498305 308:1 325:1 351:1 482:1 586:1 588:1 816:1 1243:1 1255:1 1308:1 1310:1 1316:1 1423:1 1643:1 1674:1 1676:1 1693:1 1736:1 1794:1 1795:1 1929:1 2157:1 2158:1 2407:1 2408:1 2464:1 2842:1 2969:1 2989:1 2993:1 3067:1 3194:1 3273:1 3634:1 3822:1 3837:1 3846:1 3948:1 3963:1 4015:1 4317:1 4442:1 4528:1 4529:1 4764:1 4778:1 4839:1 4857:1 4858:1 5193:1 5248:1 5368:1 5542:1 5734:1 5766:1 5819:1 6034:1 6035:1 6051:1 6057:1 
0.05705805916531546 0.4865451579257585 0.4101188477994973 28:1 234:1 237:1 295:1 1643:1 1702:1 2176:1 3067:1 3194:1 3202:1 3207:1 3250:1 3254:1 3273:1 3516:1 3559:1 3634:1 3820:1 3846:1 3971:1 4528:1 4778:1 4864:1 4901:1 5368:1 5411:1 5447:1 5453:1 5852:1 5878:1 6034:1 6035:1 6050:1 
0.1708461734098484 0.01344732767820198 0.1071098705927682 112:1 482:1 576:1 585:1 816:1 894:1 1055:1 1074:1 1092:1 1099:1 1100:1 1308:1 1643:1 1736:1 1764:1 1794:1 1800:1 2407:1 2550:1 2679:1 2685:1 2693:1 2844:1 2845:1 2849:1 3067:1 3154:1 3273:1 3401:1 3409:1 3516:1 3634:1 3731:1 3820:1 3846:1 3912:1 4015:1 4017:1 4022:1 4221:1 4528:1 4778:1 4975:1 5007:1 5008:1 5009:1 5283:1 5368:1 5542:1 5734:1 5852:1 5853:1 
0 0.1752721354794565 0 308:1 325:1 333:1 384:1 1308:1 1643:1 1736:1 1746:1 1794:1 1811:1 2407:1 2550:1 2628:1 2674:1 2675:1 2844:1 2849:1 2894:1 2919:1 3067:1 3194:1 3202:1 3207:1 3273:1 3275:1 3348:1 3349:1 3444:1 3477:1 3516:1 3634:1 3671:1 3846:1 4015:1 4221:1 4317:1 4319:1 4528:1 4731:1 4763:1 4778:1 5054:1 5368:1 5411:1 5618:1 5648:1 5682:1 5692:1 5734:1 5819:1 5852:1 5878:1 5888:1 5925:1 
0 0.0134026774927804 0.04287863148386641 35:1 39:1 41:1 482:1 538:1 576:1 1308:1 1408:1 1470:1 1643:1 1666:1 1674:1 1676:1 1702:1 1736:1 1794:1 1852:1 2176:1 2208:1 2240:1 2249:1 2250:1 2407:1 2408:1 2487:1 2488:1 2515:1 2550:1 2552:1 2894:1 2933:1 3067:1 3118:1 3130:1 3273:1 3516:1 3556:1 3634:1 3670:1 3846:1 3870:1 3938:1 4004:1 4528:1 4778:1 5193:1 5223:1 5233:1 5368:1 5411:1 5852:1 5853:1 5865:1 5878:1 5896:1 5905:1 5910:1 5911:1 6034:1 6275:1 6294:1 
0 0.08292343461640946 0 417:1 816:1 925:1 1308:1 1310:1 1643:1 1794:1 2407:1 2519:1 2635:1 2644:1 2645:1 2857:1 3273:1 3516:1 3525:1 3634:1 3673:1 3710:1 3846:1 3870:1 3971:1 4015:1 4017:1 4106:1 4115:1 4528:1 4644:1 4646:1 4731:1 4763:1 4778:1 5193:1 5194:1 5208:1 5248:1 5253:1 5368:1 5370:1 5411:1 5479:1 5679:1 6034:1 
0.7841078075478283 2.149182013253326 0 816:1 890:1 
0.05729344232077402 0 0.05731265743841498 308:1 309:1 816:1 1643:1 1811:1 1929:1 2147:1 2407:1 2408:1 2887:1 2894:1 2895:1 2917:1 2918:1 2969:1 3067:1 3207:1 3244:1 3245:1 3634:1 3673:1 3846:1 3980:1 4015:1 4017:1 4778:1 5193:1 5194:1 5368:1 5370:1 5501:1 5682:1 5734:1 5739:1 6233:1 6234:1 
0.1410339028873151 0 0.04850218306340413 71:1 308:1 320:1 321:1 325:1 333:1 342:1 363:1 482:1 645:1 665:1 816:1 817:1 978:1 1643:1 2176:1 2407:1 2550:1 2635:1 2842:1 2844:1 2849:1 3067:1 3068:1 3118:1 3154:1 3207:1 3216:1 3634:1 3846:1 3891:1 3948:1 4015:1 4017:1 4056:1 4057:1 4221:1 4251:1 4289:1 4290:1 4317:1 4319:1 4528:1 4529:1 5734:1 6034:1 6073:1 
0.01855277385677804 0 0 71:1 816:1 894:1 912:1 925:1 978:1 1643:1 1674:1 1929:1 1963:1 2117:1 2123:1 2125:1 2407:1 2844:1 2852:1 3846:1 4015:1 4251:1 4321:1 4381:1 4528:1 4778:1 5142:1 5158:1 5852:1 5853:1 
0.2399454935971954 0.1383398622616289 0.1751477426568898 295:1 308:1 325:1 333:1 816:1 1055:1 1059:1 1643:1 1644:1 3067:1 3273:1 3374:1 3375:1 3511:1 3512:1 3634:1 3820:1 3846:1 3912:1 3916:1 3938:1 3946:1 3948:1 4015:1 4115:1 4118:1 4221:1 4317:1 4319:1 4528:1 5368:1 
0.03502226427636383 0.08328873517672787 0.1211985062830945 112:1 245:1 816:1 1308:1 1454:1 1459:1 1470:1 1643:1 1702:1 1709:1 2176:1 2635:1 2788:1 2842:1 3067:1 3154:1 3634:1 3819:1 3846:1 4528:1 4562:1 4565:1 4778:1 5193:1 5194:1 5368:1 5370:1 5852:1 5925:1 5929:1 
0.05322190991735112 0 0 112:1 128:1 363:1 369:1 482:1 816:1 978:1 1308:1 1643:1 1661:1 1663:1 1736:1 1811:1 1842:1 1843:1 1929:1 2002:1 2023:1 2176:1 2208:1 2244:1 2628:1 2674:1 2842:1 3067:1 3154:1 3634:1 3822:1 3827:1 3846:1 3922:1 4015:1 4017:1 4056:1 4057:1 4063:1 4251:1 4293:1 4528:1 4529:1 4589:1 4778:1 4864:1 5193:1 5194:1 5368:1 5370:1 5542:1 5734:1 5852:1 5853:1 
0 0.1882810699095731 0.008806638012290252 112:1 126:1 482:1 1308:1 1310:1 1389:1 1393:1 1548:1 1643:1 1736:1 1746:1 1811:1 1842:1 1852:1 1929:1 2176:1 2177:1 2628:1 2630:1 2662:1 2857:1 2894:1 2895:1 2933:1 3067:1 3068:1 3118:1 3138:1 3147:1 3207:1 3224:1 3273:1 3444:1 3634:1 3671:1 3846:1 3904:1 3938:1 4015:1 4221:1 4474:1 4484:1 4495:1 4528:1 4644:1 4649:1 4778:1 5193:1 5223:1 5233:1 5238:1 5368:1 5411:1 5542:1 5546:1 5547:1 5734:1 5852:1 5878:1 6034:1 6166:1 6178:1 
0 0.02080188137550524 0 157:1 183:1 816:1 817:1 849:1 978:1 1308:1 1310:1 1643:1 1794:1 1800:1 1929:1 2002:1 2006:1 2176:1 2255:1 2263:1 2635:1 2637:1 2646:1 2652:1 2713:1 2767:1 3634:1 3635:1 3671:1 3731:1 3846:1 4015:1 4017:1 4027:1 4474:1 4484:1 4490:1 4495:1 4507:1 4508:1 4509:1 4528:1 4778:1 5193:1 5223:1 5233:1 5283:1 5284:1 5368:1 5411:1 5734:1 5852:1 5853:1 5857:1 5878:1 
0.1401270350205536 0.5289247245056555 0.1008371264609883 1643:1 1852:1 2176:1 2338:1 2367:1 2407:1 2519:1 2969:1 3006:1 3273:1 3511:1 3634:1 3846:1 3900:1 3902:1 4015:1 4321:1 4329:1 4359:1 4528:1 4778:1 5283:1 5333:1 5334:1 5368:1 5542:1 5679:1 5728:1 5731:1 5734:1 5766:1 5771:1 5819:1 6034:1 6120:1 6233:1 
0 10 0 
0.05152153658651436 0.02230895837619958 0.06903282060575398 308:1 325:1 333:1 336:1 482:1 610:1 816:1 978:1 999:1 1017:1 1273:1 1281:1 1308:1 1643:1 1714:1 1736:1 1764:1 2635:1 2646:1 2647:1 2652:1 2674:1 2857:1 3067:1 3068:1 3118:1 3207:1 3247:1 3273:1 3516:1 3517:1 3520:1 3522:1 3634:1 3819:1 3820:1 3846:1 3989:1 4015:1 4221:1 4317:1 4319:1 4528:1 4529:1 4778:1 4975:1 5080:1 5081:1 5368:1 5370:1 5618:1 5619:1 5639:1 5734:1 5852:1 5925:1 5975:1 
0.01812826037442989 0.05487455630302684 0 46:1 57:1 71:1 112:1 208:1 234:1 482:1 586:1 593:1 645:1 646:1 647:1 816:1 1308:1 1310:1 1470:1 1471:1 1643:1 1736:1 1783:1 1784:1 1794:1 1811:1 1929:1 1956:1 1957:1 2176:1 2177:1 2407:1 2408:1 2628:1 2652:1 2969:1 3067:1 3068:1 3076:1 3194:1 3634:1 3635:1 3644:1 3846:1 4015:1 4463:1 4464:1 4474:1 4528:1 4529:1 4610:1 4778:1 4975:1 5007:1 5368:1 5411:1 5734:1 5819:1 5852:1 5853:1 5925:1 5936:1 5972:1 5973:1 6231:1 
0.02095912820880652 0.1415831410898681 0.1486045758221061 816:1 925:1 1308:1 1643:1 1674:1 1677:1 1736:1 1746:1 1794:1 2176:1 2384:1 2407:1 2550:1 2597:1 2844:1 2849:1 2969:1 2989:1 3033:1 3067:1 3273:1 3510:1 3634:1 3671:1 3846:1 3859:1 3863:1 4015:1 4528:1 4759:1 4778:1 5193:1 5368:1 5852:1 5878:1 5896:1 5908:1 6034:1 6090:1 6091:1 
0.2998180067459345 10 1.595394821170631 4528:1 4763:1 5368:1 
0 0.07216316798972879 0.02454492157111556 112:1 1308:1 1470:1 1483:1 1643:1 1736:1 1746:1 1764:1 1811:1 2652:1 3067:1 3258:1 3634:1 3671:1 3820:1 3846:1 4528:1 4680:1 4681:1 4778:1 5283:1 5309:1 5368:1 5370:1 5734:1 5852:1 5878:1 5888:1 5890:1 5893:1 
0.008040681032569377 0 0.06092343845308809 183:1 190:1 425:1 447:1 455:1 456:1 816:1 1308:1 1452:1 1596:1 1643:1 1714:1 1736:1 1746:1 1860:1 1881:1 1901:1 1929:1 1950:1 2407:1 2408:1 2433:1 2550:1 2844:1 2849:1 2857:1 2969:1 3067:1 3118:1 3273:1 3275:1 3359:1 3371:1 3373:1 3634:1 3671:1 3673:1 3846:1 3971:1 3989:1 3991:1 4015:1 4528:1 4714:1 4778:1 5193:1 5248:1 5253:1 5368:1 5734:1 5789:1 5819:1 5852:1 5853:1 5857:1 5878:1 5888:1 5889:1 6034:1 6128:1 6145:1 6153:1 6230:1 
0.06307555196560131 0 0.001091719943071103 35:1 112:1 183:1 482:1 610:1 623:1 706:1 708:1 816:1 1308:1 1394:1 1408:1 1616:1 1643:1 1655:1 1702:1 1736:1 1788:1 1794:1 1852:1 1929:1 1945:1 2176:1 2208:1 2220:1 2227:1 2338:1 2407:1 2515:1 2635:1 2674:1 2794:1 2894:1 2969:1 3033:1 3046:1 3065:1 3067:1 3154:1 3194:1 3207:1 3634:1 3635:1 3637:1 3819:1 3846:1 3900:1 3938:1 3942:1 3971:1 3980:1 4015:1 4189:1 4191:1 4528:1 4529:1 4558:1 4778:1 5193:1 5223:1 5368:1 5411:1 5447:1 5453:1 5734:1 5813:1 5814:1 5852:1 5878:1 5896:1 5910:1 5912:1 6034:1 6035:1 6038:1 6039:1 6128:1 6275:1 6297:1 
0 10 0.2286235941029691 
0 4.23182198865636 0 482:1 1643:1 1929:1 1978:1 3846:1 3971:1 4528:1 4778:1 5193:1 5248:1 5253:1 5368:1 
0.1586783513465705 0.2325743055941308 0 482:1 757:1 766:1 1643:1 1736:1 1764:1 2176:1 2407:1 2597:1 3273:1 3401:1 3409:1 3516:1 3539:1 3540:1 3634:1 3820:1 3846:1 3893:1 3912:1 3916:1 3989:1 4528:1 4731:1 4752:1 5368:1 5734:1 5746:1 
0.09067950144227353 0.1084658830570433 0.04265739720909917 112:1 369:1 384:1 482:1 483:1 537:1 754:1 755:1 775:1 776:1 816:1 817:1 890:1 1055:1 1059:1 1308:1 1470:1 1643:1 2176:1 3273:1 3275:1 3348:1 3350:1 3634:1 3846:1 3912:1 3916:1 4015:1 4017:1 4528:1 4562:1 4565:1 4719:1 4763:1 5368:1 5542:1 5563:1 5615:1 5617:1 5734:1 5739:1 6034:1 6233:1 
0.2855323585956345 0.351269510951931 0.158707568398424 183:1 275:1 816:1 1273:1 1300:1 1301:1 1308:1 1470:1 1514:1 1643:1 1794:1 2176:1 2407:1 2408:1 2439:1 2448:1 2773:1 3634:1 3673:1 4528:1 4778:1 4949:1 4952:1 5368:1 5411:1 5734:1 5819:1 6232:1 
0.2451242052664426 0.3163492205106963 0.1555532538157428 482:1 645:1 662:1 1308:1 1451:1 1616:1 1630:1 1643:1 1852:1 2857:1 3067:1 3154:1 3273:1 3602:1 4528:1 5368:1 5679:1 5734:1 5766:1 
0.03507836378758402 0.04755317913361379 0.1000270123557054 183:1 379:1 816:1 1183:1 1308:1 1454:1 1462:1 1463:1 1643:1 1794:1 1811:1 1842:1 1852:1 1929:1 2002:1 2176:1 2285:1 2894:1 2919:1 3067:1 3207:1 3846:1 3904:1 3938:1 3989:1 4015:1 4017:1 4528:1 4529:1 4778:1 5193:1 5368:1 5411:1 5479:1 5734:1 5852:1 5983:1 6020:1 6027:1 
0 0.06902888311734226 0.02230284387826412 308:1 325:1 482:1 548:1 549:1 576:1 1308:1 1310:1 1326:1 1331:1 1643:1 1666:1 1702:1 1736:1 2176:1 2208:1 2223:1 2673:1 2894:1 2895:1 2931:1 2969:1 3065:1 3067:1 3154:1 3273:1 3444:1 3467:1 3468:1 3634:1 3846:1 3897:1 4015:1 4317:1 5368:1 6034:1 6128:1 
0.04858129462229434 0 0 46:1 57:1 112:1 308:1 325:1 333:1 482:1 586:1 591:1 645:1 657:1 658:1 816:1 925:1 1308:1 1423:1 1643:1 1658:1 1736:1 1794:1 1852:1 2176:1 2208:1 2227:1 2229:1 2407:1 2519:1 2550:1 2597:1 2844:1 2845:1 2879:1 3067:1 3118:1 3147:1 3258:1 3634:1 3673:1 3846:1 3904:1 4015:1 4017:1 4022:1 4221:1 4317:1 4319:1 4321:1 4329:1 4337:1 4528:1 4585:1 4778:1 5193:1 5194:1 5368:1 5370:1 5372:1 5373:1 5374:1 5411:1 5479:1 5852:1 5983:1 6007:1 6034:1 6096:1 
0 0.3355516741678891 0.0498857406671381 46:1 112:1 482:1 586:1 591:1 1308:1 1643:1 1736:1 1794:1 2176:1 2208:1 2227:1 2229:1 2407:1 2550:1 2844:1 2845:1 3067:1 3258:1 3634:1 3673:1 3846:1 3904:1 4015:1 4017:1 4022:1 4528:1 5368:1 
0 0 0.06157632420200292 308:1 309:1 402:1 406:1 407:1 816:1 817:1 925:1 932:1 1308:1 1310:1 1643:1 1811:1 1838:1 1929:1 2002:1 2020:1 2064:1 2066:1 2407:1 2408:1 2635:1 2674:1 2731:1 2754:1 2757:1 2857:1 2874:1 3067:1 3273:1 3634:1 3671:1 3726:1 3846:1 3870:1 4015:1 4017:1 4189:1 4210:1 4528:1 4529:1 4729:1 4778:1 4975:1 5193:1 5368:1 5370:1 5542:1 5543:1 5544:1 5563:1 5852:1 5853:1 5925:1 5972:1 
0.5166094277957969 4.206857164827008 0.7693817673046093 1643:1 2407:1 2550:1 2844:1 2849:1 3634:1 3846:1 3971:1 4015:1 4528:1 4778:1 5193:1 5248:1 5253:1 5368:1 
0.03904420941260092 0 0.07688071234997945 275:1 276:1 482:1 599:1 816:1 925:1 970:1 972:1 1643:1 1674:1 1702:1 1811:1 1842:1 2176:1 2208:1 2407:1 2595:1 2874:1 3067:1 3273:1 3275:1 3516:1 3559:1 3634:1 3846:1 3971:1 4528:1 4778:1 5193:1 5368:1 5618:1 5648:1 5649:1 
0.0476623187200807 0.2651435141933115 0.438312398663555 482:1 599:1 816:1 894:1 925:1 943:1 948:1 1306:1 1308:1 1358:1 1643:1 1674:1 1794:1 1811:1 1842:1 1929:1 2000:1 2407:1 2489:1 2635:1 2638:1 2969:1 3028:1 3067:1 3273:1 3516:1 3559:1 3634:1 3673:1 3683:1 3846:1 3875:1 3971:1 4015:1 4321:1 4365:1 4528:1 4778:1 5193:1 5368:1 6233:1 
0.1213955226447047 0.2988933047269225 0.03473929027885374 482:1 599:1 816:1 925:1 943:1 948:1 1180:1 1643:1 1794:1 1811:1 1842:1 1927:1 2407:1 2489:1 2546:1 2969:1 3273:1 3634:1 3846:1 3984:1 4528:1 4778:1 4975:1 5025:1 5026:1 5193:1 5368:1 5411:1 5734:1 5750:1 5751:1 5852:1 5878:1 6034:1 6233:1 6260:1 
0.02166997907737476 0.6076499215595188 0.08079155820879423 71:1 369:1 447:1 455:1 816:1 999:1 1643:1 1702:1 1712:1 1811:1 1852:1 2407:1 2408:1 2469:1 2498:1 2501:1 2894:1 2895:1 2897:1 2969:1 2989:1 3067:1 3194:1 3202:1 3207:1 3273:1 3422:1 3516:1 3559:1 3571:1 3573:1 3578:1 3846:1 3971:1 4528:1 4778:1 4949:1 4975:1 5025:1 5026:1 5368:1 5411:1 5852:1 5878:1 6233:1 
0.03770760344168829 0 0 112:1 131:1 816:1 978:1 1055:1 1074:1 1109:1 1308:1 1643:1 1693:1 1860:1 2628:1 2635:1 2646:1 2652:1 2767:1 3273:1 3440:1 3634:1 3671:1 3731:1 3846:1 3912:1 4015:1 4470:1 4528:1 4621:1 5368:1 5370:1 5734:1 
0.09691629779863165 0.1182068427283942 0 482:1 775:1 808:1 816:1 1267:1 1308:1 1616:1 1643:1 1674:1 1702:1 1714:1 1721:1 1929:1 2117:1 2123:1 2125:1 2407:1 2508:1 2519:1 2796:1 2844:1 2894:1 2919:1 2927:1 2928:1 3067:1 3273:1 3516:1 3559:1 3634:1 3819:1 3846:1 3870:1 3971:1 4015:1 4321:1 4384:1 4394:1 4396:1 4397:1 4528:1 4731:1 4764:1 4778:1 4949:1 4958:1 5193:1 5368:1 5618:1 5672:1 5734:1 5739:1 6034:1 6233:1 
0.08392480000088395 0 0.08124824758053267 308:1 816:1 925:1 943:1 944:1 1308:1 1310:1 1349:1 1643:1 1674:1 1702:1 1714:1 1721:1 1794:1 1800:1 1929:1 2117:1 2123:1 2125:1 2151:1 2152:1 2407:1 2508:1 2519:1 2844:1 3067:1 3273:1 3846:1 3870:1 4015:1 4528:1 4778:1 4949:1 4958:1 5368:1 5581:1 5582:1 5583:1 5734:1 5852:1 5878:1 5896:1 5906:1 6233:1 
0.0999780982951988 0.1925029003358693 0.1210343490045524 482:1 706:1 708:1 816:1 925:1 1308:1 1570:1 1643:1 1655:1 1929:1 2146:1 2176:1 2312:1 2313:1 2407:1 2635:1 2969:1 3067:1 3273:1 3444:1 3452:1 3453:1 3454:1 3455:1 3634:1 3673:1 3846:1 3891:1 3900:1 3904:1 3927:1 3938:1 3942:1 3980:1 4015:1 4114:1 4528:1 4731:1 4778:1 5092:1 5104:1 5106:1 5368:1 5734:1 6034:1 6166:1 6180:1 
0 0.0405838148295249 0 71:1 103:1 107:1 108:1 150:1 232:1 262:1 295:1 379:1 382:1 816:1 1267:1 1308:1 1310:1 1326:1 1643:1 1736:1 1746:1 1929:1 2002:1 2023:1 2117:1 2118:1 2119:1 2176:1 2312:1 2313:1 2318:1 3067:1 3118:1 3154:1 3634:1 3671:1 3820:1 3846:1 3891:1 3938:1 4015:1 4017:1 4044:1 4134:1 4135:1 4528:1 4529:1 5368:1 5682:1 5734:1 5852:1 
0.05005729372125339 0.2834572906139847 0.152948159593726 308:1 325:1 333:1 816:1 1643:1 2176:1 2287:1 2289:1 2312:1 2313:1 2635:1 2842:1 3067:1 3273:1 3623:1 3634:1 3673:1 3846:1 3891:1 3938:1 4015:1 4221:1 4317:1 4319:1 4778:1 4975:1 5734:1 5789:1 
0.008117123076389786 0.2688157266325807 0 71:1 112:1 234:1 308:1 379:1 392:1 393:1 394:1 396:1 402:1 404:1 482:1 483:1 514:1 522:1 645:1 816:1 817:1 834:1 843:1 999:1 1004:1 1122:1 1308:1 1310:1 1349:1 1643:1 1666:1 1852:1 1929:1 2002:1 2176:1 2312:1 2313:1 2407:1 2550:1 2572:1 2628:1 2969:1 2989:1 3067:1 3068:1 3194:1 3273:1 3275:1 3342:1 3343:1 3634:1 3726:1 3846:1 3870:1 3891:1 3938:1 4015:1 4528:1 4731:1 4745:1 4778:1 4864:1 4939:1 4975:1 5368:1 5581:1 5582:1 5583:1 6233:1 6252:1 
0 0.002901598267259174 0 71:1 112:1 113:1 392:1 393:1 394:1 402:1 447:1 459:1 816:1 999:1 1004:1 1243:1 1244:1 1246:1 1247:1 1308:1 1310:1 1349:1 1580:1 1643:1 1666:1 1929:1 2002:1 2176:1 2312:1 2313:1 2407:1 2486:1 2628:1 2731:1 3067:1 3068:1 3273:1 3444:1 3480:1 3634:1 3671:1 3846:1 3870:1 3891:1 3938:1 3980:1 4528:1 4778:1 4864:1 4975:1 5368:1 5542:1 5581:1 5582:1 5583:1 5852:1 5925:1 6233:1 
0 0.02561653675068716 0 35:1 157:1 482:1 610:1 623:1 645:1 661:1 1308:1 1310:1 1339:1 1470:1 1486:1 1643:1 1674:1 1676:1 1702:1 1736:1 1794:1 1852:1 2176:1 2312:1 2313:1 2673:1 2894:1 2919:1 2969:1 2973:1 3067:1 3118:1 3147:1 3154:1 3194:1 3273:1 3634:1 3846:1 3891:1 3912:1 3938:1 3948:1 4015:1 4528:1 4529:1 4778:1 4975:1 5025:1 5026:1 5193:1 5223:1 5227:1 5368:1 5411:1 5447:1 5453:1 5852:1 5853:1 5874:1 6025:1 6034:1 6035:1 6038:1 6063:1 6094:1 
0 0.09933012354566531 0 417:1 816:1 925:1 1643:1 1674:1 1794:1 1929:1 2117:1 2123:1 2125:1 2176:1 2312:1 2313:1 2407:1 3067:1 3273:1 3275:1 3354:1 3358:1 3634:1 3673:1 3846:1 3891:1 3938:1 4015:1 4528:1 4567:1 4763:1 4778:1 5142:1 5158:1 5368:1 5411:1 5479:1 5679:1 5709:1 5713:1 5715:1 6034:1 6128:1 6163:1 
0 9.754800972767839 0 265:1 816:1 894:1 925:1 1243:1 1308:1 1596:1 1607:1 1643:1 2176:1 2312:1 2313:1 2407:1 2635:1 2638:1 2644:1 2652:1 3067:1 3634:1 3671:1 3846:1 3891:1 3938:1 4528:1 4731:1 4740:1 4778:1 4780:1 4814:1 4816:1 6034:1 6128:1 
0 10 0 208:1 473:1 1643:1 1881:1 2176:1 2177:1 2185:1 2312:1 2313:1 3067:1 3068:1 3634:1 3673:1 3722:1 3846:1 3891:1 3938:1 5734:1 6233:1 
0.03924686323234585 0.24429096846501 0.1451459721142288 201:1 816:1 1210:1 1643:1 1674:1 1702:1 1794:1 1929:1 1963:1 1964:1 2002:1 2010:1 2117:1 2123:1 2125:1 2176:1 2312:1 2313:1 2407:1 2408:1 2498:1 2500:1 2519:1 2597:1 2673:1 2674:1 2891:1 2969:1 2989:1 3006:1 3067:1 3118:1 3119:1 3194:1 3273:1 3634:1 3731:1 3846:1 3891:1 3900:1 3938:1 3980:1 4015:1 4177:1 4251:1 4266:1 4528:1 4759:1 4778:1 5193:1 5368:1 5734:1 5800:1 5852:1 5878:1 5896:1 6034:1 6128:1 6139:1 
0 0.29320718101315 0 71:1 79:1 89:1 482:1 610:1 612:1 816:1 890:1 1215:1 1308:1 1643:1 1852:1 1927:1 2176:1 2312:1 2313:1 2652:1 2894:1 2933:1 2969:1 3067:1 3273:1 3444:1 3503:1 3516:1 3543:1 3546:1 3634:1 3673:1 3700:1 3704:1 3820:1 3846:1 3891:1 3927:1 3938:1 3948:1 3980:1 3989:1 3993:1 4015:1 4251:1 4321:1 4384:1 4424:1 4429:1 4528:1 4731:1 4763:1 4778:1 5283:1 5288:1 5368:1 5734:1 5819:1 6034:1 6166:1 6185:1 6233:1 
0 0.07009363206149433 0.1334129301356631 391:1 402:1 425:1 426:1 482:1 645:1 665:1 816:1 817:1 867:1 894:1 925:1 1243:1 1308:1 1643:1 1736:1 1764:1 1794:1 1852:1 1866:1 1867:1 2176:1 2208:1 2312:1 2313:1 2407:1 2519:1 2635:1 2638:1 2644:1 2652:1 2894:1 2919:1 2926:1 3067:1 3068:1 3101:1 3207:1 3216:1 3634:1 3671:1 3820:1 3846:1 3891:1 3938:1 4015:1 4321:1 4384:1 4528:1 4731:1 4778:1 4780:1 4814:1 4816:1 4839:1 4864:1 4906:1 4975:1 4978:1 5368:1 5411:1 5479:1 5734:1 5739:1 5741:1 5807:1 5852:1 5878:1 6034:1 6128:1 6130:1 6132:1 6227:1 6275:1 
0 0.1656273364540606 0 265:1 816:1 978:1 980:1 1308:1 1354:1 1466:1 1470:1 1596:1 1607:1 1616:1 1643:1 1736:1 1881:1 1927:1 1928:1 2176:1 2312:1 2313:1 2652:1 2673:1 2674:1 2857:1 2861:1 2969:1 3067:1 3154:1 3273:1 3275:1 3634:1 3671:1 3673:1 3722:1 3731:1 3846:1 3891:1 3904:1 3910:1 3938:1 4528:1 4728:1 4731:1 4740:1 4778:1 5283:1 5319:1 5734:1 5749:1 5819:1 5820:1 6222:1 6224:1 6233:1 6239:1 6247:1 6268:1 
0 0.1435387893537382 0.06222529699685349 71:1 94:1 482:1 609:1 706:1 708:1 709:1 757:1 816:1 817:1 894:1 1243:1 1244:1 1308:1 1441:1 1643:1 1702:1 1794:1 1811:1 1827:1 1929:1 2002:1 2023:1 2176:1 2177:1 2312:1 2313:1 2749:1 2750:1 2842:1 2857:1 2881:1 2969:1 3067:1 3154:1 3156:1 3157:1 3160:1 3634:1 3726:1 3731:1 3846:1 3891:1 3900:1 3938:1 3942:1 4015:1 4221:1 4528:1 4731:1 4763:1 4778:1 4975:1 5025:1 5027:1 5142:1 5368:1 5542:1 5682:1 5734:1 5852:1 5925:1 5955:1 5983:1 6034:1 6073:1 6076:1 
0 0.01884523174937622 0.1498992444192988 275:1 367:1 816:1 925:1 1308:1 1423:1 1643:1 1644:1 1693:1 1696:1 1702:1 1794:1 1852:1 2176:1 2208:1 2312:1 2313:1 2384:1 2407:1 2969:1 2989:1 3067:1 3068:1 3083:1 3086:1 3087:1 3207:1 3216:1 3258:1 3273:1 3275:1 3342:1 3343:1 3634:1 3846:1 3870:1 3891:1 3938:1 4528:1 4759:1 4763:1 4778:1 4839:1 4864:1 4865:1 4870:1 4916:1 4920:1 5186:1 5368:1 5581:1 5734:1 5834:1 5836:1 5852:1 5878:1 5896:1 5914:1 5983:1 6007:1 
0 0.07862681486469286 0 183:1 482:1 610:1 2176:1 2287:1 2288:1 2312:1 2313:1 2674:1 3067:1 3273:1 3275:1 3296:1 3297:1 3516:1 3517:1 3520:1 3846:1 3891:1 3938:1 
0 0.09482766330461109 0 112:1 253:1 260:1 363:1 816:1 978:1 1267:1 1308:1 1310:1 1313:1 1379:1 1616:1 1643:1 1666:1 1736:1 1811:1 1929:1 2176:1 2255:1 2299:1 2312:1 2313:1 2652:1 2766:1 2842:1 2874:1 3067:1 3207:1 3258:1 3271:1 3634:1 3635:1 3803:1 3806:1 3846:1 3891:1 3904:1 3938:1 4015:1 4017:1 4056:1 4057:1 4251:1 4293:1 4528:1 4529:1 4616:1 4617:1 4618:1 4680:1 4681:1 4778:1 5036:1 5188:1 5193:1 5283:1 5284:1 5309:1 5368:1 5370:1 5618:1 5619:1 5627:1 5734:1 5739:1 5841:1 5852:1 5878:1 6233:1 
0 0.5749526752302078 0.2003112184097398 208:1 264:1 265:1 473:1 816:1 1308:1 1470:1 1533:1 1596:1 1607:1 1643:1 1881:1 2176:1 2177:1 2183:1 2312:1 2313:1 2407:1 2408:1 2439:1 2441:1 2443:1 2474:1 2496:1 2635:1 2652:1 2969:1 3067:1 3068:1 3116:1 3273:1 3444:1 3503:1 3634:1 3671:1 3673:1 3710:1 3717:1 3719:1 3722:1 3846:1 3891:1 3938:1 4015:1 4221:1 4222:1 4238:1 4528:1 4731:1 4740:1 4778:1 5142:1 5193:1 5242:1 5368:1 5542:1 5543:1 5734:1 6034:1 6233:1 
0 0.7050205425135834 0 2176:1 2312:1 2313:1 3067:1 3846:1 3891:1 3938:1 
0.007714359343051765 0.1656594414922888 0.02923649375856558 482:1 771:1 816:1 925:1 943:1 948:1 1183:1 1308:1 1643:1 1674:1 1676:1 1702:1 1736:1 1929:1 2176:1 2312:1 2313:1 2407:1 2489:1 2550:1 2652:1 2969:1 2989:1 3067:1 3154:1 3163:1 3273:1 3444:1 3492:1 3493:1 3494:1 3634:1 3756:1 3822:1 3838:1 3846:1 3891:1 3904:1 3932:1 3933:1 3938:1 3948:1 4015:1 4528:1 4567:1 4778:1 4949:1 4963:1 5368:1 5411:1 5734:1 5852:1 5925:1 5936:1 5938:1 6034:1 6073:1 6084:1 6087:1 6128:1 6145:1 6153:1 
0 0.2514985690780756 0.02579782319489638 157:1 164:1 482:1 609:1 775:1 779:1 816:1 817:1 828:1 1643:1 1736:1 1764:1 1794:1 1800:1 1881:1 1901:1 1907:1 1909:1 2176:1 2312:1 2313:1 2679:1 2685:1 3067:1 3068:1 3118:1 3194:1 3200:1 3273:1 3401:1 3409:1 3627:1 3634:1 3820:1 3846:1 3891:1 3938:1 4015:1 4528:1 4717:1 5368:1 5734:1 5852:1 5853:1 6034:1 6073:1 6076:1 6230:1 6233:1 
0 0.03011167767877031 0 263:1 295:1 816:1 894:1 925:1 1243:1 1308:1 1354:1 1596:1 1616:1 1633:1 1643:1 1702:1 1703:1 1714:1 1736:1 1764:1 1866:1 1867:1 1868:1 2176:1 2312:1 2313:1 2407:1 2550:1 2555:1 2635:1 2638:1 2644:1 2894:1 2919:1 3067:1 3068:1 3273:1 3634:1 3671:1 3820:1 3846:1 3891:1 3938:1 4528:1 4529:1 4542:1 4693:1 4694:1 4731:1 4740:1 4778:1 4780:1 4814:1 4816:1 5368:1 5734:1 5766:1 5819:1 5852:1 5878:1 5884:1 6034:1 6128:1 
0 0.01191540602464134 0 35:1 265:1 384:1 482:1 483:1 816:1 925:1 1308:1 1596:1 1607:1 1643:1 1644:1 1648:1 1794:1 1929:1 2176:1 2312:1 2313:1 2407:1 2597:1 2635:1 2644:1 2652:1 3067:1 3634:1 3671:1 3822:1 3823:1 3846:1 3891:1 3938:1 3948:1 4015:1 4321:1 4329:1 4528:1 4731:1 4740:1 4759:1 4763:1 4778:1 5142:1 5368:1 5406:1 5728:1 5729:1 5734:1 5852:1 5878:1 5896:1 6233:1 6275:1 6291:1 
0.01647709163000532 0 0.01776612006306588 183:1 187:1 189:1 482:1 706:1 708:1 816:1 1055:1 1074:1 1104:1 1107:1 1243:1 1308:1 1643:1 1655:1 1702:1 1736:1 1811:1 1838:1 1929:1 2176:1 2312:1 2313:1 2407:1 2408:1 2439:1 2440:1 2969:1 3067:1 3273:1 3275:1 3296:1 3298:1 3300:1 3318:1 3335:1 3634:1 3670:1 3820:1 3822:1 3846:1 3891:1 3900:1 3912:1 3938:1 3942:1 4015:1 4114:1 4321:1 4329:1 4354:1 4528:1 4778:1 4839:1 4857:1 4860:1 5368:1 5411:1 5734:1 6034:1 
0.0600873575581973 0.7208406850594884 0 208:1 425:1 438:1 440:1 473:1 1643:1 1881:1 1929:1 2064:1 2071:1 2176:1 2177:1 2183:1 2312:1 2313:1 3067:1 3068:1 3194:1 3202:1 3207:1 3254:1 3634:1 3673:1 3722:1 3846:1 3891:1 3904:1 3938:1 4778:1 5190:1 5191:1 5283:1 5319:1 5368:1 5734:1 6034:1 
0.03751952822267521 0.006499209534667506 0 112:1 183:1 308:1 413:1 482:1 483:1 610:1 816:1 1308:1 1353:1 1643:1 1666:1 1702:1 1714:1 1929:1 1945:1 2176:1 2312:1 2313:1 2635:1 2674:1 2894:1 2919:1 3067:1 3273:1 3444:1 3516:1 3517:1 3520:1 3634:1 3635:1 3651:1 3673:1 3681:1 3846:1 3891:1 3912:1 3938:1 3980:1 4015:1 4321:1 4384:1 4417:1 4528:1 4731:1 4743:1 4778:1 4780:1 4791:1 5190:1 5191:1 5193:1 5248:1 5283:1 5319:1 5368:1 5411:1 5447:1 5734:1 6275:1 6280:1 
0 5.940490641750397 0 208:1 265:1 473:1 1308:1 1596:1 1607:1 1643:1 1881:1 2176:1 2177:1 2183:1 2312:1 2313:1 2652:1 3067:1 3068:1 3634:1 3671:1 3673:1 3722:1 3846:1 3891:1 3938:1 4528:1 4731:1 4740:1 5734:1 
0 0.032116601331599 0.009142939873693971 112:1 265:1 482:1 816:1 894:1 925:1 1122:1 1128:1 1129:1 1243:1 1308:1 1433:1 1470:1 1534:1 1536:1 1537:1 1596:1 1607:1 1643:1 1736:1 1746:1 1794:1 1811:1 1929:1 2002:1 2042:1 2176:1 2208:1 2240:1 2255:1 2264:1 2265:1 2312:1 2313:1 2407:1 2635:1 2638:1 2644:1 2652:1 2857:1 2862:1 3067:1 3207:1 3273:1 3275:1 3634:1 3671:1 3726:1 3846:1 3870:1 3891:1 3938:1 3980:1 4015:1 4251:1 4302:1 4474:1 4484:1 4495:1 4528:1 4562:1 4729:1 4731:1 4740:1 4778:1 4780:1 4814:1 4816:1 4975:1 5025:1 5142:1 5368:1 5411:1 5465:1 5542:1 5581:1 5585:1 5734:1 5852:1 5983:1 6034:1 6128:1 
0 0.09096540222560495 0.077948872166699 201:1 417:1 1308:1 1643:1 1674:1 1676:1 1736:1 1764:1 1794:1 1869:1 1929:1 2002:1 2039:1 2176:1 2312:1 2313:1 2652:1 2673:1 2674:1 2857:1 2894:1 2947:1 2955:1 2969:1 3006:1 3067:1 3068:1 3116:1 3118:1 3119:1 3258:1 3273:1 3613:1 3615:1 3634:1 3673:1 3820:1 3846:1 3891:1 3938:1 3989:1 4015:1 4017:1 4221:1 4222:1 4238:1 4321:1 4384:1 4436:1 4528:1 4731:1 5368:1 5411:1 5439:1 5542:1 5603:1 5611:1 5612:1 5679:1 5734:1 5819:1 5852:1 5878:1 5896:1 5925:1 5936:1 6034:1 6128:1 6139:1 6233:1 
0 0.01308890323017182 0.1047614469099312 201:1 413:1 1308:1 1402:1 1643:1 1679:1 1682:1 1683:1 1714:1 1811:1 1838:1 1881:1 1929:1 2000:1 2064:1 2176:1 2255:1 2312:1 2313:1 2407:1 2408:1 2550:1 2557:1 2558:1 2673:1 2674:1 2857:1 2969:1 3006:1 3018:1 3067:1 3118:1 3119:1 3273:1 3634:1 3673:1 3710:1 3846:1 3891:1 3904:1 3905:1 3938:1 4474:1 4484:1 4514:1 4528:1 4529:1 4657:1 4763:1 4778:1 4864:1 5193:1 5261:1 5262:1 5368:1 5411:1 5497:1 5596:1 5618:1 5619:1 5682:1 5693:1 5734:1 5753:1 5819:1 5834:1 6034:1 6128:1 6139:1 
0 0 0.05338146978292301 71:1 95:1 265:1 482:1 599:1 610:1 816:1 894:1 925:1 1243:1 1308:1 1310:1 1402:1 1596:1 1607:1 1643:1 1714:1 1811:1 1842:1 1881:1 1929:1 2050:1 2057:1 2176:1 2312:1 2313:1 2384:1 2407:1 2474:1 2635:1 2638:1 2644:1 2652:1 2844:1 3067:1 3154:1 3273:1 3516:1 3517:1 3519:1 3634:1 3635:1 3639:1 3640:1 3671:1 3673:1 3722:1 3846:1 3891:1 3938:1 4015:1 4528:1 4731:1 4740:1 4778:1 4780:1 4814:1 4816:1 5190:1 5193:1 5283:1 5319:1 5368:1 5542:1 5551:1 5554:1 5734:1 6034:1 6128:1 
0 0.1583874925709214 0.1500033507771049 208:1 234:1 265:1 473:1 816:1 894:1 925:1 1243:1 1308:1 1596:1 1607:1 1643:1 1702:1 1736:1 1746:1 1748:1 1881:1 1929:1 2000:1 2002:1 2176:1 2177:1 2183:1 2312:1 2313:1 2407:1 2635:1 2638:1 2644:1 2652:1 3067:1 3068:1 3118:1 3154:1 3194:1 3273:1 3444:1 3503:1 3634:1 3671:1 3673:1 3722:1 3846:1 3882:1 3883:1 3891:1 3938:1 4528:1 4731:1 4740:1 4778:1 4780:1 4814:1 4816:1 5368:1 5734:1 5766:1 5852:1 5925:1 5936:1 5938:1 6034:1 6128:1 6275:1 6308:1 6312:1 
0 0.134281863380398 0 482:1 775:1 810:1 816:1 2176:1 2312:1 2313:1 2635:1 2894:1 2947:1 2950:1 2952:1 2969:1 3067:1 3846:1 3891:1 3938:1 5734:1 5753:1 5754:1 5851:1 6275:1 
0 10 0 2176:1 2312:1 2313:1 3067:1 3846:1 3891:1 3938:1 
0 0.1796919079561308 0 196:1 208:1 265:1 447:1 473:1 816:1 1265:1 1266:1 1308:1 1310:1 1596:1 1607:1 1643:1 1881:1 1929:1 2117:1 2134:1 2137:1 2176:1 2177:1 2183:1 2312:1 2313:1 2635:1 2652:1 2674:1 2842:1 2894:1 3067:1 3068:1 3273:1 3634:1 3635:1 3671:1 3673:1 3722:1 3846:1 3891:1 3938:1 4015:1 4251:1 4293:1 4298:1 4462:1 4528:1 4719:1 4731:1 4740:1 4763:1 4778:1 5054:1 5142:1 5174:1 5368:1 5734:1 5852:1 
0 0.02059590888267338 0.02141106362017008 71:1 392:1 393:1 394:1 402:1 482:1 610:1 640:1 816:1 894:1 999:1 1004:1 1113:1 1273:1 1290:1 1308:1 1310:1 1349:1 1366:1 1643:1 1666:1 1736:1 1794:1 1860:1 1861:1 1862:1 1929:1 2002:1 2176:1 2312:1 2313:1 2338:1 2369:1 2379:1 2384:1 2407:1 2628:1 2969:1 3067:1 3068:1 3207:1 3233:1 3634:1 3846:1 3870:1 3891:1 3900:1 3922:1 3938:1 3942:1 3948:1 3989:1 3999:1 4002:1 4015:1 4528:1 4731:1 4755:1 4778:1 4975:1 5193:1 5265:1 5267:1 5368:1 5581:1 5582:1 5583:1 5618:1 5648:1 5734:1 5819:1 6034:1 6213:1 6233:1 6275:1 
0.01471392607622043 0 0.02526172694252358 71:1 112:1 392:1 393:1 394:1 402:1 482:1 610:1 640:1 775:1 804:1 805:1 816:1 978:1 993:1 994:1 999:1 1004:1 1308:1 1310:1 1349:1 1643:1 1666:1 1674:1 1811:1 1838:1 1929:1 2000:1 2002:1 2018:1 2176:1 2312:1 2313:1 2338:1 2369:1 2375:1 2379:1 2407:1 2628:1 2635:1 2674:1 2844:1 2969:1 3067:1 3068:1 3118:1 3119:1 3120:1 3154:1 3634:1 3673:1 3846:1 3870:1 3877:1 3891:1 3938:1 3989:1 4015:1 4221:1 4528:1 4721:1 4731:1 4755:1 4778:1 4780:1 4837:1 4975:1 5007:1 5368:1 5542:1 5551:1 5581:1 5582:1 5583:1 5618:1 5652:1 5657:1 5658:1 5734:1 6034:1 6090:1 6213:1 6233:1 6275:1 
0 0.04542191405788357 0 71:1 369:1 384:1 392:1 393:1 394:1 402:1 482:1 610:1 640:1 816:1 999:1 1004:1 1308:1 1310:1 1349:1 1470:1 1471:1 1643:1 1666:1 1794:1 1860:1 1927:1 1928:1 1929:1 2002:1 2176:1 2312:1 2313:1 2407:1 2408:1 2453:1 2513:1 2519:1 2524:1 2525:1 2628:1 2731:1 2734:1 2735:1 2736:1 3067:1 3068:1 3273:1 3516:1 3571:1 3573:1 3576:1 3634:1 3671:1 3846:1 3859:1 3870:1 3891:1 3938:1 4015:1 4528:1 4691:1 4731:1 4763:1 4778:1 4949:1 4953:1 4975:1 5193:1 5194:1 5208:1 5211:1 5368:1 5370:1 5411:1 5479:1 5581:1 5582:1 5583:1 5734:1 6233:1 6239:1 6275:1 
0.04066579106067218 0.3215676332819165 0 157:1 158:1 159:1 172:1 482:1 610:1 631:1 816:1 1643:1 1644:1 1647:1 1736:1 1794:1 1807:1 1811:1 1838:1 2176:1 2208:1 2227:1 2312:1 2313:1 2407:1 2550:1 2572:1 3067:1 3118:1 3119:1 3124:1 3146:1 3634:1 3846:1 3891:1 3938:1 4015:1 4528:1 4764:1 4771:1 4778:1 4864:1 4916:1 4920:1 4926:1 5113:1 5734:1 6233:1 6234:1 6237:1 
0 10 0 208:1 265:1 473:1 816:1 1308:1 1596:1 1607:1 1643:1 1881:1 2176:1 2177:1 2183:1 2185:1 2312:1 2313:1 2635:1 2652:1 3067:1 3068:1 3634:1 3671:1 3673:1 3722:1 3846:1 3891:1 3938:1 4528:1 4731:1 4740:1 4778:1 5190:1 5191:1 5283:1 5319:1 5734:1 6233:1 
0 0.3711123470657205 0.1963304311337351 46:1 57:1 265:1 482:1 645:1 657:1 816:1 894:1 925:1 1243:1 1308:1 1596:1 1607:1 1643:1 1674:1 1736:1 1764:1 1794:1 1811:1 1824:1 1852:1 2176:1 2208:1 2239:1 2312:1 2313:1 2407:1 2635:1 2638:1 2644:1 2652:1 3067:1 3118:1 3147:1 3634:1 3671:1 3820:1 3846:1 3891:1 3938:1 4015:1 4321:1 4329:1 4344:1 4528:1 4731:1 4740:1 4778:1 4780:1 4814:1 4816:1 4864:1 4906:1 4912:1 5368:1 5370:1 5372:1 5373:1 5374:1 5411:1 6034:1 6128:1 
0 10 0 208:1 473:1 1643:1 1881:1 2176:1 2177:1 2183:1 2312:1 2313:1 3067:1 3068:1 3634:1 3673:1 3722:1 3846:1 3891:1 3938:1 5734:1 
0.06144178774860354 0.1042251672747969 0.02099383379220452 71:1 183:1 482:1 816:1 978:1 996:1 1643:1 1702:1 1714:1 1715:1 1794:1 1929:1 1978:1 2176:1 2287:1 2288:1 2312:1 2313:1 2407:1 2408:1 2422:1 2425:1 2674:1 2969:1 2989:1 3067:1 3154:1 3163:1 3194:1 3273:1 3275:1 3296:1 3297:1 3634:1 3846:1 3891:1 3938:1 4015:1 4321:1 4381:1 4528:1 4764:1 4768:1 4778:1 4864:1 4901:1 5368:1 5618:1 5652:1 5734:1 5753:1 5852:1 5853:1 
0 0.2677132890360193 0.05156717530495658 71:1 482:1 706:1 708:1 816:1 894:1 978:1 989:1 1308:1 1470:1 1616:1 1636:1 1643:1 1655:1 1714:1 1721:1 1794:1 1852:1 1929:1 1933:1 1934:1 2176:1 2255:1 2267:1 2268:1 2312:1 2313:1 2407:1 2597:1 2600:1 2601:1 2672:1 2842:1 2969:1 3067:1 3207:1 3273:1 3634:1 3846:1 3891:1 3900:1 3938:1 3942:1 4015:1 4189:1 4528:1 4763:1 5368:1 5411:1 5456:1 5460:1 5461:1 5479:1 5542:1 5679:1 5709:1 5713:1 5715:1 5734:1 5819:1 5852:1 5853:1 5862:1 6034:1 6128:1 6163:1 
0.3703781658671549 1.478328173675475 0 265:1 816:1 894:1 925:1 1243:1 1308:1 1596:1 1607:1 1643:1 2176:1 2312:1 2313:1 2407:1 2635:1 2638:1 2644:1 2652:1 3067:1 3634:1 3671:1 3846:1 3891:1 3938:1 4528:1 4731:1 4740:1 4778:1 4780:1 4814:1 4816:1 5190:1 5191:1 5283:1 5319:1 5734:1 6034:1 6128:1 
0.04211306042995502 0.004831044597198103 0.0418811173410169 208:1 473:1 816:1 925:1 1308:1 1310:1 1643:1 1881:1 1929:1 2064:1 2176:1 2177:1 2183:1 2312:1 2313:1 2407:1 2635:1 2644:1 2674:1 2675:1 2894:1 2895:1 3067:1 3068:1 3194:1 3634:1 3673:1 3722:1 3846:1 3891:1 3938:1 4528:1 4763:1 4778:1 5091:1 5190:1 5191:1 5283:1 5319:1 5368:1 5734:1 6034:1 6128:1 6142:1 
0 0.09009091916560673 0 248:1 249:1 384:1 816:1 925:1 1643:1 1644:1 1648:1 1794:1 2176:1 2312:1 2313:1 2407:1 2408:1 2894:1 3067:1 3068:1 3154:1 3182:1 3258:1 3262:1 3273:1 3394:1 3634:1 3635:1 3656:1 3659:1 3822:1 3846:1 3891:1 3938:1 4528:1 4763:1 5368:1 5370:1 5389:1 5411:1 5479:1 5542:1 5569:1 5618:1 5648:1 5734:1 5739:1 5741:1 5850:1 5852:1 5853:1 
0 0.007911319652642043 0 71:1 155:1 183:1 187:1 392:1 393:1 394:1 402:1 482:1 610:1 640:1 816:1 999:1 1004:1 1308:1 1310:1 1349:1 1593:1 1643:1 1661:1 1666:1 1794:1 1860:1 1861:1 1881:1 1927:1 1928:1 1929:1 2002:1 2064:1 2095:1 2146:1 2176:1 2284:1 2312:1 2313:1 2628:1 2652:1 3067:1 3068:1 3207:1 3273:1 3275:1 3634:1 3819:1 3846:1 3870:1 3891:1 3938:1 3971:1 4015:1 4017:1 4028:1 4030:1 4528:1 4594:1 4691:1 4731:1 4778:1 4975:1 5142:1 5143:1 5145:1 5368:1 5411:1 5479:1 5581:1 5582:1 5583:1 5734:1 5819:1 5852:1 6034:1 6233:1 6239:1 6275:1 
0.05940073412300578 0.01346615194885114 0.03082531613694832 71:1 112:1 253:1 308:1 392:1 393:1 394:1 402:1 482:1 645:1 669:1 816:1 817:1 836:1 978:1 999:1 1004:1 1055:1 1074:1 1092:1 1097:1 1308:1 1310:1 1349:1 1643:1 1666:1 1929:1 2002:1 2146:1 2176:1 2312:1 2313:1 2407:1 2628:1 2857:1 3067:1 3068:1 3118:1 3154:1 3207:1 3273:1 3363:1 3516:1 3543:1 3550:1 3634:1 3635:1 3644:1 3846:1 3870:1 3891:1 3904:1 3912:1 3938:1 3948:1 4015:1 4189:1 4209:1 4221:1 4251:1 4268:1 4528:1 4529:1 4764:1 4769:1 4778:1 4975:1 5092:1 5094:1 5345:1 5368:1 5581:1 5582:1 5583:1 5734:1 6034:1 6035:1 6051:1 6117:1 6233:1 
0.004405613103663664 0.1445151981893375 0 71:1 112:1 183:1 392:1 393:1 394:1 402:1 482:1 699:1 701:1 816:1 999:1 1004:1 1308:1 1310:1 1349:1 1643:1 1666:1 1702:1 1714:1 1794:1 1929:1 2000:1 2002:1 2176:1 2312:1 2313:1 2628:1 2674:1 2675:1 2679:1 2685:1 2842:1 2969:1 3067:1 3068:1 3154:1 3183:1 3194:1 3273:1 3275:1 3444:1 3475:1 3476:1 3634:1 3671:1 3846:1 3870:1 3875:1 3891:1 3938:1 4528:1 4529:1 4538:1 4778:1 4864:1 4975:1 5193:1 5257:1 5368:1 5411:1 5447:1 5456:1 5457:1 5458:1 5542:1 5558:1 5559:1 5581:1 5582:1 5583:1 5618:1 5619:1 6233:1 
0.1241932981801259 0 0.0191612932552243 71:1 103:1 482:1 706:1 708:1 816:1 1267:1 1308:1 1643:1 1655:1 1929:1 1939:1 2176:1 2312:1 2313:1 2969:1 3067:1 3846:1 3891:1 3900:1 3938:1 3942:1 4015:1 4114:1 4528:1 4778:1 5283:1 5333:1 5335:1 5336:1 5368:1 5734:1 5819:1 
0.06977442717879488 0.09004408371339276 0.1365981866758293 482:1 816:1 925:1 1643:1 2176:1 2255:1 2264:1 2266:1 2312:1 2313:1 2338:1 2407:1 2635:1 2644:1 3067:1 3634:1 3673:1 3710:1 3720:1 3721:1 3846:1 3891:1 3938:1 3989:1 4528:1 4711:1 5368:1 5682:1 5734:1 6034:1 6233:1 6266:1 6267:1 
0.07517621806568699 0.2586512351686346 0.1189391620274188 482:1 684:1 687:1 1643:1 1794:1 2176:1 2312:1 2313:1 2407:1 2408:1 2453:1 2458:1 3067:1 3846:1 3891:1 3938:1 3989:1 4015:1 4528:1 5368:1 5682:1 5734:1 6233:1 6266:1 6267:1 
0 0.2750740606160563 0.04630498543004315 279:1 482:1 483:1 505:1 512:1 1643:1 1811:1 2176:1 2312:1 2313:1 2407:1 2969:1 2989:1 3067:1 3273:1 3611:1 3612:1 3634:1 3731:1 3846:1 3891:1 3938:1 3989:1 4778:1 4949:1 5368:1 5682:1 5734:1 5761:1 6233:1 6266:1 6267:1 
0 0 0.00728436299821898 112:1 208:1 234:1 295:1 302:1 303:1 473:1 816:1 894:1 925:1 978:1 1243:1 1308:1 1310:1 1643:1 1736:1 1764:1 1881:1 1929:1 2002:1 2176:1 2177:1 2183:1 2184:1 2185:1 2312:1 2313:1 2407:1 2628:1 2635:1 2638:1 2644:1 2646:1 3067:1 3068:1 3194:1 3273:1 3401:1 3409:1 3634:1 3671:1 3673:1 3722:1 3820:1 3822:1 3834:1 3846:1 3885:1 3887:1 3891:1 3938:1 4015:1 4017:1 4049:1 4050:1 4460:1 4528:1 4778:1 4780:1 4814:1 4816:1 5368:1 5370:1 5387:1 5734:1 6034:1 6128:1 6233:1 
0 0.7612348074849499 0 2176:1 2312:1 2313:1 3067:1 3068:1 3273:1 3516:1 3571:1 3573:1 3579:1 3846:1 3891:1 3904:1 3938:1 4528:1 4731:1 4763:1 5368:1 
0 0.7885282234836515 0 265:1 816:1 999:1 1308:1 1596:1 1607:1 1643:1 1659:1 2176:1 2312:1 2313:1 2652:1 2844:1 2969:1 3067:1 3154:1 3634:1 3671:1 3846:1 3891:1 3938:1 4015:1 4442:1 4528:1 4731:1 4740:1 4778:1 4863:1 
0 0.01937731835865517 0 71:1 79:1 86:1 201:1 208:1 265:1 473:1 482:1 745:1 816:1 890:1 978:1 1308:1 1394:1 1408:1 1596:1 1607:1 1643:1 1702:1 1736:1 1764:1 1881:1 1929:1 2002:1 2022:1 2064:1 2110:1 2176:1 2177:1 2183:1 2185:1 2312:1 2313:1 2652:1 2674:1 2969:1 3067:1 3068:1 3258:1 3273:1 3401:1 3409:1 3634:1 3671:1 3673:1 3710:1 3717:1 3722:1 3820:1 3846:1 3891:1 3938:1 4528:1 4529:1 4731:1 4740:1 4763:1 4778:1 5190:1 5191:1 5283:1 5319:1 5368:1 5370:1 5618:1 5619:1 5734:1 6034:1 6233:1 
0 0.1597898247837921 0.006806584167332558 208:1 391:1 473:1 482:1 645:1 665:1 816:1 817:1 867:1 925:1 1308:1 1470:1 1486:1 1643:1 1794:1 1881:1 2176:1 2177:1 2183:1 2312:1 2313:1 2407:1 2519:1 2595:1 2652:1 2874:1 3067:1 3068:1 3154:1 3207:1 3216:1 3634:1 3673:1 3722:1 3756:1 3846:1 3891:1 3932:1 3933:1 3938:1 4528:1 4778:1 4839:1 4864:1 4893:1 4920:1 5193:1 5368:1 5411:1 5413:1 5414:1 5734:1 5750:1 5752:1 5852:1 5925:1 5936:1 5938:1 
0 0.03108380565182628 0.03084908812096702 482:1 610:1 618:1 1308:1 1596:1 1643:1 1702:1 2176:1 2286:1 2312:1 2313:1 2384:1 2673:1 2969:1 2989:1 3067:1 3118:1 3150:1 3154:1 3160:1 3171:1 3207:1 3224:1 3258:1 3634:1 3671:1 3846:1 3891:1 3904:1 3938:1 4528:1 4529:1 4763:1 4778:1 4780:1 4814:1 4815:1 5368:1 5682:1 5734:1 5852:1 5878:1 5884:1 
0 0.550298491195657 0.3153067662854887 208:1 265:1 384:1 473:1 816:1 894:1 925:1 1141:1 1243:1 1308:1 1596:1 1607:1 1643:1 1811:1 1877:1 1881:1 2176:1 2177:1 2185:1 2312:1 2313:1 2407:1 2550:1 2635:1 2638:1 2640:1 2641:1 2644:1 2652:1 3067:1 3068:1 3273:1 3275:1 3348:1 3634:1 3671:1 3673:1 3722:1 3822:1 3829:1 3846:1 3859:1 3891:1 3938:1 4015:1 4528:1 4731:1 4740:1 4763:1 4778:1 4780:1 4814:1 4816:1 5054:1 5057:1 5060:1 5190:1 5191:1 5283:1 5319:1 5368:1 5734:1 5852:1 5983:1 6034:1 6128:1 6233:1 
0.04097785634452369 0.5510759300194538 0.31593747218227 482:1 610:1 618:1 1643:1 2176:1 2286:1 2312:1 2313:1 2673:1 2969:1 2989:1 3067:1 3154:1 3160:1 3171:1 3846:1 3891:1 3938:1 5368:1 5682:1 5734:1 
0 0 0.07969208193327769 384:1 447:1 455:1 458:1 1308:1 1470:1 1534:1 1536:1 1643:1 1644:1 1648:1 1811:1 1838:1 1839:1 1840:1 1929:1 2117:1 2176:1 2312:1 2313:1 2407:1 3067:1 3846:1 3891:1 3938:1 3980:1 3989:1 4015:1 4251:1 4321:1 4384:1 4528:1 4731:1 4763:1 4778:1 4780:1 4837:1 5142:1 5368:1 5734:1 5852:1 5878:1 5923:1 5983:1 6020:1 6233:1 6275:1 
0 0.01997712594566039 0.06843521159630254 183:1 208:1 265:1 473:1 816:1 894:1 925:1 1243:1 1308:1 1596:1 1607:1 1643:1 1736:1 1751:1 1881:1 1929:1 1950:1 2002:1 2023:1 2176:1 2177:1 2184:1 2202:1 2312:1 2313:1 2407:1 2635:1 2638:1 2644:1 2652:1 2674:1 3067:1 3068:1 3634:1 3671:1 3673:1 3722:1 3726:1 3846:1 3891:1 3938:1 4528:1 4731:1 4740:1 4778:1 4780:1 4814:1 4816:1 5368:1 5734:1 5852:1 5983:1 5989:1 5995:1 6034:1 6128:1 6233:1 
0.01133110026799787 0.1552312338121982 0.05061075919815715 46:1 62:1 71:1 295:1 308:1 325:1 333:1 358:1 482:1 706:1 708:1 816:1 817:1 894:1 978:1 1265:1 1308:1 1643:1 1655:1 1666:1 1794:1 1800:1 1801:1 1802:1 1929:1 1931:1 1932:1 1933:1 1934:1 2176:1 2312:1 2313:1 2338:1 2628:1 2635:1 2674:1 2801:1 2802:1 2969:1 3067:1 3068:1 3118:1 3207:1 3634:1 3731:1 3820:1 3846:1 3859:1 3891:1 3900:1 3931:1 3938:1 3942:1 4015:1 4221:1 4317:1 4319:1 4528:1 4529:1 4598:1 4599:1 4709:1 4778:1 5083:1 5084:1 5113:1 5115:1 5190:1 5191:1 5283:1 5319:1 5368:1 5370:1 5411:1 5479:1 5679:1 5709:1 5713:1 5715:1 5734:1 5852:1 5925:1 5947:1 5948:1 6034:1 6128:1 6163:1 
0 0.3935363355614773 0.7391149639354502 482:1 775:1 810:1 2176:1 2312:1 2313:1 2384:1 3067:1 3846:1 3891:1 3938:1 5368:1 5734:1 5851:1 6275:1 
0 0.5389897143111425 0 1643:1 1736:1 1764:1 2176:1 2312:1 2313:1 2679:1 3067:1 3273:1 3444:1 3634:1 3820:1 3846:1 3891:1 3938:1 4778:1 4864:1 4883:1 4906:1 4912:1 4914:1 5368:1 5542:1 5558:1 
0.01902415724368086 0.3818707763017047 0.06373983183638497 283:1 288:1 308:1 309:1 447:1 455:1 482:1 610:1 611:1 645:1 816:1 1201:1 1202:1 1267:1 1308:1 1385:1 1643:1 1929:1 2064:1 2101:1 2103:1 2176:1 2312:1 2313:1 2338:1 2407:1 2408:1 2469:1 2519:1 2842:1 2894:1 2942:1 2945:1 2946:1 2969:1 3030:1 3031:1 3067:1 3118:1 3154:1 3273:1 3275:1 3354:1 3634:1 3846:1 3891:1 3938:1 3989:1 4015:1 4017:1 4528:1 4529:1 4729:1 4763:1 4778:1 5193:1 5281:1 5368:1 5728:1 5734:1 5819:1 5852:1 5878:1 6034:1 6233:1 
0 0.3797254619198403 0.04576865090931351 144:1 265:1 816:1 894:1 925:1 1243:1 1308:1 1310:1 1596:1 1607:1 1643:1 1714:1 1794:1 1811:1 1929:1 2064:1 2109:1 2176:1 2312:1 2313:1 2407:1 2635:1 2638:1 2640:1 2641:1 2644:1 2652:1 2969:1 3067:1 3118:1 3273:1 3444:1 3459:1 3634:1 3671:1 3846:1 3891:1 3938:1 4015:1 4017:1 4087:1 4474:1 4484:1 4495:1 4514:1 4519:1 4528:1 4529:1 4731:1 4740:1 4778:1 4780:1 4814:1 4816:1 5368:1 5370:1 5618:1 5619:1 5629:1 5734:1 5753:1 6034:1 6128:1 6145:1 6153:1 
0 0.06620648680863291 0 1643:1 1644:1 2176:1 2312:1 2313:1 3067:1 3634:1 3846:1 3891:1 3938:1 4015:1 4115:1 4118:1 4119:1 4528:1 4759:1 4778:1 5113:1 
0.03254154536864704 0 0 71:1 482:1 706:1 708:1 816:1 894:1 1643:1 1655:1 1674:1 1736:1 1929:1 1933:1 1934:1 1978:1 2117:1 2123:1 2125:1 2176:1 2312:1 2313:1 2320:1 2673:1 2844:1 2969:1 2989:1 3033:1 3046:1 3047:1 3048:1 3067:1 3118:1 3154:1 3171:1 3207:1 3634:1 3756:1 3846:1 3891:1 3900:1 3938:1 3942:1 3980:1 4015:1 4221:1 4246:1 4317:1 4528:1 4778:1 5193:1 5223:1 5368:1 5411:1 5542:1 5565:1 5566:1 5734:1 
0 0.2824522021643719 0 183:1 187:1 305:1 816:1 1055:1 1074:1 1092:1 1643:1 1794:1 1797:1 1881:1 1901:1 1911:1 1912:1 2176:1 2312:1 2313:1 2407:1 2511:1 2969:1 3006:1 3018:1 3067:1 3068:1 3203:1 3207:1 3224:1 3233:1 3235:1 3273:1 3275:1 3634:1 3846:1 3859:1 3891:1 3900:1 3902:1 3904:1 3912:1 3938:1 3942:1 4015:1 4221:1 4222:1 4528:1 4731:1 5368:1 5411:1 5479:1 5580:1 5679:1 5682:1 5709:1 5713:1 5715:1 5721:1 5734:1 6034:1 6128:1 6163:1 6230:1 
0 0 0.08980791583188599 208:1 283:1 287:1 473:1 482:1 699:1 816:1 978:1 1308:1 1616:1 1643:1 1794:1 1881:1 2176:1 2177:1 2185:1 2312:1 2313:1 2384:1 2635:1 2646:1 3067:1 3068:1 3273:1 3634:1 3673:1 3722:1 3846:1 3891:1 3922:1 3938:1 4528:1 4763:1 4778:1 5283:1 5310:1 5368:1 5618:1 5734:1 5766:1 5852:1 5878:1 5896:1 5983:1 5989:1 5990:1 5993:1 6233:1 
0 0.04435490579701656 0.04517681937661655 112:1 482:1 757:1 1308:1 1643:1 2176:1 2290:1 2291:1 2300:1 2312:1 2313:1 2407:1 2408:1 2426:1 2480:1 3067:1 3258:1 3273:1 3634:1 3822:1 3846:1 3891:1 3912:1 3916:1 3938:1 3948:1 4015:1 4189:1 4528:1 4731:1 5368:1 5734:1 5852:1 5925:1 5928:1 
0 10 2.396564704493144 265:1 816:1 894:1 925:1 1243:1 1308:1 1596:1 1607:1 1643:1 2176:1 2312:1 2313:1 2407:1 2635:1 2638:1 2644:1 2652:1 3067:1 3634:1 3671:1 3846:1 3891:1 3938:1 4528:1 4731:1 4740:1 4778:1 4780:1 4814:1 4816:1 6034:1 6128:1 
0 3.502293719004514 0.001075885911396517 308:1 325:1 333:1 2176:1 2312:1 2313:1 3067:1 3846:1 3891:1 3938:1 4015:1 4221:1 4317:1 4319:1 
0 0.1392203999501078 0.01782699510418452 157:1 482:1 706:1 708:1 775:1 804:1 816:1 890:1 894:1 925:1 1308:1 1643:1 1655:1 1811:1 1838:1 1929:1 2176:1 2312:1 2313:1 2407:1 2408:1 2453:1 2460:1 2550:1 2572:1 2857:1 2969:1 3067:1 3846:1 3891:1 3900:1 3904:1 3938:1 3942:1 4015:1 4114:1 4528:1 4529:1 4775:1 4778:1 4839:1 4848:1 4975:1 5193:1 5248:1 5255:1 5283:1 5292:1 5368:1 5734:1 5739:1 5852:1 5853:1 5869:1 5925:1 5954:1 
0.05226942315536657 0.2212983049883588 0 112:1 413:1 482:1 706:1 708:1 1308:1 1423:1 1643:1 1655:1 1794:1 1929:1 2176:1 2255:1 2312:1 2313:1 2407:1 2519:1 2844:1 2969:1 3067:1 3118:1 3119:1 3120:1 3121:1 3122:1 3846:1 3891:1 3900:1 3938:1 3942:1 4015:1 4114:1 4528:1 4529:1 4759:1 4778:1 4949:1 4958:1 5193:1 5261:1 5262:1 5368:1 5411:1 5618:1 5619:1 
0 0.3449883268675825 0.1734144482798797 308:1 1308:1 1643:1 1666:1 1674:1 1702:1 1707:1 1811:1 1838:1 1881:1 1929:1 2117:1 2123:1 2125:1 2176:1 2312:1 2313:1 2338:1 2407:1 3067:1 3118:1 3119:1 3125:1 3634:1 3673:1 3681:1 3722:1 3846:1 3891:1 3927:1 3938:1 4015:1 4321:1 4329:1 4354:1 4528:1 4529:1 4624:1 4778:1 4975:1 5025:1 5026:1 5368:1 5411:1 5447:1 5449:1 5452:1 5734:1 
0 0.5743083550226585 0 1308:1 1596:1 1603:1 2176:1 2312:1 2313:1 2842:1 3067:1 3068:1 3273:1 3516:1 3571:1 3573:1 3579:1 3846:1 3870:1 3891:1 3904:1 3938:1 4528:1 4529:1 4556:1 4720:1 4731:1 5368:1 6275:1 
0 1.841782954708405 3.100717536981552 265:1 1308:1 1596:1 1607:1 1643:1 1714:1 2176:1 2312:1 2313:1 2652:1 2674:1 3067:1 3118:1 3273:1 3444:1 3634:1 3671:1 3846:1 3891:1 3938:1 4528:1 4731:1 4740:1 4778:1 5054:1 5066:1 
0 0.1562866623504721 0 208:1 265:1 473:1 1308:1 1470:1 1471:1 1596:1 1607:1 1643:1 1666:1 1881:1 2176:1 2177:1 2183:1 2312:1 2313:1 2628:1 2652:1 2880:1 3067:1 3068:1 3273:1 3378:1 3379:1 3634:1 3671:1 3673:1 3722:1 3846:1 3891:1 3938:1 4528:1 4731:1 4740:1 4778:1 5190:1 5191:1 5283:1 5319:1 5368:1 5734:1 
0 0 0.0413735108050816 208:1 264:1 384:1 473:1 482:1 610:1 816:1 894:1 925:1 978:1 1243:1 1308:1 1454:1 1456:1 1470:1 1643:1 1702:1 1736:1 1764:1 1881:1 1929:1 2002:1 2176:1 2177:1 2185:1 2312:1 2313:1 2407:1 2550:1 2628:1 2635:1 2638:1 2644:1 2646:1 3067:1 3068:1 3273:1 3275:1 3348:1 3401:1 3409:1 3634:1 3671:1 3673:1 3722:1 3820:1 3846:1 3885:1 3887:1 3891:1 3938:1 4015:1 4528:1 4763:1 4764:1 4766:1 4778:1 4780:1 4814:1 4816:1 5054:1 5057:1 5060:1 5190:1 5191:1 5283:1 5319:1 5368:1 5734:1 5852:1 5878:1 5884:1 6034:1 6128:1 6233:1 
0 0 0.07682820994093428 265:1 482:1 576:1 580:1 816:1 894:1 925:1 1243:1 1308:1 1470:1 1543:1 1596:1 1607:1 1643:1 1736:1 1746:1 2176:1 2312:1 2313:1 2407:1 2635:1 2638:1 2644:1 2652:1 2881:1 2894:1 2934:1 3067:1 3634:1 3671:1 3846:1 3870:1 3891:1 3938:1 4528:1 4731:1 4740:1 4778:1 4780:1 4814:1 4816:1 4864:1 4865:1 5368:1 6034:1 6128:1 
0 0.2711801182910192 0.040825886023912 816:1 925:1 943:1 948:1 1308:1 1470:1 1483:1 1643:1 1644:1 1666:1 1702:1 1929:1 2000:1 2176:1 2304:1 2312:1 2313:1 2407:1 2489:1 2652:1 2731:1 2894:1 2919:1 2927:1 2969:1 3067:1 3154:1 3179:1 3273:1 3378:1 3381:1 3444:1 3480:1 3634:1 3671:1 3731:1 3846:1 3870:1 3891:1 3912:1 3916:1 3938:1 4474:1 4484:1 4528:1 4778:1 4975:1 5109:1 5193:1 5279:1 5346:1 5368:1 5411:1 5415:1 5425:1 5682:1 5734:1 5744:1 6034:1 
0 0.6523714047217477 0.2841420818071596 112:1 208:1 265:1 473:1 816:1 894:1 925:1 1243:1 1308:1 1310:1 1596:1 1607:1 1643:1 1702:1 1811:1 1881:1 2176:1 2177:1 2183:1 2312:1 2313:1 2407:1 2635:1 2638:1 2640:1 2641:1 2644:1 2652:1 3067:1 3068:1 3634:1 3635:1 3644:1 3671:1 3673:1 3678:1 3722:1 3846:1 3891:1 3938:1 4528:1 4731:1 4740:1 4778:1 4780:1 4814:1 4816:1 4975:1 5025:1 5190:1 5191:1 5283:1 5319:1 5368:1 5370:1 5734:1 6034:1 6128:1 6233:1 
0.001819436316518749 0 0 144:1 172:1 183:1 187:1 188:1 308:1 317:1 816:1 1201:1 1308:1 1310:1 1643:1 1687:1 1811:1 2176:1 2312:1 2313:1 2407:1 2408:1 2731:1 2890:1 3067:1 3634:1 3671:1 3846:1 3891:1 3938:1 4015:1 4528:1 4778:1 4780:1 5368:1 5411:1 5682:1 5684:1 5734:1 5750:1 
0 0.1225997425418252 0.02991542671314798 482:1 775:1 787:1 1308:1 1643:1 1736:1 2176:1 2312:1 2313:1 2407:1 2519:1 2532:1 2674:1 2969:1 3033:1 3046:1 3047:1 3062:1 3067:1 3154:1 3179:1 3180:1 3207:1 3634:1 3756:1 3846:1 3891:1 3938:1 3980:1 4528:1 4778:1 5193:1 5223:1 5368:1 5411:1 5734:1 5753:1 5819:1 6034:1 
0 9.375834408399843 9.86544839388289 2176:1 2312:1 2313:1 3067:1 3846:1 3891:1 3938:1 
0.2110140503878838 0.3564119814064851 0.06890984242297206 201:1 369:1 447:1 455:1 816:1 817:1 849:1 856:1 1308:1 1358:1 1359:1 1643:1 1714:1 1794:1 1881:1 1929:1 2064:1 2176:1 2312:1 2313:1 2407:1 2408:1 2469:1 2550:1 2557:1 2673:1 2674:1 2969:1 3006:1 3067:1 3118:1 3119:1 3258:1 3273:1 3846:1 3891:1 3904:1 3905:1 3938:1 4015:1 4150:1 4528:1 4729:1 4778:1 4864:1 5368:1 5411:1 5497:1 5734:1 5834:1 5852:1 5878:1 6034:1 6128:1 6139:1 
0 0.09246147899498752 0.003585165950495308 201:1 816:1 894:1 905:1 906:1 1308:1 1643:1 1736:1 1764:1 1768:1 1794:1 1852:1 1929:1 2002:1 2046:1 2176:1 2312:1 2313:1 2407:1 2550:1 2673:1 2674:1 2969:1 2989:1 3006:1 3067:1 3118:1 3119:1 3273:1 3428:1 3433:1 3634:1 3820:1 3846:1 3870:1 3891:1 3900:1 3938:1 4015:1 4251:1 4266:1 4267:1 4321:1 4384:1 4400:1 4405:1 4528:1 4731:1 4759:1 4778:1 4975:1 5025:1 5193:1 5194:1 5208:1 5368:1 5370:1 5411:1 5479:1 5525:1 6034:1 6128:1 6139:1 
0 0.1010264102292995 0 71:1 112:1 201:1 482:1 816:1 925:1 943:1 945:1 1267:1 1308:1 1310:1 1339:1 1402:1 1592:1 1643:1 1714:1 1794:1 1811:1 1842:1 1881:1 1929:1 2050:1 2062:1 2176:1 2177:1 2312:1 2313:1 2407:1 2408:1 2422:1 2550:1 2557:1 2558:1 2622:1 2623:1 2673:1 2674:1 2969:1 2989:1 3006:1 3067:1 3118:1 3119:1 3154:1 3179:1 3207:1 3208:1 3273:1 3634:1 3673:1 3710:1 3712:1 3729:1 3756:1 3846:1 3848:1 3859:1 3864:1 3865:1 3891:1 3900:1 3904:1 3905:1 3938:1 4015:1 4251:1 4266:1 4528:1 4728:1 4778:1 5193:1 5368:1 5411:1 5497:1 5734:1 5812:1 5819:1 5852:1 6034:1 6112:1 6128:1 6139:1 6233:1 6275:1 6315:1 
0 0.0671266980200944 0 183:1 187:1 201:1 283:1 285:1 816:1 1308:1 1565:1 1616:1 1624:1 1643:1 1702:1 1714:1 1736:1 1764:1 1794:1 1811:1 1838:1 1842:1 1881:1 2176:1 2177:1 2182:1 2312:1 2313:1 2407:1 2550:1 2557:1 2563:1 2565:1 2673:1 2674:1 2842:1 2969:1 2989:1 3006:1 3067:1 3118:1 3119:1 3273:1 3634:1 3673:1 3731:1 3820:1 3846:1 3891:1 3900:1 3904:1 3905:1 3907:1 3912:1 3916:1 3938:1 3989:1 4015:1 4251:1 4266:1 4528:1 4778:1 5193:1 5368:1 5411:1 5497:1 5603:1 5611:1 5612:1 5734:1 5761:1 5819:1 5852:1 5925:1 5952:1 6034:1 6128:1 6139:1 6233:1 6265:1 
0 0 0.07619527877892111 816:1 1643:1 1736:1 1794:1 1795:1 1797:1 1869:1 2176:1 2177:1 2208:1 2227:1 2254:1 2312:1 2313:1 2635:1 2842:1 2969:1 2973:1 3067:1 3118:1 3151:1 3634:1 3729:1 3846:1 3891:1 3938:1 4528:1 4529:1 4778:1 4975:1 4986:1 5036:1 5852:1 5878:1 5896:1 
0.01978413033759969 0 0 208:1 402:1 425:1 428:1 473:1 1308:1 1470:1 1533:1 1643:1 1693:1 1694:1 1702:1 1714:1 1794:1 1811:1 1827:1 1852:1 1881:1 1929:1 2176:1 2177:1 2185:1 2312:1 2313:1 2407:1 2474:1 2550:1 2713:1 2874:1 2969:1 3052:1 3067:1 3068:1 3116:1 3118:1 3273:1 3275:1 3634:1 3635:1 3673:1 3694:1 3722:1 3846:1 3891:1 3904:1 3907:1 3927:1 3938:1 4015:1 4181:1 4221:1 4222:1 4238:1 4528:1 4529:1 4669:1 4672:1 4685:1 4778:1 5142:1 5190:1 5191:1 5193:1 5283:1 5319:1 5323:1 5368:1 5510:1 5542:1 5563:1 5734:1 5766:1 5852:1 5925:1 5941:1 5942:1 6233:1 6275:1 6308:1 6312:1 
0 0.04609409767646206 0.1320572833886225 208:1 308:1 325:1 331:1 332:1 473:1 816:1 894:1 925:1 978:1 1055:1 1062:1 1243:1 1308:1 1470:1 1643:1 1736:1 1764:1 1811:1 1824:1 1881:1 1929:1 2002:1 2023:1 2037:1 2176:1 2177:1 2185:1 2255:1 2312:1 2313:1 2407:1 2408:1 2628:1 2635:1 2638:1 2644:1 2679:1 2842:1 3067:1 3068:1 3154:1 3207:1 3273:1 3444:1 3445:1 3511:1 3634:1 3635:1 3671:1 3673:1 3722:1 3731:1 3820:1 3846:1 3891:1 3912:1 3938:1 4015:1 4134:1 4317:1 4321:1 4329:1 4344:1 4345:1 4350:1 4528:1 4778:1 4780:1 4814:1 4816:1 4839:1 4852:1 4864:1 4906:1 4912:1 5368:1 5370:1 5734:1 5819:1 5820:1 5821:1 5852:1 5983:1 5988:1 6034:1 6128:1 6233:1 6275:1 
0 0.005390195569087458 0.00348695172738231 183:1 402:1 447:1 449:1 455:1 456:1 816:1 925:1 1213:1 1643:1 1811:1 1842:1 1852:1 1860:1 2176:1 2312:1 2313:1 2407:1 2516:1 2635:1 2857:1 2894:1 2932:1 3067:1 3118:1 3273:1 3516:1 3536:1 3558:1 3846:1 3891:1 3938:1 3989:1 3992:1 4015:1 4017:1 4096:1 4474:1 4484:1 4514:1 4528:1 4529:1 4778:1 5134:1 5139:1 5193:1 5368:1 5411:1 5618:1 5734:1 5739:1 5741:1 5753:1 5819:1 5852:1 5853:1 5857:1 5878:1 5925:1 5969:1 
0 0.2510048410935922 0 265:1 1308:1 1596:1 1607:1 1643:1 1702:1 1736:1 1764:1 1794:1 1866:1 1867:1 1868:1 2176:1 2312:1 2313:1 2652:1 2713:1 3067:1 3273:1 3444:1 3634:1 3635:1 3671:1 3820:1 3846:1 3891:1 3938:1 4528:1 4729:1 4731:1 4740:1 4778:1 5190:1 5191:1 5283:1 5319:1 5368:1 5411:1 5479:1 5481:1 5482:1 5483:1 5734:1 5852:1 5878:1 6233:1 
0 0.5489958599366862 0.2725091527120465 265:1 478:1 1308:1 1596:1 1607:1 1643:1 1794:1 1800:1 1881:1 1929:1 1982:1 1983:1 2176:1 2312:1 2313:1 2652:1 3067:1 3634:1 3671:1 3673:1 3722:1 3726:1 3846:1 3891:1 3938:1 4528:1 4731:1 4740:1 4745:1 4778:1 5193:1 5269:1 5368:1 5618:1 5662:1 5664:1 5682:1 5734:1 5819:1 5852:1 5878:1 5896:1 5906:1 6275:1 
0 0.4539648976078574 0 71:1 816:1 1055:1 1059:1 1308:1 1643:1 1702:1 1736:1 1746:1 1794:1 1811:1 1838:1 1852:1 1929:1 2064:1 2071:1 2117:1 2134:1 2135:1 2176:1 2312:1 2313:1 2407:1 2408:1 2439:1 2550:1 2969:1 3067:1 3194:1 3202:1 3207:1 3254:1 3273:1 3428:1 3436:1 3633:1 3634:1 3671:1 3673:1 3710:1 3846:1 3891:1 3904:1 3912:1 3916:1 3938:1 3989:1 4015:1 4017:1 4321:1 4329:1 4354:1 4528:1 4778:1 4949:1 4968:1 4969:1 5142:1 5143:1 5368:1 5411:1 5479:1 5501:1 5503:1 5601:1 5603:1 5613:1 5679:1 5709:1 5713:1 5715:1 5734:1 6034:1 6098:1 6099:1 6100:1 6128:1 6163:1 6166:1 6180:1 6183:1 6233:1 
0 0.1511343017283789 0 265:1 1308:1 1596:1 1607:1 2176:1 2312:1 2313:1 2327:1 2328:1 2652:1 3067:1 3634:1 3671:1 3846:1 3891:1 3938:1 3980:1 4528:1 4731:1 4740:1 4778:1 5193:1 5194:1 5205:1 5368:1 5370:1 5389:1 
0 0.05228124960715991 0 157:1 164:1 447:1 455:1 456:1 816:1 925:1 1055:1 1074:1 1104:1 1108:1 1643:1 1881:1 2176:1 2312:1 2313:1 2407:1 2519:1 2674:1 2679:1 2774:1 3067:1 3273:1 3634:1 3673:1 3722:1 3724:1 3803:1 3846:1 3859:1 3863:1 3891:1 3912:1 3938:1 3989:1 4015:1 4017:1 4321:1 4367:1 4528:1 4717:1 4778:1 5142:1 5368:1 5370:1 5378:1 5379:1 5603:1 5613:1 5734:1 5852:1 5878:1 
0 0.4324734985691558 0.1274065532099911 208:1 265:1 384:1 473:1 816:1 894:1 925:1 1055:1 1074:1 1077:1 1080:1 1081:1 1243:1 1308:1 1596:1 1607:1 1643:1 1736:1 1764:1 1811:1 1881:1 1929:1 2176:1 2177:1 2185:1 2312:1 2313:1 2407:1 2628:1 2635:1 2638:1 2640:1 2641:1 2644:1 2652:1 2674:1 3067:1 3068:1 3273:1 3634:1 3671:1 3673:1 3722:1 3726:1 3727:1 3820:1 3846:1 3891:1 3912:1 3938:1 4015:1 4017:1 4056:1 4079:1 4528:1 4731:1 4740:1 4763:1 4778:1 4780:1 4814:1 4816:1 5190:1 5191:1 5283:1 5319:1 5368:1 5542:1 5555:1 5734:1 5852:1 5925:1 6034:1 6128:1 6233:1 
0 0.146468575363848 0 265:1 816:1 1308:1 1310:1 1596:1 1607:1 1643:1 1666:1 1736:1 1746:1 1747:1 1755:1 1852:1 2176:1 2312:1 2313:1 2407:1 2515:1 2635:1 2652:1 2969:1 3067:1 3273:1 3378:1 3634:1 3671:1 3846:1 3891:1 3938:1 4528:1 4729:1 4731:1 4740:1 4778:1 5030:1 5193:1 5368:1 
0 0.104265468944141 0.09017369932107662 816:1 1055:1 1074:1 1092:1 1095:1 1215:1 1643:1 1736:1 1743:1 1794:1 1808:1 1811:1 1842:1 1852:1 2176:1 2312:1 2313:1 3067:1 3118:1 3147:1 3273:1 3634:1 3820:1 3846:1 3891:1 3912:1 3938:1 3989:1 3993:1 4015:1 4221:1 4474:1 4484:1 4495:1 4528:1 4656:1 4731:1 4776:1 4778:1 4864:1 4920:1 4927:1 4928:1 5193:1 5368:1 5734:1 5819:1 5852:1 5878:1 5896:1 6233:1 6261:1 
2.13344514999492 4.478774782151872 2.534971808223596 71:1 482:1 706:1 708:1 816:1 894:1 1643:1 1655:1 1929:1 1933:1 1934:1 2176:1 2312:1 2313:1 2969:1 3067:1 3846:1 3891:1 3900:1 3938:1 3942:1 
0 0 0.08237101194742295 157:1 158:1 160:1 265:1 369:1 816:1 894:1 925:1 1160:1 1163:1 1243:1 1308:1 1310:1 1596:1 1607:1 1643:1 1736:1 1746:1 1811:1 1842:1 1843:1 2176:1 2208:1 2227:1 2312:1 2313:1 2407:1 2550:1 2635:1 2638:1 2644:1 2652:1 2731:1 3067:1 3634:1 3671:1 3673:1 3820:1 3846:1 3891:1 3927:1 3938:1 4015:1 4017:1 4056:1 4063:1 4064:1 4065:1 4181:1 4528:1 4731:1 4740:1 4778:1 4780:1 4814:1 4816:1 5193:1 5194:1 5368:1 5370:1 6034:1 6128:1 6145:1 6146:1 
0 0.01725283067280785 0 71:1 447:1 455:1 456:1 482:1 610:1 706:1 708:1 816:1 894:1 1055:1 1063:1 1265:1 1643:1 1655:1 1794:1 1800:1 1801:1 1803:1 1860:1 1881:1 1929:1 1933:1 1934:1 2176:1 2312:1 2313:1 2338:1 2348:1 2349:1 2635:1 2674:1 2679:1 2842:1 2857:1 2894:1 2942:1 2945:1 2969:1 3067:1 3118:1 3154:1 3273:1 3444:1 3499:1 3511:1 3634:1 3673:1 3722:1 3724:1 3731:1 3846:1 3891:1 3900:1 3912:1 3931:1 3938:1 3942:1 3980:1 3989:1 4015:1 4173:1 4251:1 4303:1 4321:1 4367:1 4528:1 4529:1 4717:1 4778:1 4864:1 4975:1 5113:1 5115:1 5142:1 5368:1 5542:1 5734:1 5819:1 5852:1 5878:1 5983:1 5989:1 5997:1 
0 0.1492113097904007 0 208:1 265:1 272:1 473:1 1308:1 1596:1 1607:1 1643:1 1881:1 2176:1 2177:1 2183:1 2185:1 2312:1 2313:1 2652:1 2894:1 3067:1 3068:1 3634:1 3671:1 3673:1 3722:1 3846:1 3891:1 3938:1 4015:1 4528:1 4731:1 4740:1 4778:1 5190:1 5191:1 5283:1 5319:1 5734:1 6233:1 
0.01790441556717625 0.02352656867789294 0.08498271185978593 71:1 103:1 308:1 325:1 333:1 343:1 344:1 816:1 1139:1 1160:1 1161:1 1267:1 1308:1 1470:1 1643:1 1666:1 1702:1 1736:1 1751:1 1794:1 1811:1 1881:1 1929:1 2002:1 2023:1 2176:1 2312:1 2313:1 2338:1 2635:1 2679:1 2969:1 2989:1 3067:1 3118:1 3154:1 3179:1 3181:1 3273:1 3634:1 3673:1 3722:1 3724:1 3726:1 3800:1 3802:1 3820:1 3846:1 3891:1 3938:1 3989:1 4015:1 4221:1 4317:1 4319:1 4321:1 4367:1 4528:1 4717:1 4778:1 5113:1 5118:1 5142:1 5368:1 5370:1 5411:1 5479:1 5679:1 5709:1 5713:1 5715:1 5734:1 5852:1 5878:1 5884:1 6034:1 6128:1 6163:1 
0 0.10529998471299 0.1036341223293715 208:1 265:1 308:1 325:1 473:1 816:1 894:1 905:1 925:1 1243:1 1308:1 1470:1 1532:1 1596:1 1607:1 1643:1 1736:1 1764:1 1794:1 1881:1 2176:1 2177:1 2183:1 2312:1 2313:1 2407:1 2635:1 2638:1 2644:1 2652:1 2857:1 3067:1 3068:1 3634:1 3671:1 3673:1 3722:1 3819:1 3820:1 3846:1 3891:1 3938:1 4015:1 4134:1 4317:1 4321:1 4322:1 4326:1 4528:1 4529:1 4731:1 4740:1 4778:1 4780:1 4814:1 4816:1 5142:1 5368:1 5411:1 5479:1 5480:1 5542:1 5543:1 5734:1 6034:1 6128:1 
0 0.09142916224766556 0.3201684605469467 208:1 473:1 816:1 1643:1 1881:1 2176:1 2177:1 2183:1 2312:1 2313:1 2635:1 3067:1 3068:1 3634:1 3673:1 3722:1 3846:1 3891:1 3938:1 4778:1 5190:1 5191:1 5283:1 5319:1 5734:1 
0 0.4187923674986443 0.1236843595089741 208:1 473:1 816:1 817:1 894:1 913:1 925:1 1243:1 1308:1 1643:1 1714:1 1794:1 1795:1 1811:1 1881:1 1929:1 2064:1 2110:1 2176:1 2177:1 2185:1 2312:1 2313:1 2407:1 2635:1 2638:1 2640:1 2641:1 2644:1 2874:1 3067:1 3068:1 3273:1 3275:1 3444:1 3446:1 3634:1 3635:1 3671:1 3673:1 3722:1 3846:1 3891:1 3938:1 4015:1 4017:1 4046:1 4528:1 4529:1 4778:1 4780:1 4814:1 4816:1 4975:1 5023:1 5190:1 5191:1 5193:1 5223:1 5283:1 5319:1 5368:1 5411:1 5456:1 5457:1 5734:1 6034:1 6128:1 6233:1 
0 0.1592393749048316 0.01410391941097269 157:1 482:1 610:1 1643:1 1794:1 1881:1 2176:1 2312:1 2313:1 2674:1 2679:1 3067:1 3118:1 3154:1 3273:1 3634:1 3673:1 3722:1 3724:1 3846:1 3891:1 3938:1 3980:1 4015:1 4163:1 4166:1 4251:1 4303:1 4321:1 4367:1 4528:1 4717:1 4759:1 4778:1 4975:1 5113:1 5142:1 5368:1 5370:1 5378:1 5380:1 5734:1 
0.04011228797013953 0.3836115538430595 0 265:1 308:1 316:1 325:1 447:1 455:1 456:1 482:1 610:1 613:1 816:1 1267:1 1308:1 1470:1 1517:1 1596:1 1607:1 1643:1 1736:1 1794:1 1881:1 2176:1 2312:1 2313:1 2407:1 2550:1 2583:1 2652:1 2679:1 2857:1 3067:1 3273:1 3634:1 3671:1 3673:1 3722:1 3724:1 3846:1 3891:1 3938:1 4015:1 4134:1 4183:1 4317:1 4321:1 4367:1 4528:1 4644:1 4647:1 4717:1 4731:1 4740:1 4778:1 5142:1 5368:1 5734:1 5852:1 5878:1 
0 0 0.01812598948945876 816:1 925:1 1643:1 1736:1 1811:1 1838:1 1929:1 2117:1 2123:1 2130:1 2176:1 2312:1 2313:1 2407:1 2628:1 2679:1 2706:1 3067:1 3207:1 3250:1 3273:1 3634:1 3846:1 3891:1 3938:1 4015:1 4017:1 4056:1 4071:1 4321:1 4329:1 4354:1 4528:1 4778:1 4975:1 5852:1 5878:1 
0 0.09697951252774029 0.02255821761452249 146:1 147:1 157:1 308:1 325:1 326:1 327:1 369:1 816:1 925:1 1183:1 1643:1 1736:1 1764:1 1811:1 1842:1 1881:1 1929:1 2000:1 2002:1 2176:1 2312:1 2313:1 2407:1 2408:1 2453:1 2550:1 2583:1 2635:1 2644:1 2674:1 2679:1 2809:1 3067:1 3273:1 3634:1 3673:1 3722:1 3724:1 3820:1 3846:1 3891:1 3904:1 3938:1 4015:1 4017:1 4056:1 4183:1 4317:1 4321:1 4367:1 4528:1 4717:1 4778:1 4949:1 4953:1 5142:1 5193:1 5283:1 5333:1 5368:1 5411:1 5734:1 5819:1 
0 0 0.04677413031456674 308:1 325:1 360:1 447:1 463:1 482:1 610:1 613:1 816:1 925:1 933:1 1055:1 1057:1 1267:1 1308:1 1310:1 1339:1 1340:1 1643:1 1736:1 1852:1 1881:1 2176:1 2312:1 2313:1 2407:1 2408:1 2674:1 2679:1 2842:1 2857:1 3067:1 3118:1 3128:1 3154:1 3273:1 3363:1 3634:1 3673:1 3722:1 3724:1 3846:1 3870:1 3891:1 3912:1 3938:1 3980:1 3989:1 4015:1 4251:1 4303:1 4308:1 4317:1 4321:1 4367:1 4474:1 4484:1 4528:1 4717:1 4720:1 4778:1 4780:1 4835:1 4975:1 5142:1 5368:1 5370:1 5542:1 5555:1 5734:1 5789:1 5819:1 5842:1 5843:1 5852:1 5983:1 5989:1 5997:1 
0 0.05385001117560136 0.02783861178698008 112:1 157:1 183:1 208:1 308:1 322:1 363:1 473:1 816:1 817:1 894:1 925:1 1243:1 1308:1 1310:1 1313:1 1315:1 1339:1 1340:1 1643:1 1811:1 1881:1 1929:1 1990:1 2176:1 2177:1 2185:1 2312:1 2313:1 2407:1 2635:1 2638:1 2640:1 2641:1 2644:1 2881:1 3067:1 3068:1 3154:1 3273:1 3275:1 3296:1 3516:1 3543:1 3548:1 3549:1 3634:1 3635:1 3644:1 3671:1 3673:1 3722:1 3731:1 3846:1 3891:1 3931:1 3938:1 4015:1 4017:1 4056:1 4057:1 4221:1 4528:1 4529:1 4778:1 4780:1 4814:1 4816:1 5190:1 5191:1 5283:1 5319:1 5368:1 5370:1 5542:1 5618:1 5734:1 5823:1 5826:1 5852:1 5983:1 6034:1 6128:1 6233:1 
0 0 0.1003449637983896 146:1 308:1 325:1 346:1 349:1 447:1 455:1 456:1 816:1 925:1 1149:1 1308:1 1310:1 1326:1 1339:1 1340:1 1643:1 1881:1 1929:1 2000:1 2002:1 2173:1 2176:1 2312:1 2313:1 2407:1 2635:1 2644:1 2679:1 3067:1 3068:1 3118:1 3273:1 3511:1 3634:1 3673:1 3722:1 3724:1 3819:1 3846:1 3891:1 3912:1 3938:1 4015:1 4017:1 4056:1 4317:1 4321:1 4367:1 4384:1 4437:1 4528:1 4717:1 4731:1 4778:1 5142:1 5368:1 5370:1 5618:1 5648:1 5682:1 5734:1 5789:1 5819:1 5852:1 5878:1 
0 0 0.02973879300050313 369:1 467:1 482:1 483:1 514:1 515:1 816:1 925:1 1643:1 1794:1 1811:1 1842:1 1852:1 1881:1 1929:1 2160:1 2169:1 2170:1 2176:1 2312:1 2313:1 2407:1 2519:1 2550:1 2572:1 2614:1 2857:1 2969:1 3067:1 3068:1 3112:1 3113:1 3115:1 3118:1 3273:1 3516:1 3634:1 3673:1 3700:1 3731:1 3738:1 3846:1 3891:1 3904:1 3938:1 4528:1 4529:1 4541:1 4763:1 4778:1 4780:1 4805:1 4839:1 4848:1 4949:1 4959:1 5193:1 5283:1 5340:1 5368:1 5677:1 5734:1 5766:1 6034:1 6233:1 6239:1 
0 0.03557819009088906 0 183:1 265:1 295:1 308:1 325:1 333:1 425:1 816:1 894:1 897:1 898:1 923:1 925:1 1243:1 1308:1 1596:1 1607:1 1616:1 1643:1 1702:1 1703:1 1736:1 1794:1 1795:1 1811:1 1827:1 1852:1 2176:1 2312:1 2313:1 2407:1 2635:1 2638:1 2640:1 2641:1 2644:1 2652:1 2679:1 2894:1 2942:1 2945:1 3067:1 3068:1 3118:1 3273:1 3444:1 3499:1 3613:1 3634:1 3671:1 3800:1 3801:1 3820:1 3846:1 3891:1 3938:1 3989:1 4015:1 4221:1 4222:1 4226:1 4251:1 4275:1 4317:1 4319:1 4474:1 4484:1 4495:1 4528:1 4529:1 4542:1 4731:1 4740:1 4778:1 4780:1 4814:1 4816:1 4864:1 5142:1 5193:1 5247:1 5368:1 5542:1 5558:1 5618:1 5679:1 5734:1 5819:1 5852:1 5878:1 5879:1 6034:1 6128:1 
0 0 0.01883383160641256 425:1 434:1 1308:1 1470:1 1512:1 1643:1 1666:1 1736:1 1852:1 1881:1 2176:1 2208:1 2312:1 2313:1 2652:1 2679:1 2685:1 2842:1 3067:1 3273:1 3401:1 3634:1 3673:1 3722:1 3724:1 3819:1 3846:1 3891:1 3938:1 4015:1 4321:1 4367:1 4528:1 4598:1 4604:1 4717:1 4763:1 4778:1 4975:1 5017:1 5142:1 5368:1 5734:1 6034:1 6128:1 6130:1 6132:1 
0.07394837013118963 0.2470822437449958 0.1939250801423757 71:1 157:1 158:1 201:1 234:1 236:1 425:1 482:1 483:1 526:1 816:1 978:1 1308:1 1353:1 1643:1 1666:1 1674:1 1736:1 1794:1 1797:1 1811:1 1842:1 1929:1 1985:1 1986:1 2000:1 2002:1 2176:1 2208:1 2312:1 2313:1 2407:1 2511:1 2635:1 2646:1 2969:1 2989:1 3067:1 3154:1 3194:1 3273:1 3275:1 3307:1 3516:1 3584:1 3634:1 3819:1 3846:1 3877:1 3879:1 3891:1 3900:1 3901:1 3938:1 4528:1 4567:1 4571:1 4778:1 4780:1 4797:1 4833:1 4864:1 4906:1 4910:1 5193:1 5368:1 5734:1 5823:1 5826:1 5852:1 5878:1 6233:1 
0 0.02633474845729082 0.02450508831564197 183:1 187:1 189:1 482:1 706:1 708:1 1308:1 1643:1 1655:1 1714:1 1736:1 1764:1 1852:1 1929:1 2000:1 2176:1 2312:1 2313:1 2785:1 2844:1 2969:1 3067:1 3068:1 3118:1 3258:1 3273:1 3401:1 3409:1 3613:1 3615:1 3618:1 3634:1 3819:1 3820:1 3846:1 3891:1 3900:1 3904:1 3907:1 3938:1 3942:1 4015:1 4114:1 4221:1 4222:1 4225:1 4528:1 4731:1 4741:1 4778:1 4864:1 4939:1 4941:1 4942:1 5108:1 5368:1 5542:1 5565:1 5679:1 5734:1 5852:1 
0 0.009241229587859575 0 816:1 1267:1 1308:1 1437:1 1643:1 1811:1 1842:1 1881:1 1929:1 2064:1 2081:1 2176:1 2312:1 2313:1 2679:1 2842:1 2969:1 3067:1 3273:1 3634:1 3673:1 3722:1 3724:1 3846:1 3891:1 3922:1 3938:1 3948:1 4015:1 4017:1 4321:1 4367:1 4474:1 4484:1 4495:1 4528:1 4656:1 4717:1 4778:1 4975:1 5025:1 5026:1 5030:1 5142:1 5193:1 5355:1 5358:1 5368:1 5411:1 5542:1 5618:1 5734:1 6233:1 6255:1 
0.06963551403913373 0.1721587015384792 0.147668599597199 71:1 183:1 265:1 482:1 645:1 816:1 978:1 1138:1 1308:1 1365:1 1596:1 1607:1 1643:1 1661:1 1663:1 1714:1 1929:1 1937:1 2176:1 2312:1 2313:1 2407:1 2550:1 2628:1 2652:1 2674:1 2857:1 3067:1 3118:1 3207:1 3273:1 3444:1 3634:1 3635:1 3671:1 3673:1 3846:1 3891:1 3927:1 3938:1 4015:1 4181:1 4251:1 4264:1 4474:1 4484:1 4528:1 4590:1 4731:1 4740:1 4778:1 5054:1 5066:1 5368:1 5590:1 5734:1 
0.02493879275152911 0 0 71:1 112:1 265:1 482:1 816:1 978:1 1308:1 1408:1 1596:1 1607:1 1643:1 1666:1 1736:1 1764:1 1794:1 1797:1 1811:1 1824:1 1877:1 2176:1 2312:1 2313:1 2396:1 2652:1 2812:1 2857:1 3067:1 3068:1 3207:1 3634:1 3671:1 3820:1 3822:1 3829:1 3846:1 3891:1 3938:1 4015:1 4321:1 4329:1 4344:1 4345:1 4346:1 4455:1 4456:1 4457:1 4528:1 4731:1 4740:1 4778:1 4780:1 4791:1 4864:1 4883:1 4884:1 4885:1 4887:1 4906:1 4912:1 5080:1 5190:1 5191:1 5193:1 5265:1 5283:1 5319:1 5368:1 5370:1 5411:1 5479:1 5618:1 5648:1 5734:1 5753:1 5852:1 5983:1 
0.1141787768679465 0.4623081715023517 0.2349837188623153 71:1 369:1 425:1 482:1 706:1 708:1 816:1 817:1 883:1 894:1 978:1 1643:1 1655:1 1852:1 1929:1 1933:1 1934:1 2176:1 2312:1 2313:1 2407:1 2408:1 2453:1 2628:1 2842:1 2969:1 3067:1 3634:1 3673:1 3700:1 3704:1 3846:1 3859:1 3891:1 3900:1 3938:1 3942:1 3989:1 4528:1 4778:1 4864:1 4949:1 4953:1 5083:1 5084:1 5368:1 5542:1 5734:1 5834:1 6034:1 6166:1 6185:1 6233:1 6265:1 
0 0.04810438119140812 0.09125336181973198 482:1 645:1 816:1 1243:1 1255:1 1308:1 1422:1 1643:1 1674:1 1676:1 1736:1 1881:1 1929:1 2176:1 2312:1 2313:1 2679:1 2969:1 3067:1 3118:1 3207:1 3213:1 3214:1 3273:1 3634:1 3673:1 3722:1 3724:1 3793:1 3820:1 3846:1 3859:1 3891:1 3938:1 4015:1 4321:1 4367:1 4528:1 4717:1 4763:1 4778:1 4839:1 4857:1 4858:1 4975:1 5113:1 5118:1 5142:1 5368:1 5542:1 5734:1 5753:1 5852:1 5925:1 5959:1 5960:1 
0 0 0.02820328530319829 295:1 482:1 610:1 816:1 1055:1 1063:1 1303:1 1643:1 1736:1 1881:1 1929:1 2176:1 2208:1 2227:1 2312:1 2313:1 2674:1 2679:1 2844:1 3067:1 3118:1 3154:1 3273:1 3511:1 3634:1 3673:1 3722:1 3724:1 3764:1 3793:1 3820:1 3846:1 3891:1 3912:1 3938:1 3980:1 4015:1 4017:1 4049:1 4251:1 4303:1 4317:1 4321:1 4367:1 4528:1 4717:1 4763:1 4778:1 4975:1 5142:1 5283:1 5331:1 5333:1 5349:1 5368:1 5542:1 5734:1 5819:1 6034:1 6128:1 6233:1 6234:1 
0.1058143223990621 0.08442774978939689 0 112:1 308:1 325:1 352:1 816:1 1308:1 1310:1 1643:1 1929:1 2146:1 2635:1 2844:1 2845:1 2847:1 2969:1 3273:1 3444:1 3452:1 3453:1 3454:1 3455:1 3587:1 3846:1 3980:1 4015:1 4017:1 4022:1 4317:1 4528:1 4731:1 4778:1 5092:1 5368:1 5411:1 6275:1 6282:1 
0.09783945626099316 0.00800369623449365 0.004945654503396999 183:1 187:1 189:1 816:1 1308:1 1470:1 1514:1 1588:1 1589:1 1590:1 1643:1 1794:1 1929:1 2146:1 2176:1 2407:1 2635:1 2773:1 3273:1 3444:1 3452:1 3453:1 3454:1 3455:1 3634:1 3673:1 3820:1 3822:1 3838:1 3846:1 3980:1 3989:1 4015:1 4112:1 4528:1 4731:1 4755:1 4778:1 4780:1 4799:1 4802:1 5092:1 5368:1 5734:1 5746:1 6034:1 
0 0.05472235823153023 0 71:1 112:1 816:1 1055:1 1073:1 1308:1 1643:1 1794:1 1811:1 1838:1 1860:1 1929:1 2002:1 2007:1 2064:1 2067:1 2146:1 2635:1 2679:1 2706:1 2707:1 2708:1 2842:1 3067:1 3273:1 3275:1 3281:1 3440:1 3444:1 3452:1 3453:1 3454:1 3455:1 3516:1 3634:1 3635:1 3846:1 3870:1 3912:1 3980:1 4015:1 4321:1 4329:1 4354:1 4474:1 4484:1 4485:1 4488:1 4495:1 4507:1 4528:1 4731:1 4778:1 4975:1 5017:1 5092:1 5094:1 5368:1 5734:1 6034:1 6035:1 6051:1 
0 2.692482213800571 0.2557235902173056 816:1 925:1 1643:1 1929:1 2146:1 2176:1 2407:1 2635:1 3067:1 3207:1 3216:1 3273:1 3444:1 3452:1 3453:1 3454:1 3455:1 3634:1 3673:1 3710:1 3846:1 3891:1 3904:1 3980:1 4528:1 4731:1 4778:1 5092:1 5368:1 5411:1 5415:1 5427:1 5428:1 6034:1 
0 0.09395970815455934 0 816:1 1150:1 1153:1 1191:1 1308:1 1596:1 1606:1 1643:1 1702:1 1736:1 1811:1 1842:1 1929:1 2146:1 2635:1 2652:1 2731:1 2842:1 3067:1 3154:1 3207:1 3273:1 3444:1 3452:1 3453:1 3454:1 3455:1 3516:1 3543:1 3550:1 3551:1 3634:1 3671:1 3819:1 3846:1 3904:1 3948:1 3980:1 4015:1 4251:1 4268:1 4528:1 4529:1 4729:1 4731:1 4764:1 4778:1 5092:1 5193:1 5368:1 5618:1 5734:1 5753:1 6034:1 6128:1 6145:1 6146:1 6275:1 
0.05911528526599556 0 0.002047745025327518 816:1 1929:1 2146:1 2635:1 3273:1 3444:1 3452:1 3453:1 3454:1 3455:1 3846:1 3980:1 4528:1 4731:1 4778:1 5092:1 5368:1 
0.08999784646511559 0.3435243108771616 0.02510924518546376 71:1 157:1 234:1 384:1 482:1 610:1 640:1 816:1 1034:1 1035:1 1233:1 1273:1 1296:1 1308:1 1643:1 1736:1 1752:1 1929:1 2146:1 2176:1 2177:1 2407:1 2550:1 2635:1 2969:1 3067:1 3194:1 3273:1 3275:1 3310:1 3315:1 3348:1 3363:1 3444:1 3452:1 3453:1 3454:1 3455:1 3634:1 3729:1 3846:1 3870:1 3912:1 3980:1 3989:1 4015:1 4474:1 4482:1 4528:1 4529:1 4731:1 4763:1 4778:1 4864:1 5054:1 5055:1 5056:1 5057:1 5060:1 5063:1 5092:1 5193:1 5248:1 5368:1 5588:1 5734:1 5819:1 5834:1 5839:1 6233:1 6261:1 6275:1 
0.02020187719861605 0.1503965429459468 0.05381226872710242 71:1 275:1 816:1 925:1 1308:1 1470:1 1475:1 1478:1 1643:1 1736:1 1794:1 1881:1 1922:1 1929:1 2002:1 2043:1 2146:1 2176:1 2407:1 2635:1 2644:1 2674:1 2675:1 2815:1 2857:1 3067:1 3068:1 3083:1 3086:1 3194:1 3273:1 3444:1 3452:1 3453:1 3454:1 3455:1 3634:1 3731:1 3819:1 3820:1 3846:1 3980:1 4528:1 4729:1 4731:1 4778:1 5092:1 5193:1 5245:1 5368:1 5411:1 5479:1 5542:1 5555:1 5557:1 5734:1 5743:1 5766:1 5798:1 6034:1 6035:1 6051:1 
0.006432461427108004 0 0.02138074813483536 112:1 482:1 610:1 625:1 627:1 816:1 1308:1 1470:1 1515:1 1643:1 1702:1 1703:1 1929:1 2146:1 2176:1 2177:1 2255:1 2628:1 2635:1 2674:1 2675:1 2842:1 2857:1 2860:1 3067:1 3068:1 3194:1 3207:1 3216:1 3273:1 3444:1 3452:1 3453:1 3454:1 3455:1 3634:1 3635:1 3846:1 3870:1 3872:1 3891:1 3904:1 3980:1 4015:1 4124:1 4129:1 4130:1 4131:1 4189:1 4528:1 4708:1 4731:1 4778:1 5092:1 5368:1 5411:1 5434:1 5435:1 5436:1 5734:1 5773:1 
0 0.322014436706913 0 112:1 247:1 816:1 817:1 894:1 917:1 918:1 919:1 978:1 992:1 1308:1 1643:1 1736:1 1764:1 1792:1 1794:1 1929:1 2002:1 2146:1 2635:1 2844:1 2852:1 3067:1 3258:1 3273:1 3444:1 3452:1 3453:1 3454:1 3455:1 3634:1 3820:1 3846:1 3980:1 4015:1 4251:1 4293:1 4474:1 4484:1 4514:1 4528:1 4731:1 4763:1 4778:1 4839:1 5092:1 5368:1 5411:1 5542:1 5734:1 5753:1 
0 0 0.06689613948990381 482:1 610:1 816:1 817:1 1243:1 1244:1 1245:1 1308:1 1470:1 1500:1 1501:1 1643:1 1644:1 1666:1 1929:1 2002:1 2045:1 2146:1 2176:1 2255:1 2628:1 2635:1 2674:1 2727:1 2728:1 2770:1 3067:1 3068:1 3273:1 3444:1 3452:1 3453:1 3454:1 3455:1 3634:1 3731:1 3820:1 3846:1 3980:1 4015:1 4251:1 4283:1 4528:1 4529:1 4598:1 4731:1 4778:1 4975:1 4977:1 5092:1 5368:1 5370:1 5618:1 5619:1 6275:1 
0.1967675832536862 0.1514247006881153 0.1638865369001055 816:1 1273:1 1643:1 1736:1 1764:1 1811:1 1838:1 1841:1 1929:1 2146:1 2176:1 2384:1 2635:1 3273:1 3444:1 3452:1 3453:1 3454:1 3455:1 3634:1 3820:1 3846:1 3980:1 4528:1 4731:1 4778:1 4864:1 4873:1 4879:1 4906:1 4912:1 5092:1 5368:1 5542:1 5734:1 5819:1 
0.1044614236143565 0.5475207069798308 0.1170044179770124 482:1 775:1 787:1 816:1 1243:1 1244:1 1246:1 1267:1 1270:1 1308:1 1643:1 1794:1 1797:1 1929:1 2146:1 2176:1 2302:1 2407:1 2511:1 2635:1 2674:1 3067:1 3271:1 3273:1 3444:1 3452:1 3453:1 3454:1 3455:1 3634:1 3673:1 3846:1 3927:1 3980:1 4015:1 4528:1 4731:1 4749:1 4778:1 5036:1 5092:1 5368:1 5728:1 5731:1 5732:1 5734:1 5753:1 6233:1 
0.0006542441630603472 0.160702868628162 0.05451658052950268 112:1 137:1 139:1 157:1 295:1 376:1 816:1 894:1 1055:1 1308:1 1470:1 1643:1 1736:1 1764:1 1768:1 1769:1 1794:1 1807:1 1881:1 1901:1 1919:1 1929:1 2146:1 2176:1 2407:1 2550:1 2581:1 2635:1 2844:1 2848:1 2969:1 3273:1 3444:1 3452:1 3453:1 3454:1 3455:1 3591:1 3594:1 3595:1 3634:1 3673:1 3710:1 3820:1 3846:1 3912:1 3980:1 4015:1 4112:1 4251:1 4293:1 4298:1 4317:1 4321:1 4528:1 4731:1 4763:1 4778:1 4947:1 4975:1 5018:1 5092:1 5193:1 5283:1 5327:1 5368:1 5370:1 5378:1 5411:1 5479:1 5734:1 5739:1 5740:1 5742:1 5852:1 5853:1 5865:1 6034:1 6230:1 
0 0.01952980504764504 0.04493657643233745 816:1 978:1 1308:1 1454:1 1460:1 1470:1 1545:1 1643:1 1702:1 1736:1 1764:1 1929:1 2000:1 2002:1 2146:1 2635:1 2646:1 2969:1 3066:1 3067:1 3273:1 3444:1 3452:1 3453:1 3454:1 3455:1 3634:1 3673:1 3820:1 3846:1 3877:1 3879:1 3881:1 3980:1 4015:1 4528:1 4731:1 4778:1 5030:1 5035:1 5092:1 5368:1 5734:1 5789:1 5852:1 5925:1 5941:1 5943:1 6233:1 
0.1014122521212686 0.2363850235154615 0 482:1 816:1 925:1 943:1 948:1 1308:1 1643:1 1666:1 1674:1 1702:1 1929:1 2146:1 2407:1 2489:1 2503:1 2635:1 2894:1 2938:1 2969:1 3067:1 3273:1 3275:1 3361:1 3444:1 3452:1 3453:1 3454:1 3455:1 3516:1 3559:1 3634:1 3673:1 3683:1 3685:1 3846:1 3971:1 3980:1 4015:1 4221:1 4317:1 4319:1 4528:1 4731:1 4778:1 4975:1 5025:1 5026:1 5092:1 5368:1 5411:1 6233:1 
0 0.06616046409963819 0.02259172763465126 253:1 363:1 482:1 699:1 703:1 816:1 894:1 897:1 901:1 1308:1 1310:1 1339:1 1643:1 1666:1 1667:1 1702:1 1794:1 1811:1 1929:1 2064:1 2091:1 2146:1 2176:1 2635:1 2731:1 2881:1 2969:1 2989:1 3067:1 3194:1 3207:1 3273:1 3444:1 3452:1 3453:1 3454:1 3455:1 3627:1 3634:1 3635:1 3671:1 3731:1 3846:1 3931:1 3980:1 4015:1 4017:1 4041:1 4056:1 4057:1 4160:1 4528:1 4529:1 4731:1 4778:1 4780:1 5092:1 5355:1 5360:1 5368:1 5734:1 5812:1 5823:1 5830:1 5831:1 6034:1 6128:1 6145:1 6146:1 6233:1 
0.0501057121011846 0 0.009908636860962763 112:1 295:1 296:1 298:1 363:1 413:1 482:1 610:1 625:1 626:1 816:1 817:1 871:1 999:1 1267:1 1308:1 1368:1 1373:1 1374:1 1643:1 1702:1 1794:1 1929:1 2146:1 2176:1 2177:1 2201:1 2635:1 2674:1 2675:1 3067:1 3068:1 3194:1 3195:1 3273:1 3444:1 3452:1 3453:1 3454:1 3455:1 3634:1 3803:1 3807:1 3820:1 3846:1 3980:1 4015:1 4148:1 4251:1 4293:1 4528:1 4529:1 4731:1 4778:1 5092:1 5368:1 5411:1 5542:1 5551:1 5734:1 5852:1 5878:1 5884:1 6034:1 6166:1 6180:1 6182:1 
0.02067218158150898 0.2109127466765809 0 112:1 295:1 296:1 298:1 363:1 413:1 482:1 610:1 625:1 816:1 817:1 871:1 999:1 1160:1 1172:1 1267:1 1308:1 1368:1 1373:1 1374:1 1643:1 1794:1 1929:1 2146:1 2176:1 2177:1 2201:1 2635:1 2674:1 2675:1 2842:1 3067:1 3068:1 3154:1 3194:1 3195:1 3273:1 3444:1 3452:1 3453:1 3454:1 3455:1 3516:1 3543:1 3550:1 3551:1 3634:1 3820:1 3846:1 3904:1 3948:1 3980:1 4015:1 4148:1 4251:1 4268:1 4293:1 4528:1 4529:1 4731:1 4778:1 5092:1 5368:1 5411:1 5542:1 5551:1 5618:1 5619:1 5734:1 6034:1 6166:1 6180:1 6182:1 
0.007497086475167217 0 0 275:1 816:1 1643:1 1702:1 1736:1 1929:1 2146:1 2176:1 2407:1 2408:1 2453:1 2505:1 2635:1 2969:1 3051:1 3067:1 3258:1 3273:1 3275:1 3318:1 3327:1 3444:1 3452:1 3453:1 3454:1 3455:1 3634:1 3635:1 3656:1 3673:1 3822:1 3846:1 3980:1 4015:1 4317:1 4320:1 4528:1 4529:1 4731:1 4778:1 5092:1 5368:1 5734:1 
0.05481205333487862 0.4212727265073506 0 183:1 185:1 234:1 253:1 261:1 265:1 482:1 483:1 501:1 502:1 816:1 894:1 912:1 1308:1 1596:1 1607:1 1643:1 1794:1 1929:1 2146:1 2635:1 2652:1 2672:1 3067:1 3194:1 3273:1 3444:1 3452:1 3453:1 3454:1 3455:1 3634:1 3635:1 3656:1 3671:1 3846:1 3980:1 4528:1 4731:1 4740:1 4778:1 4975:1 5092:1 5193:1 5223:1 5233:1 5368:1 5411:1 5682:1 5734:1 5852:1 5878:1 
0 0.07152175686593984 0 816:1 978:1 1643:1 1929:1 2002:1 2146:1 2635:1 2646:1 2842:1 2969:1 3066:1 3067:1 3068:1 3083:1 3090:1 3273:1 3444:1 3452:1 3453:1 3454:1 3455:1 3634:1 3846:1 3885:1 3980:1 4015:1 4528:1 4731:1 4778:1 4975:1 5025:1 5027:1 5030:1 5035:1 5092:1 5368:1 5542:1 6233:1 6275:1 
0 0.06171032399029236 0 157:1 473:1 482:1 816:1 894:1 905:1 906:1 925:1 1308:1 1310:1 1349:1 1643:1 1736:1 1752:1 1764:1 1768:1 1794:1 1811:1 1824:1 1929:1 2146:1 2176:1 2177:1 2338:1 2357:1 2407:1 2635:1 2857:1 2865:1 2894:1 2933:1 2969:1 3033:1 3035:1 3273:1 3444:1 3452:1 3453:1 3454:1 3455:1 3634:1 3729:1 3820:1 3846:1 3870:1 3980:1 4015:1 4321:1 4329:1 4344:1 4528:1 4731:1 4778:1 4864:1 4906:1 4912:1 5092:1 5368:1 5411:1 5415:1 5479:1 5581:1 5582:1 5583:1 5852:1 5925:1 6233:1 
0 0.005918232915362144 0 46:1 56:1 112:1 234:1 265:1 482:1 483:1 501:1 502:1 610:1 816:1 817:1 894:1 912:1 1258:1 1259:1 1308:1 1310:1 1313:1 1596:1 1607:1 1643:1 1794:1 1929:1 2146:1 2176:1 2255:1 2628:1 2635:1 2652:1 2674:1 2731:1 3067:1 3154:1 3194:1 3207:1 3216:1 3273:1 3444:1 3452:1 3453:1 3454:1 3455:1 3634:1 3671:1 3846:1 3891:1 3904:1 3980:1 4528:1 4731:1 4740:1 4778:1 4780:1 4783:1 5092:1 5193:1 5223:1 5233:1 5368:1 5411:1 5434:1 5435:1 5436:1 5542:1 5543:1 5544:1 5734:1 5823:1 5824:1 5852:1 5878:1 6034:1 6128:1 6145:1 6146:1 
0 0.008041961247160948 0 360:1 412:1 816:1 1643:1 1736:1 1794:1 1797:1 1811:1 1929:1 2117:1 2134:1 2146:1 2176:1 2635:1 2659:1 2674:1 2675:1 2842:1 2857:1 3067:1 3194:1 3202:1 3207:1 3273:1 3275:1 3310:1 3317:1 3444:1 3452:1 3453:1 3454:1 3455:1 3477:1 3634:1 3846:1 3980:1 4474:1 4484:1 4528:1 4731:1 4778:1 5092:1 5283:1 5284:1 5302:1 5368:1 5370:1 5734:1 5805:1 5841:1 6034:1 6035:1 6051:1 
0.02077244092212888 0 0 46:1 112:1 172:1 180:1 308:1 325:1 333:1 482:1 816:1 1055:1 1074:1 1104:1 1105:1 1273:1 1308:1 1310:1 1326:1 1566:1 1643:1 1702:1 1794:1 1811:1 1929:1 2146:1 2407:1 2408:1 2410:1 2550:1 2576:1 2635:1 2842:1 3067:1 3273:1 3444:1 3452:1 3453:1 3454:1 3455:1 3486:1 3634:1 3731:1 3846:1 3912:1 3980:1 4015:1 4221:1 4317:1 4319:1 4321:1 4322:1 4455:1 4474:1 4484:1 4495:1 4528:1 4529:1 4596:1 4731:1 4763:1 4778:1 4864:1 5092:1 5368:1 5618:1 5619:1 5734:1 
0 0.001225632015142299 0 816:1 978:1 1199:1 1200:1 1308:1 1470:1 1471:1 1643:1 1702:1 1736:1 1764:1 1794:1 1797:1 1929:1 1968:1 1970:1 2146:1 2407:1 2550:1 2555:1 2628:1 2635:1 2652:1 2731:1 2734:1 2743:1 2894:1 2919:1 2969:1 3066:1 3067:1 3207:1 3273:1 3401:1 3409:1 3444:1 3452:1 3453:1 3454:1 3455:1 3634:1 3671:1 3820:1 3846:1 3874:1 3980:1 4015:1 4129:1 4133:1 4134:1 4251:1 4293:1 4528:1 4529:1 4567:1 4573:1 4731:1 4778:1 4864:1 4920:1 4927:1 4930:1 5030:1 5035:1 5092:1 5142:1 5368:1 5542:1 5852:1 5878:1 5884:1 5925:1 5983:1 6233:1 
0 1.380027425838002 0.008911245148148271 816:1 1929:1 2146:1 2635:1 3273:1 3444:1 3452:1 3453:1 3454:1 3455:1 3846:1 3980:1 4528:1 4731:1 4778:1 5092:1 5368:1 
0.01369164298726284 0.008770411733729645 0 112:1 136:1 157:1 158:1 232:1 253:1 283:1 284:1 413:1 482:1 562:1 816:1 925:1 1308:1 1643:1 1687:1 1689:1 1692:1 1714:1 1736:1 1764:1 1794:1 1800:1 1929:1 2146:1 2176:1 2208:1 2227:1 2234:1 2235:1 2240:1 2407:1 2597:1 2635:1 2644:1 2674:1 2857:1 2969:1 3067:1 3154:1 3273:1 3275:1 3310:1 3318:1 3319:1 3320:1 3444:1 3452:1 3453:1 3454:1 3455:1 3634:1 3635:1 3673:1 3710:1 3726:1 3728:1 3731:1 3734:1 3820:1 3846:1 3980:1 4015:1 4189:1 4211:1 4528:1 4529:1 4731:1 4764:1 4778:1 5092:1 5193:1 5194:1 5199:1 5223:1 5226:1 5368:1 5370:1 5411:1 5542:1 5551:1 5563:1 5618:1 5734:1 5761:1 5766:1 6034:1 6035:1 6051:1 6057:1 6128:1 6275:1 6308:1 6311:1 
0 0.4039136085381814 0.01012711530491238 71:1 369:1 379:1 482:1 548:1 550:1 551:1 816:1 817:1 849:1 863:1 1308:1 1596:1 1643:1 1666:1 1702:1 1736:1 1753:1 1929:1 2002:1 2146:1 2176:1 2255:1 2635:1 2894:1 3067:1 3273:1 3444:1 3452:1 3453:1 3454:1 3455:1 3634:1 3846:1 3980:1 4015:1 4321:1 4384:1 4400:1 4528:1 4731:1 4778:1 5092:1 5142:1 5368:1 5682:1 5734:1 5819:1 5852:1 5853:1 5854:1 5978:1 6034:1 6035:1 6051:1 6052:1 
0.1515103988934993 0.1301354298871031 0.1462821362600523 482:1 775:1 816:1 1308:1 1421:1 1470:1 1542:1 1546:1 1570:1 1643:1 1666:1 1794:1 1929:1 2146:1 2176:1 2255:1 2273:1 2407:1 2550:1 2563:1 2564:1 2635:1 2731:1 2874:1 2891:1 2894:1 2933:1 3067:1 3273:1 3378:1 3444:1 3452:1 3453:1 3454:1 3455:1 3516:1 3559:1 3634:1 3671:1 3673:1 3846:1 3904:1 3912:1 3916:1 3927:1 3938:1 3948:1 3971:1 3980:1 4015:1 4251:1 4317:1 4528:1 4731:1 4778:1 4949:1 4963:1 4964:1 5092:1 5142:1 5193:1 5368:1 5596:1 5618:1 5652:1 5655:1 5734:1 5852:1 5878:1 5978:1 5979:1 6034:1 6128:1 6145:1 6146:1 6151:1 6233:1 
0.004113475146905994 0 0 71:1 112:1 253:1 482:1 586:1 593:1 645:1 646:1 647:1 775:1 810:1 811:1 816:1 817:1 838:1 1308:1 1310:1 1408:1 1643:1 1714:1 1736:1 1764:1 1794:1 1811:1 1827:1 1828:1 1929:1 2146:1 2407:1 2635:1 2969:1 3066:1 3067:1 3068:1 3076:1 3273:1 3275:1 3318:1 3444:1 3452:1 3453:1 3454:1 3455:1 3634:1 3635:1 3671:1 3673:1 3820:1 3846:1 3904:1 3980:1 4015:1 4017:1 4087:1 4088:1 4528:1 4731:1 4763:1 4778:1 4780:1 4791:1 4864:1 4902:1 4903:1 5030:1 5035:1 5092:1 5142:1 5143:1 5193:1 5194:1 5208:1 5209:1 5368:1 5370:1 5411:1 5456:1 5457:1 5734:1 5739:1 5851:1 6034:1 6166:1 6198:1 6233:1 6239:1 6275:1 
0 0.07262666544454097 0.004362603678398187 172:1 482:1 737:1 816:1 925:1 943:1 953:1 1308:1 1408:1 1616:1 1643:1 1702:1 1736:1 1794:1 1797:1 1929:1 2002:1 2046:1 2146:1 2407:1 2408:1 2453:1 2454:1 2456:1 2635:1 2644:1 2969:1 3067:1 3273:1 3444:1 3452:1 3453:1 3454:1 3455:1 3634:1 3846:1 3870:1 3980:1 4015:1 4189:1 4321:1 4384:1 4394:1 4399:1 4400:1 4405:1 4406:1 4528:1 4731:1 4763:1 4778:1 4975:1 4982:1 5092:1 5094:1 5142:1 5164:1 5165:1 5368:1 5542:1 5734:1 5761:1 5852:1 5983:1 6007:1 6011:1 6015:1 6034:1 6035:1 6051:1 6219:1 6275:1 6278:1 
0 0.007803543296874818 0 71:1 79:1 84:1 85:1 482:1 610:1 816:1 890:1 894:1 1308:1 1423:1 1424:1 1643:1 1736:1 1746:1 1764:1 1794:1 1811:1 1838:1 1929:1 2146:1 2176:1 2255:1 2269:1 2338:1 2355:1 2635:1 2674:1 2969:1 2989:1 3067:1 3068:1 3154:1 3273:1 3275:1 3346:1 3444:1 3452:1 3453:1 3454:1 3455:1 3634:1 3671:1 3673:1 3710:1 3731:1 3738:1 3820:1 3846:1 3859:1 3912:1 3976:1 3980:1 3989:1 3997:1 4015:1 4321:1 4329:1 4339:1 4474:1 4484:1 4528:1 4529:1 4558:1 4731:1 4778:1 4975:1 5092:1 5193:1 5261:1 5368:1 5542:1 5555:1 5588:1 5618:1 5619:1 5679:1 5709:1 5713:1 5725:1 5734:1 5842:1 5852:1 5878:1 5896:1 6034:1 6128:1 6163:1 
0.0486633213316256 0.6346209758552871 0 265:1 268:1 482:1 816:1 925:1 1308:1 1596:1 1607:1 1643:1 1929:1 2146:1 2407:1 2635:1 2652:1 3273:1 3444:1 3452:1 3453:1 3454:1 3455:1 3634:1 3671:1 3846:1 3980:1 4528:1 4731:1 4740:1 4778:1 5092:1 5368:1 5411:1 5415:1 5416:1 6034:1 6073:1 
0 0 0.06587122129523441 46:1 279:1 425:1 481:1 482:1 816:1 978:1 999:1 1017:1 1267:1 1308:1 1470:1 1564:1 1643:1 1929:1 2146:1 2407:1 2597:1 2600:1 2635:1 2969:1 3006:1 3015:1 3067:1 3068:1 3073:1 3207:1 3247:1 3273:1 3275:1 3318:1 3329:1 3354:1 3444:1 3452:1 3453:1 3454:1 3455:1 3634:1 3673:1 3731:1 3846:1 3912:1 3980:1 3989:1 4015:1 4017:1 4056:1 4076:1 4321:1 4382:1 4528:1 4731:1 4763:1 4778:1 4863:1 4975:1 5054:1 5062:1 5092:1 5113:1 5117:1 5283:1 5368:1 5618:1 5652:1 5679:1 5734:1 5819:1 5852:1 5853:1 5875:1 6034:1 6073:1 6080:1 6275:1 6308:1 
0.01007526888425636 0.06028855803664562 0.03582108901504177 35:1 71:1 95:1 378:1 482:1 645:1 660:1 816:1 925:1 978:1 1308:1 1310:1 1311:1 1312:1 1339:1 1423:1 1555:1 1558:1 1643:1 1679:1 1736:1 1794:1 1852:1 1929:1 1998:1 2000:1 2146:1 2176:1 2407:1 2597:1 2635:1 2731:1 2894:1 2895:1 2931:1 2969:1 3067:1 3154:1 3263:1 3273:1 3444:1 3452:1 3453:1 3454:1 3455:1 3516:1 3556:1 3634:1 3671:1 3846:1 3938:1 3980:1 4004:1 4528:1 4558:1 4729:1 4731:1 4763:1 4778:1 5092:1 5368:1 5542:1 5563:1 5618:1 5648:1 5734:1 5739:1 5852:1 5853:1 5865:1 5878:1 5896:1 5917:1 5919:1 6034:1 6035:1 6038:1 6040:1 
0.03694837229866012 0.004393940342712331 0 35:1 39:1 40:1 482:1 562:1 563:1 610:1 748:1 816:1 1308:1 1408:1 1643:1 1666:1 1736:1 1746:1 1929:1 2146:1 2635:1 2652:1 2969:1 2989:1 3067:1 3154:1 3182:1 3273:1 3444:1 3452:1 3453:1 3454:1 3455:1 3634:1 3670:1 3671:1 3822:1 3846:1 3980:1 4528:1 4731:1 4778:1 5092:1 5368:1 5734:1 5850:1 
0 0.1755632787886806 0 1:1 21:1 482:1 610:1 613:1 737:1 816:1 1308:1 1643:1 1661:1 1663:1 1736:1 1794:1 1929:1 2146:1 2176:1 2208:1 2227:1 2229:1 2635:1 3067:1 3207:1 3222:1 3273:1 3444:1 3452:1 3453:1 3454:1 3455:1 3516:1 3634:1 3671:1 3673:1 3731:1 3846:1 3931:1 3980:1 3989:1 4015:1 4221:1 4246:1 4251:1 4308:1 4474:1 4484:1 4495:1 4528:1 4731:1 4778:1 4864:1 4873:1 4875:1 5092:1 5098:1 5113:1 5115:1 5116:1 5368:1 5618:1 5734:1 5789:1 5819:1 6219:1 6220:1 
0 0.03241009379625081 0.04465794486505769 35:1 482:1 756:1 816:1 1308:1 1467:1 1643:1 1674:1 1676:1 1702:1 1736:1 1811:1 1838:1 1852:1 1929:1 2064:1 2088:1 2146:1 2407:1 2627:1 2635:1 2673:1 2772:1 2894:1 2919:1 2969:1 3060:1 3061:1 3067:1 3118:1 3147:1 3194:1 3273:1 3428:1 3444:1 3452:1 3453:1 3454:1 3455:1 3634:1 3635:1 3637:1 3820:1 3846:1 3900:1 3938:1 3942:1 3980:1 4015:1 4129:1 4528:1 4731:1 4778:1 5092:1 5142:1 5160:1 5368:1 5734:1 5852:1 5878:1 6034:1 6128:1 6145:1 6154:1 6233:1 6275:1 6294:1 6295:1 
0.02503619171953622 0 0 71:1 201:1 265:1 282:1 308:1 325:1 816:1 1308:1 1470:1 1596:1 1607:1 1643:1 1702:1 1736:1 1811:1 1827:1 1929:1 2146:1 2176:1 2208:1 2227:1 2236:1 2635:1 2652:1 2894:1 2895:1 2914:1 2916:1 2968:1 2969:1 2989:1 2994:1 3033:1 3067:1 3154:1 3193:1 3273:1 3275:1 3281:1 3401:1 3405:1 3444:1 3452:1 3453:1 3454:1 3455:1 3634:1 3671:1 3841:1 3846:1 3980:1 3989:1 4015:1 4017:1 4051:1 4317:1 4528:1 4669:1 4731:1 4740:1 4763:1 4778:1 5092:1 5142:1 5368:1 5734:1 6034:1 6035:1 6233:1 6239:1 
0.02749379261970479 0 0 9:1 20:1 71:1 201:1 265:1 282:1 308:1 325:1 816:1 1308:1 1470:1 1596:1 1607:1 1643:1 1702:1 1736:1 1811:1 1827:1 1929:1 2146:1 2176:1 2208:1 2227:1 2236:1 2635:1 2652:1 2894:1 2895:1 2914:1 2916:1 2968:1 2969:1 2989:1 2994:1 3033:1 3067:1 3154:1 3193:1 3273:1 3275:1 3281:1 3318:1 3336:1 3401:1 3405:1 3444:1 3452:1 3453:1 3454:1 3455:1 3634:1 3671:1 3731:1 3841:1 3846:1 3980:1 3989:1 4015:1 4017:1 4051:1 4189:1 4317:1 4528:1 4669:1 4731:1 4740:1 4778:1 5092:1 5142:1 5368:1 5734:1 5852:1 5925:1 5946:1 6034:1 6035:1 6233:1 6239:1 6275:1 
0 0 0.01775551473210341 367:1 482:1 816:1 925:1 1160:1 1175:1 1267:1 1269:1 1308:1 1470:1 1534:1 1536:1 1537:1 1643:1 1644:1 1702:1 1811:1 1824:1 1929:1 2146:1 2407:1 2635:1 2674:1 3067:1 3068:1 3273:1 3444:1 3452:1 3453:1 3454:1 3455:1 3634:1 3820:1 3846:1 3904:1 3980:1 4015:1 4251:1 4302:1 4528:1 4658:1 4731:1 4778:1 4864:1 4865:1 4870:1 4975:1 5025:1 5080:1 5092:1 5142:1 5368:1 5542:1 5555:1 5618:1 5662:1 5852:1 5925:1 5959:1 5983:1 
0 0.04907410074605157 0 46:1 56:1 112:1 208:1 482:1 610:1 816:1 817:1 999:1 1011:1 1308:1 1310:1 1313:1 1339:1 1344:1 1596:1 1643:1 1736:1 1746:1 1764:1 1811:1 1812:1 1881:1 1901:1 1902:1 1929:1 2050:1 2055:1 2064:1 2101:1 2146:1 2635:1 2652:1 2674:1 3067:1 3068:1 3073:1 3118:1 3154:1 3160:1 3161:1 3207:1 3273:1 3275:1 3444:1 3452:1 3453:1 3454:1 3455:1 3634:1 3671:1 3820:1 3846:1 3980:1 4015:1 4017:1 4221:1 4222:1 4234:1 4528:1 4729:1 4731:1 4778:1 4839:1 5092:1 5283:1 5368:1 5370:1 5411:1 5465:1 5734:1 6230:1 
0.001820474872371067 0 0 46:1 295:1 482:1 483:1 505:1 513:1 684:1 685:1 816:1 1308:1 1408:1 1423:1 1643:1 1674:1 1685:1 1702:1 1714:1 1736:1 1794:1 1929:1 2146:1 2176:1 2208:1 2213:1 2333:1 2338:1 2341:1 2343:1 2407:1 2519:1 2550:1 2635:1 2674:1 2844:1 2969:1 3033:1 3067:1 3154:1 3273:1 3444:1 3452:1 3453:1 3454:1 3455:1 3634:1 3671:1 3673:1 3694:1 3758:1 3820:1 3846:1 3900:1 3924:1 3925:1 3938:1 3942:1 3946:1 3948:1 3980:1 3989:1 4015:1 4177:1 4178:1 4528:1 4529:1 4530:1 4542:1 4731:1 4763:1 4778:1 4949:1 4963:1 5092:1 5368:1 5525:1 5527:1 5542:1 5565:1 5590:1 5679:1 5734:1 5852:1 5878:1 5896:1 5909:1 6034:1 6166:1 6185:1 6189:1 
0.3256094016730834 0.04206185715491299 0.0668679872677761 112:1 308:1 325:1 333:1 384:1 386:1 816:1 890:1 894:1 897:1 999:1 1273:1 1308:1 1643:1 1659:1 1702:1 1736:1 1764:1 1881:1 1883:1 1884:1 1929:1 2146:1 2635:1 2844:1 3067:1 3118:1 3154:1 3207:1 3273:1 3444:1 3452:1 3453:1 3454:1 3455:1 3634:1 3820:1 3846:1 3980:1 4015:1 4221:1 4317:1 4319:1 4442:1 4528:1 4562:1 4731:1 4763:1 4778:1 5092:1 5368:1 5542:1 5543:1 5734:1 
0 0.01926309744458891 0.06847814505322175 71:1 79:1 88:1 467:1 816:1 890:1 1192:1 1197:1 1308:1 1643:1 1736:1 1764:1 1794:1 1929:1 2146:1 2635:1 2679:1 2685:1 2835:1 2879:1 3067:1 3068:1 3112:1 3114:1 3273:1 3444:1 3452:1 3453:1 3454:1 3455:1 3516:1 3565:1 3634:1 3673:1 3820:1 3846:1 3980:1 4474:1 4484:1 4528:1 4724:1 4731:1 4745:1 4778:1 5092:1 5183:1 5283:1 5305:1 5368:1 5411:1 5479:1 5542:1 5558:1 5559:1 5734:1 5753:1 5757:1 5852:1 5878:1 6034:1 6208:1 6209:1 
0.001682321705480438 0 0.0002261286727191119 283:1 816:1 894:1 923:1 999:1 1011:1 1308:1 1616:1 1643:1 1714:1 1721:1 1736:1 1742:1 1764:1 1794:1 1852:1 1860:1 1929:1 2146:1 2635:1 2674:1 2675:1 3067:1 3118:1 3154:1 3160:1 3161:1 3194:1 3273:1 3390:1 3444:1 3452:1 3453:1 3454:1 3455:1 3634:1 3820:1 3846:1 3980:1 4015:1 4251:1 4293:1 4298:1 4321:1 4383:1 4528:1 4637:1 4731:1 4763:1 4778:1 4864:1 4920:1 4927:1 4930:1 4931:1 5092:1 5368:1 5679:1 5734:1 5819:1 5852:1 5925:1 5929:1 
0 0.01071986280919497 0 183:1 187:1 482:1 645:1 665:1 666:1 816:1 925:1 978:1 1144:1 1308:1 1310:1 1326:1 1402:1 1403:1 1643:1 1702:1 1713:1 1714:1 1929:1 2146:1 2176:1 2407:1 2519:1 2524:1 2635:1 2679:1 2696:1 2699:1 2842:1 2881:1 3067:1 3118:1 3154:1 3206:1 3207:1 3216:1 3220:1 3273:1 3275:1 3296:1 3298:1 3444:1 3452:1 3453:1 3454:1 3455:1 3634:1 3820:1 3846:1 3859:1 3891:1 3912:1 3948:1 3980:1 4015:1 4017:1 4056:1 4221:1 4317:1 4474:1 4484:1 4528:1 4731:1 4778:1 5089:1 5092:1 5283:1 5333:1 5368:1 5411:1 5415:1 5588:1 5709:1 5711:1 5734:1 5819:1 5852:1 5878:1 5884:1 5886:1 6034:1 6128:1 6163:1 
0 0.04181439744799273 0 112:1 124:1 125:1 131:1 369:1 370:1 816:1 1308:1 1548:1 1643:1 1702:1 1736:1 1929:1 2146:1 2635:1 2874:1 3067:1 3273:1 3444:1 3452:1 3453:1 3454:1 3455:1 3486:1 3634:1 3731:1 3803:1 3804:1 3846:1 3980:1 4528:1 4529:1 4643:1 4731:1 4778:1 5092:1 5193:1 5368:1 5370:1 5398:1 5618:1 5619:1 5852:1 5853:1 5869:1 
0 0.01753127299965452 0 157:1 158:1 232:1 482:1 722:1 816:1 925:1 978:1 995:1 1308:1 1310:1 1317:1 1318:1 1408:1 1643:1 1674:1 1676:1 1736:1 1746:1 1794:1 1929:1 2002:1 2146:1 2176:1 2208:1 2227:1 2338:1 2369:1 2370:1 2407:1 2519:1 2524:1 2628:1 2635:1 2674:1 2844:1 2852:1 2874:1 2894:1 2919:1 2969:1 3067:1 3154:1 3185:1 3273:1 3444:1 3452:1 3453:1 3454:1 3455:1 3634:1 3670:1 3671:1 3731:1 3846:1 3980:1 4015:1 4251:1 4321:1 4384:1 4400:1 4403:1 4528:1 4731:1 4778:1 4839:1 5092:1 5142:1 5152:1 5153:1 5193:1 5368:1 5411:1 5415:1 5426:1 5618:1 5652:1 5734:1 5753:1 5757:1 5759:1 6034:1 6110:1 6275:1 6297:1 6299:1 
0 0 0.0161875937021185 35:1 232:1 369:1 482:1 816:1 978:1 1308:1 1423:1 1643:1 1674:1 1676:1 1736:1 1794:1 1852:1 1929:1 2146:1 2176:1 2177:1 2180:1 2208:1 2227:1 2338:1 2369:1 2373:1 2407:1 2408:1 2453:1 2515:1 2628:1 2635:1 2874:1 2969:1 3067:1 3154:1 3185:1 3273:1 3444:1 3452:1 3453:1 3454:1 3455:1 3634:1 3731:1 3820:1 3846:1 3912:1 3931:1 3980:1 3989:1 4015:1 4251:1 4263:1 4293:1 4298:1 4299:1 4528:1 4558:1 4644:1 4731:1 4745:1 4763:1 4778:1 4949:1 4953:1 4954:1 5092:1 5142:1 5152:1 5153:1 5193:1 5368:1 5370:1 5406:1 5734:1 5753:1 5757:1 5758:1 5852:1 5853:1 5865:1 5878:1 5896:1 5901:1 6034:1 6110:1 
0.02944033206217157 0.1879271427936622 0.03399548387949176 234:1 253:1 259:1 482:1 483:1 501:1 502:1 610:1 631:1 645:1 665:1 816:1 1308:1 1310:1 1352:1 1643:1 1687:1 1693:1 1794:1 1929:1 2146:1 2173:1 2176:1 2407:1 2635:1 2674:1 2675:1 3067:1 3194:1 3207:1 3216:1 3258:1 3271:1 3273:1 3391:1 3444:1 3452:1 3453:1 3454:1 3455:1 3634:1 3635:1 3846:1 3891:1 3980:1 3989:1 4528:1 4731:1 4778:1 4975:1 4982:1 4983:1 5092:1 5193:1 5245:1 5368:1 5542:1 5555:1 5557:1 5603:1 5613:1 5682:1 5734:1 5819:1 6034:1 6035:1 6051:1 6054:1 6233:1 6275:1 6308:1 
0 0 0.0005653010307890152 71:1 112:1 183:1 816:1 925:1 978:1 1055:1 1073:1 1267:1 1308:1 1310:1 1313:1 1643:1 1702:1 1714:1 1736:1 1881:1 1901:1 1903:1 1904:1 1929:1 2000:1 2146:1 2407:1 2408:1 2635:1 2652:1 2674:1 2842:1 3067:1 3068:1 3083:1 3118:1 3273:1 3444:1 3452:1 3453:1 3454:1 3455:1 3516:1 3603:1 3634:1 3635:1 3643:1 3673:1 3694:1 3846:1 3912:1 3980:1 4015:1 4017:1 4028:1 4221:1 4222:1 4227:1 4321:1 4376:1 4474:1 4484:1 4528:1 4731:1 4778:1 5054:1 5066:1 5092:1 5368:1 5370:1 5411:1 5468:1 5734:1 5739:1 5741:1 5744:1 6230:1 
0 0.02771296428036811 0.06973702527737681 157:1 425:1 482:1 571:1 816:1 925:1 943:1 1308:1 1470:1 1515:1 1643:1 1702:1 1852:1 1929:1 2146:1 2176:1 2407:1 2635:1 2842:1 3067:1 3118:1 3154:1 3160:1 3194:1 3273:1 3275:1 3295:1 3444:1 3452:1 3453:1 3454:1 3455:1 3846:1 3980:1 4528:1 4731:1 4778:1 5054:1 5062:1 5092:1 5368:1 5679:1 5734:1 
0.408984861981106 0 0 816:1 1643:1 1811:1 1929:1 2146:1 2635:1 2969:1 3066:1 3273:1 3444:1 3452:1 3453:1 3454:1 3455:1 3846:1 3980:1 4015:1 4528:1 4731:1 4763:1 4778:1 5030:1 5035:1 5092:1 5368:1 6233:1 6234:1 
0 0.09227589180256916 0.004390891888685082 112:1 379:1 481:1 482:1 483:1 524:1 816:1 894:1 905:1 907:1 909:1 978:1 1243:1 1244:1 1245:1 1308:1 1310:1 1428:1 1643:1 1644:1 1736:1 1764:1 1776:1 1781:1 1811:1 1852:1 1929:1 2146:1 2176:1 2208:1 2635:1 2842:1 3067:1 3194:1 3202:1 3207:1 3273:1 3444:1 3452:1 3453:1 3454:1 3455:1 3634:1 3820:1 3846:1 3891:1 3904:1 3980:1 4528:1 4731:1 4742:1 4778:1 4780:1 4791:1 5092:1 5097:1 5104:1 5105:1 5368:1 5542:1 5618:1 5662:1 5734:1 5739:1 5819:1 6275:1 6308:1 
0.03054558421967175 0.04839882044021258 0 35:1 71:1 95:1 97:1 234:1 265:1 482:1 483:1 501:1 816:1 925:1 1308:1 1596:1 1607:1 1643:1 1658:1 1666:1 1794:1 1929:1 2050:1 2146:1 2176:1 2208:1 2247:1 2407:1 2408:1 2409:1 2550:1 2552:1 2597:1 2635:1 2652:1 3067:1 3194:1 3258:1 3273:1 3444:1 3452:1 3453:1 3454:1 3455:1 3634:1 3635:1 3637:1 3671:1 3846:1 3980:1 4528:1 4731:1 4740:1 4750:1 4778:1 5092:1 5193:1 5223:1 5233:1 5236:1 5368:1 5411:1 5479:1 5499:1 5734:1 5753:1 5757:1 5852:1 5878:1 
0.05856032668476967 0.8666903108749785 0.1044487118654568 234:1 265:1 482:1 483:1 501:1 502:1 816:1 894:1 913:1 1308:1 1596:1 1607:1 1643:1 1794:1 1795:1 1929:1 2146:1 2635:1 2638:1 2652:1 2842:1 2969:1 3033:1 3037:1 3067:1 3154:1 3194:1 3273:1 3444:1 3452:1 3453:1 3454:1 3455:1 3634:1 3671:1 3846:1 3912:1 3980:1 4015:1 4221:1 4528:1 4529:1 4731:1 4740:1 4778:1 5092:1 5193:1 5223:1 5233:1 5368:1 5411:1 5679:1 5852:1 5878:1 6034:1 6204:1 6205:1 
0 1.478155630523886 0 816:1 925:1 1929:1 2146:1 2407:1 2635:1 2881:1 2882:1 3067:1 3068:1 3083:1 3090:1 3273:1 3444:1 3452:1 3453:1 3454:1 3455:1 3634:1 3731:1 3846:1 3912:1 3919:1 3920:1 3980:1 3989:1 3992:1 4528:1 4731:1 4778:1 5092:1 5368:1 5603:1 5604:1 5734:1 5739:1 5741:1 6275:1 
0 0.08451552146083381 0 71:1 392:1 417:1 816:1 978:1 1160:1 1164:1 1308:1 1470:1 1486:1 1487:1 1643:1 1929:1 2064:1 2101:1 2146:1 2176:1 2338:1 2354:1 2628:1 2635:1 2754:1 2757:1 2760:1 2842:1 3067:1 3273:1 3275:1 3444:1 3452:1 3453:1 3454:1 3455:1 3516:1 3543:1 3545:1 3634:1 3671:1 3726:1 3820:1 3846:1 3980:1 4015:1 4463:1 4466:1 4474:1 4484:1 4485:1 4489:1 4490:1 4528:1 4529:1 4729:1 4731:1 4778:1 4975:1 5092:1 5283:1 5309:1 5368:1 5370:1 5679:1 5734:1 5819:1 5852:1 6032:1 6275:1 
0.03178833874602148 0 0.10043607414845 71:1 482:1 586:1 816:1 1308:1 1643:1 1687:1 1794:1 1929:1 2146:1 2407:1 2408:1 2422:1 2595:1 2635:1 2731:1 2969:1 3033:1 3041:1 3067:1 3273:1 3389:1 3444:1 3452:1 3453:1 3454:1 3455:1 3634:1 3671:1 3820:1 3846:1 3904:1 3980:1 4528:1 4731:1 4763:1 4778:1 5092:1 5368:1 5618:1 5652:1 5656:1 5662:1 6034:1 6128:1 6145:1 6146:1 
0.002658128560042022 0.04260383142521421 0 149:1 265:1 425:1 816:1 1116:1 1273:1 1308:1 1596:1 1607:1 1643:1 1736:1 1852:1 1866:1 1929:1 2050:1 2056:1 2146:1 2176:1 2208:1 2248:1 2407:1 2515:1 2550:1 2635:1 2652:1 2731:1 2894:1 2919:1 2969:1 2984:1 3067:1 3154:1 3179:1 3273:1 3444:1 3452:1 3453:1 3454:1 3455:1 3634:1 3635:1 3662:1 3671:1 3846:1 3922:1 3948:1 3980:1 4015:1 4528:1 4731:1 4740:1 4778:1 5092:1 5142:1 5368:1 5734:1 5819:1 5852:1 5878:1 6034:1 6128:1 6145:1 6146:1 6151:1 
0 0.1468521510578124 0.04286416265245368 71:1 112:1 131:1 265:1 379:1 816:1 894:1 1055:1 1073:1 1308:1 1426:1 1427:1 1596:1 1607:1 1643:1 1666:1 1794:1 1811:1 1825:1 1842:1 1852:1 1853:1 1929:1 2146:1 2159:1 2407:1 2408:1 2420:1 2421:1 2635:1 2652:1 2842:1 3067:1 3068:1 3083:1 3194:1 3195:1 3207:1 3273:1 3444:1 3452:1 3453:1 3454:1 3455:1 3516:1 3634:1 3671:1 3673:1 3700:1 3846:1 3870:1 3904:1 3912:1 3980:1 4015:1 4221:1 4222:1 4227:1 4228:1 4229:1 4455:1 4456:1 4528:1 4731:1 4740:1 4742:1 4778:1 4780:1 5092:1 5193:1 5283:1 5284:1 5368:1 5370:1 5581:1 5585:1 5734:1 5841:1 
0 0.02947456460301981 0 816:1 1308:1 1643:1 1736:1 1929:1 2146:1 2176:1 2177:1 2635:1 2679:1 2693:1 2731:1 2894:1 3067:1 3207:1 3258:1 3261:1 3267:1 3273:1 3394:1 3444:1 3452:1 3453:1 3454:1 3455:1 3516:1 3634:1 3671:1 3731:1 3737:1 3846:1 3870:1 3980:1 4528:1 4731:1 4778:1 5092:1 5368:1 5542:1 5558:1 5581:1 5585:1 5734:1 6034:1 6128:1 6145:1 6146:1 
0 0.01260141979654358 0 71:1 308:1 320:1 363:1 482:1 586:1 593:1 645:1 646:1 647:1 816:1 817:1 978:1 1643:1 1794:1 1929:1 2002:1 2146:1 2176:1 2255:1 2628:1 2635:1 2969:1 3067:1 3068:1 3076:1 3083:1 3090:1 3154:1 3207:1 3216:1 3273:1 3444:1 3452:1 3453:1 3454:1 3455:1 3634:1 3846:1 3891:1 3904:1 3980:1 4015:1 4017:1 4056:1 4057:1 4221:1 4251:1 4528:1 4529:1 4731:1 4778:1 5092:1 5142:1 5175:1 5176:1 5368:1 5411:1 5434:1 5435:1 5436:1 5542:1 6034:1 6073:1 6275:1 
0 0.04042634951716899 0 816:1 817:1 1122:1 1125:1 1308:1 1643:1 1929:1 2002:1 2064:1 2101:1 2146:1 2176:1 2255:1 2338:1 2382:1 2628:1 2635:1 2652:1 2731:1 3067:1 3068:1 3154:1 3192:1 3207:1 3216:1 3273:1 3275:1 3444:1 3452:1 3453:1 3454:1 3455:1 3634:1 3671:1 3726:1 3846:1 3859:1 3891:1 3904:1 3980:1 4015:1 4221:1 4222:1 4234:1 4251:1 4293:1 4528:1 4729:1 4731:1 4764:1 4778:1 5092:1 5094:1 5368:1 5370:1 5411:1 5434:1 5435:1 5436:1 5618:1 5662:1 5663:1 5734:1 5852:1 6034:1 6035:1 6051:1 6128:1 6145:1 6146:1 
0.1117694138363021 0.1085814905099575 0 71:1 816:1 999:1 1011:1 1012:1 1308:1 1470:1 1643:1 1736:1 1764:1 1794:1 1811:1 1824:1 1929:1 2146:1 2628:1 2635:1 2674:1 2842:1 3067:1 3154:1 3160:1 3161:1 3273:1 3444:1 3452:1 3453:1 3454:1 3455:1 3634:1 3820:1 3846:1 3980:1 4015:1 4189:1 4190:1 4321:1 4329:1 4344:1 4528:1 4731:1 4778:1 4864:1 4906:1 4912:1 4920:1 4927:1 4930:1 4935:1 5092:1 5283:1 5368:1 5411:1 5479:1 5542:1 5679:1 5709:1 5713:1 5715:1 5734:1 5852:1 5925:1 6034:1 6128:1 6163:1 6275:1 
0.08346083686253762 0.2104511617828775 0.006915758826346364 183:1 308:1 357:1 482:1 483:1 504:1 690:1 691:1 816:1 925:1 1308:1 1310:1 1339:1 1643:1 1658:1 1674:1 1676:1 1736:1 1794:1 1852:1 1929:1 1945:1 2146:1 2407:1 2515:1 2597:1 2635:1 2674:1 2874:1 2969:1 3067:1 3207:1 3228:1 3273:1 3444:1 3452:1 3453:1 3454:1 3455:1 3634:1 3635:1 3731:1 3738:1 3740:1 3822:1 3846:1 3900:1 3912:1 3938:1 3942:1 3980:1 4015:1 4528:1 4731:1 4778:1 5069:1 5070:1 5092:1 5193:1 5223:1 5368:1 5411:1 5734:1 6034:1 6113:1 6128:1 6162:1 
0.07968612243826727 0.3243618443869213 0 232:1 482:1 816:1 978:1 1267:1 1308:1 1643:1 1674:1 1687:1 1714:1 1716:1 1736:1 1794:1 1929:1 2117:1 2146:1 2176:1 2255:1 2267:1 2407:1 2628:1 2635:1 2764:1 2842:1 2874:1 2969:1 3067:1 3154:1 3185:1 3273:1 3363:1 3444:1 3452:1 3453:1 3454:1 3455:1 3634:1 3726:1 3731:1 3846:1 3980:1 4015:1 4528:1 4529:1 4614:1 4731:1 4764:1 4778:1 4864:1 4906:1 4909:1 5092:1 5142:1 5152:1 5153:1 5193:1 5223:1 5230:1 5272:1 5355:1 5364:1 5365:1 5368:1 5411:1 5479:1 5618:1 5672:1 5682:1 5734:1 5739:1 5819:1 6034:1 6110:1 6233:1 
