svm_type c_svc
kernel_type linear
nr_class 4
total_sv 27
rho -0.354285 -0.819898 1.00027 -0.506731 1.00037 1.00038
label 0 2 1 3
nr_sv 8 7 6 6
SV
0.344349415739201 0.2044286782050408 1.094386838954912 41:1 59:1 
0.06458563708517273 0.1048384126941004 0 27:1 41:1 59:1 63:1 
0.2284556699707694 0.1315284365756688 0.6427445813693837 7:1 22:1 34:1 
0.06447232477451567 0.03569390890736602 0.07203575174443666 7:1 12:1 15:1 36:1 37:1 62:1 77:1 78:1 84:1 85:1 105:1 106:1 107:1 132:1 168:1 
0.1100678116086228 0.06616525861077109 0.1419178529259312 9:1 26:1 47:1 49:1 53:1 84:1 110:1 114:1 145:1 147:1 148:1 168:1 
0.2152133454001016 0.06000688904761759 0.6668906012372986 19:1 65:1 146:1 
0.08760340085760776 0.09214241078476762 0.09934761869620315 32:1 33:1 35:1 45:1 46:1 74:1 82:1 84:1 90:1 106:1 150:1 152:1 169:1 
0.1548707663288045 0.1702460561738807 0.1522054688942448 45:1 63:1 82:1 84:1 86:1 89:1 93:1 130:1 156:1 157:1 
-0.068001490297395 0.08564764217889363 0.07017872718891008 4:1 10:1 28:1 30:1 36:1 41:1 42:1 52:1 60:1 61:1 63:1 76:1 81:1 82:1 140:1 150:1 153:1 154:1 
-0.007661341786491814 0.05842249573618933 0.001630078963957769 2:1 4:1 6:1 26:1 56:1 58:1 73:1 82:1 84:1 117:1 118:1 131:1 144:1 150:1 162:1 
-0.1044034072962924 0.09683713673510291 0.04709595462621544 7:1 36:1 41:1 42:1 62:1 63:1 67:1 70:1 82:1 84:1 95:1 97:1 116:1 126:1 143:1 159:1 160:1 161:1 
-0.1112846794524445 0.1121322152754973 0.09833856756283954 10:1 43:1 45:1 51:1 63:1 64:1 82:1 84:1 87:1 99:1 110:1 111:1 134:1 137:1 
-0.2740131241458659 0.08815805986274461 0.3589035171075208 55:1 77:1 82:1 102:1 133:1 
-0.4831211601635431 0.2468649038911585 1.087798461713654 26:1 101:1 131:1 
-0.2211331686227628 0.1322703341207648 0.2663969705451663 44:1 84:1 108:1 113:1 122:1 125:1 141:1 
-0.129483327406416 -0.1822936538382306 0.1273067803103978 23:1 26:1 31:1 63:1 84:1 88:1 92:1 123:1 131:1 150:1 153:1 154:1 
-0.2656194683944235 -0.2172312204228677 0.211475111276207 1:1 39:1 41:1 42:1 45:1 84:1 121:1 127:1 
-0.1548331439048626 -0.1389894418622987 0.09849984856630344 7:1 17:1 63:1 82:1 84:1 87:1 89:1 115:1 117:1 128:1 143:1 151:1 157:1 165:1 
-0.07764724152718137 -0.08490830758058078 0.06259093508226971 3:1 11:1 18:1 24:1 25:1 29:1 41:1 60:1 71:1 82:1 84:1 104:1 120:1 137:1 138:1 150:1 158:1 
-0.1420414621796728 -0.1197538993022247 0.1727894532275102 8:1 20:1 32:1 38:1 57:1 98:1 103:1 109:1 137:1 139:1 149:1 153:1 
-0.09542540758665691 -0.0771562647941485 0.0546582829349888 7:1 13:1 16:1 41:1 47:1 50:1 63:1 66:1 82:1 84:1 91:1 96:1 129:1 135:1 155:1 163:1 164:1 
-0.01538538929256711 -0.3000769192907549 -0.008640604966638984 14:1 26:1 54:1 79:1 131:1 
-0.1887736779098248 -0.04909954265059871 -0.1150122374534611 36:1 41:1 73:1 153:1 165:1 167:1 
-0.01540601959430514 -0.332863587745784 -0.0871271977113864 26:1 40:1 112:1 131:1 137:1 
-0.03378165384883789 -0.01176091387952663 -0.03659860459573173 5:1 37:1 47:1 48:1 62:1 68:1 69:1 75:1 77:1 78:1 79:1 83:1 84:1 94:1 100:1 136:1 137:1 142:1 165:1 166:1 
-0 -0.01002553245555858 -0.02459260954822536 21:1 57:1 72:1 80:1 81:1 119:1 124:1 
-2.616181973176876 -1.226515781686041 -0.4553491571222333 
